
\data\
ngram 1=1351
ngram 2=3718
ngram 3=479

\1-grams:
-1.16014	</s>
-99	<s>	-2.677909
-3.826711	<unk>
-3.224598	―	-0.1448714
-2.923568	　	-0.09858213
-1.083148	、	-0.3513881
-1.165792	。	-0.8086523
-3.127688	々	-0.2405632
-3.826658	あ	-0.07939662
-2.650567	ああ	-1.261236
-3.826658	あおり	-0.07939662
-3.826658	あがり	-0.1167616
-3.826658	あきれ	-0.085701
-3.826658	あげ	-0.1166969
-3.826658	あげよ	-0.1166969
-3.826658	あげる	-0.1023463
-3.826658	あたりまえ	-0.09939148
-3.826658	あちこち	-0.085701
-2.785265	あっ	-0.8430436
-3.826658	あっぱれ	-0.085701
-3.826658	あて	-0.07939662
-3.224598	あなた	-0.2070641
-2.826658	あの	-0.2188195
-3.525628	ありがたい	-0.3153523
-3.525628	ありがとう	-0.3153523
-2.46493	ある	-1.125602
-3.224598	あれ	-0.1450241
-3.826658	あん	-0.1117476
-2.547904	い	-0.7128966
-2.785265	いい	-0.3898586
-3.826658	いいえ	-0.085701
-3.349536	いう	-0.3442284
-3.826658	いえ	-0.1117476
-3.525628	いき	-0.3307241
-3.826658	いきり立っ	-0.07939662
-3.349536	いく	-0.3335537
-3.525628	いけ	-0.08298034
-3.826658	いこ	-0.1010728
-3.525628	いちばん	-0.07264119
-3.525628	いっ	-0.09580534
-3.826658	いっそ	-0.1161785
-3.826658	いっぱい	-0.1165673
-3.826658	いつ	-0.07939662
-3.826658	いも	-0.1166969
-3.224598	いや	-0.2070641
-3.826658	いよ	-0.1010728
-3.525628	いよいよ	-0.08298034
-2.258456	いる	-1.141032
-3.826658	いろ	-0.1010728
-2.547904	う	-0.2348296
-3.826658	うえ	-0.1157894
-3.826658	うずくまり	-0.1032823
-3.349536	うそ	-0.07819544
-3.826658	うた	-0.1167616
-3.224598	うち	-0.1918033
-3.826658	うと	-0.1117476
-3.826658	うとうと	-0.07939662
-3.826658	うなずい	-0.1106328
-3.525628	うなずき	-0.340284
-3.826658	うなり	-0.1032823
-3.826658	うぬぼれ	-0.085701
-3.826658	うめく	-0.085701
-3.826658	うるさく	-0.07939662
-3.826658	うれしい	-0.085701
-3.826658	うれし泣き	-0.11488
-3.525628	うんと	-0.06461254
-3.525628	えい	-0.04535715
-2.98156	お	-0.155545
-3.826658	おい	-0.1010728
-3.826658	おいおい	-0.1032823
-3.826658	おけ	-0.1010728
-3.826658	おっしゃる	-0.1023463
-2.525628	おまえ	-0.7068945
-3.826658	おめでとう	-0.085701
-3.826658	おもしろい	-0.111944
-3.525628	おら	-0.3307241
-3.224598	おり	-0.1421903
-3.826658	おわび	-0.1106328
-3.525628	お互い	-0.06035759
-3.826658	お子様	-0.09695884
-2.46493	か	-0.2483427
-3.826658	かかっ	-0.1032823
-3.826658	かがめ	-0.1023463
-3.224598	かき分け	-0.05754708
-3.127688	かけ	-0.1658564
-3.826658	かじりつい	-0.07939662
-3.826658	かすか	-0.1105014
-3.826658	かすれ	-0.07939662
-3.224598	かた	-0.5238759
-3.826658	かたまり	-0.09695884
-3.826658	かっと	-0.07939662
-3.826658	かなっ	-0.09939148
-3.826658	かなわ	-0.1167616
-3.826658	かの	-0.07939662
-3.826658	かも	-0.09695884
-2.349536	から	-0.1778852
-3.826658	からかっ	-0.1023463
-3.826658	かわいい	-0.1157894
-1.839886	が	-0.1107653
-3.826658	がら	-0.114099
-2.68053	き	-1.160338
-3.826658	きい	-0.07939662
-3.826658	きかせ	-0.1023463
-3.525628	きっ	-0.1165026
-3.349536	きっと	-0.3118774
-2.712714	きみ	-0.2209576
-3.826658	きらきら	-0.1010728
-3.826658	きり	-0.1166969
-3.826658	きる	-0.1166969
-3.826658	きれい	-0.085701
-3.826658	くぐり抜け	-0.1023463
-2.923568	ください	-0.938489
-3.826658	くだらない	-0.07939662
-3.525628	くらい	-0.1143595
-3.826658	くり	-0.1105014
-3.224598	くる	-0.5087702
-3.349536	くるう	-0.2555692
-2.547904	くれ	-1.365774
-3.525628	くれる	-0.3307241
-3.826658	ぐずぐず	-0.1032823
-3.127688	けれども	-0.2767039
-3.525628	こ	-0.3307241
-3.127688	こい	-1.903076
-3.525628	こう	-0.07932606
-3.826658	こうむっ	-0.1167616
-2.826658	ここ	-0.2689861
-3.525628	こそ	-0.3454407
-3.826658	こちら	-0.07939662
-3.826658	こっ	-0.07939662
-2.484235	こと	-0.1211412
-2.622538	この	-0.16438
-3.826658	この世	-0.07939662
-3.826658	こめ	-0.1032823
-3.826658	こらえ	-0.111944
-3.127688	これ	-0.3353323
-3.349536	これから	-0.3118774
-3.826658	これしき	-0.09695884
-3.826658	こんなに	-0.1157894
-3.224598	ご	-0.02464834
-3.048506	ござい	-0.8381204
-3.826658	ごちそう	-0.09695884
-3.349536	ごとく	-0.3294396
-3.826658	ごろりと	-0.1032823
-2.923568	さ	-0.162578
-3.826658	さあ	-0.085701
-3.349536	さえ	-0.2412165
-3.826658	さける	-0.1167616
-3.826658	ささげ	-0.1032823
-3.525628	ささやき	-0.09682329
-3.826658	さすが	-0.07939662
-3.826658	させ	-0.1167616
-3.826658	さっさと	-0.07939662
-3.525628	さっと	-0.0738578
-3.826658	さて	-0.085701
-3.826658	さては	-0.085701
-3.525628	さま	-0.09682329
-3.826658	さらに	-0.1117476
-3.826658	さらば	-0.085701
-3.826658	さらわ	-0.1032823
-3.826658	さん	-0.1167616
-3.826658	さんざん	-0.07939662
-3.826658	ざ	-0.07939662
-2.041328	し	-0.1435038
-3.826658	しかた	-0.085701
-3.525628	しばらく	-0.04535715
-3.826658	しまえ	-0.1010728
-3.127688	しまっ	-0.3846239
-3.826658	しまわ	-0.1106328
-3.826658	しよ	-0.1165026
-3.826658	しれ	-0.1167616
-3.826658	しわ	-0.09695884
-3.525628	しわがれ	-0.06219674
-3.826658	じだんだ	-0.07939662
-3.525628	じゃ	-0.1166321
-3.826658	すかし	-0.07939662
-3.826658	すがりつく	-0.07939662
-3.826658	すくっ	-0.1106328
-2.923568	すぐ	-0.09897799
-3.826658	すごし	-0.1167616
-3.127688	すでに	-0.1386618
-3.127688	する	-0.1660639
-3.826658	するりと	-0.07939662
-3.525628	すれ	-0.1162434
-3.826658	すれ違っ	-0.1166969
-3.826658	すん	-0.1105014
-3.048506	ず	-0.11527
-3.525628	ずつ	-0.1143595
-3.826658	ずんずん	-0.085701
-2.923568	せ	-0.2407539
-3.826658	せい	-0.09695884
-3.826658	せせら笑う	-0.1023463
-3.525628	ぜ	-0.08437768
-3.826658	ぜひとも	-0.09939148
-2.98156	そう	-0.2359195
-3.224598	そうして	-0.4933984
-3.525628	そっと	-0.04535715
-2.504438	その	-0.4740689
-2.650567	それ	-0.7918249
-2.98156	それから	-0.7909426
-3.826658	それでは	-0.085701
-3.826658	それでも	-0.07939662
-3.525628	そろそろ	-0.3090479
-3.826658	そん	-0.111944
-3.525628	そんなに	-0.3153523
-2.923568	ぞ	-0.08944018
-1.494219	た	-0.364409
-2.872415	たい	-0.2276793
-3.826658	たかっ	-0.1155947
-3.826658	たく	-0.1165026
-3.826658	たくさん	-0.085701
-3.826658	たたい	-0.1023463
-3.826658	たたえ	-0.1023463
-3.224598	ただ	-0.124548
-2.826658	たち	-0.2313288
-3.525628	たちまち	-0.04535715
-3.349536	たった	-0.1842943
-3.826658	たて	-0.1167616
-3.826658	たぶん	-0.07939662
-3.826658	たまえ	-0.1167616
-3.826658	たまらない	-0.07939662
-3.826658	たまらなく	-0.07939662
-2.872415	ため	-0.4397107
-3.826658	ためらい	-0.1167616
-3.525628	ため息	-0.1166321
-2.923568	たら	-0.2437608
-1.848934	だ	-0.4274885
-3.525628	だいじょうぶ	-0.1157894
-2.98156	だけ	-0.1091199
-3.224598	だし	-0.1163082
-3.525628	だっ	-0.1163082
-3.224598	だって	-0.113708
-3.349536	だの	-0.1160489
-3.826658	だまさ	-0.1032823
-3.826658	だめ	-0.07939662
-3.826658	だらし	-0.085701
-3.048506	だろ	-0.1747658
-3.826658	だんだん	-0.07939662
-3.826658	ちがい	-0.1032823
-3.826658	ちゃんと	-0.07939662
-3.826658	ちょうど	-0.085701
-3.127688	ちょっと	-0.2175775
-3.826658	ちら	-0.07939662
-3.826658	って	-0.1026808
-3.525628	つい	-0.07012562
-3.224598	ついに	-0.487094
-3.826658	つき	-0.1166321
-3.826658	つく	-0.1023463
-3.826658	つくっ	-0.111944
-3.826658	つけ	-0.1023463
-3.826658	つつ	-0.1155947
-3.826658	つぶやき	-0.1010728
-3.826658	つぶれ	-0.1105014
-3.127688	つもり	-0.1094492
-3.826658	つらい	-0.1166321
-3.826658	つらかっ	-0.07939662
-3.525628	つり上げ	-0.07932606
-1.44826	て	-0.3498339
-3.826658	てれ	-0.07939662
-1.848934	で	-0.1552192
-2.747477	でき	-0.326658
-3.525628	できる	-0.07249784
-2.872415	です	-0.4397786
-2.923568	でも	-0.2730024
-1.934563	と	-0.1553933
-3.349536	という	-0.115075
-3.826658	とおり	-0.09695884
-3.826658	とかいう	-0.1165673
-2.98156	とき	-0.2828713
-3.826658	とく	-0.1165673
-3.525628	ところ	-0.1164378
-3.127688	として	-0.1139035
-3.525628	とともに	-0.1165674
-3.826658	とどまっ	-0.1167616
-3.826658	ともに	-0.111944
-3.826658	とんでもない	-0.085701
-2.98156	どう	-0.3691965
-3.826658	どうか	-0.07939662
-3.826658	どうせ	-0.085701
-3.826658	どうどう	-0.07939662
-3.826658	どうにか	-0.07939662
-3.826658	どき	-0.1166969
-3.826658	どっこい	-0.085701
-3.826658	どっと	-0.085701
-3.826658	ども	-0.1167616
-3.826658	どよめい	-0.07939662
-3.525628	どんな	-0.3090479
-2.203408	な	-0.1460378
-2.203408	ない	-0.3494154
-2.747477	なかっ	-0.2109885
-3.826658	なかなか	-0.085701
-2.98156	ながら	-0.1664114
-2.872415	なく	-0.124682
-2.98156	なけれ	-0.1681743
-3.826658	なぜ	-0.085701
-3.826658	なぞ	-0.116373
-3.826658	なだめ	-0.1023463
-2.596209	なっ	-0.6129892
-3.525628	など	-0.07932606
-3.349536	なに	-0.1842943
-3.525628	なにか	-0.3090479
-3.826658	なにもかも	-0.07939662
-2.547904	なら	-0.2482097
-3.525628	なり	-0.3329336
-3.127688	なる	-0.3340276
-3.127688	なん	-0.2178832
-3.525628	なんだか	-0.3090479
-1.512791	に	-0.2251259
-3.826658	にぎやか	-0.09939148
-3.826658	について	-0.1167616
-3.826658	に対して	-0.1167616
-2.270355	ぬ	-0.4517651
-3.525628	ぬる	-0.1164378
-3.826658	ね	-0.1144246
-1.349537	の	-0.232945
-3.826658	のそのそ	-0.07939662
-3.826658	のに	-0.1144246
-3.826658	のみ	-0.1023463
-3.826658	のん	-0.1023463
-3.525628	のんき	-0.06432043
-1.405054	は	-0.3879573
-3.826658	はい	-0.085701
-3.826658	はさん	-0.1032823
-3.525628	はず	-0.09986293
-3.826658	はたと	-0.07939662
-3.826658	はっ	-0.1165026
-3.826658	はで	-0.1167616
-3.826658	はね	-0.1023463
-3.826658	はばかる	-0.1023463
-3.826658	はらわ	-0.09695884
-3.826658	はり	-0.1155947
-3.127688	はりつけ	-0.1394713
-3.826658	はるか	-0.085701
-3.826658	はるばる	-0.07939662
-2.650567	ば	-0.2683052
-3.826658	ばか	-0.085701
-3.826658	ばかばかしい	-0.07939662
-3.127688	ばかり	-0.180349
-3.826658	ばら	-0.1166969
-3.826658	ぱ	-0.1167616
-3.525628	ひしと	-0.06358929
-3.826658	ひっそり	-0.085701
-3.826658	ひとつ	-0.1166321
-3.826658	ひと口	-0.07939662
-3.826658	ひと眠り	-0.1165026
-3.826658	ひどく	-0.07939662
-3.826658	ひょいと	-0.09939148
-3.826658	ひょっとしたら	-0.085701
-3.826658	ひるむ	-0.09695884
-3.826658	ふい	-0.07939662
-3.826658	ふてくされ	-0.114099
-3.826658	ふと	-0.085701
-3.826658	ふり	-0.1026808
-3.826658	ふるさと	-0.07939662
-3.826658	ぶと	-0.1165026
-3.826658	ぶどう	-0.07939662
-3.525628	ぶらぶら	-0.07012562
-3.826658	ぶり	-0.1166969
-3.826658	ぶる	-0.07939662
-3.048506	へ	-0.1144897
-3.525628	べき	-0.1166969
-3.525628	ほう	-0.08563146
-3.349536	ほか	-0.2356926
-3.826658	ほくそ笑ん	-0.1166969
-3.826658	ほしい	-0.1010728
-3.525628	ほっと	-0.3090479
-3.826658	ほとんど	-0.07939662
-3.224598	ほど	-0.11142
-3.826658	ほどか	-0.07939662
-3.826658	ほほえみ	-0.1167616
-3.826658	ほんの	-0.085701
-3.826658	ぽつりぽつり	-0.07939662
-3.826658	まい	-0.1155947
-3.525628	まえ	-0.1025471
-3.826658	まごつい	-0.07939662
-3.826658	まさか	-0.07939662
-3.826658	まさしく	-0.07939662
-3.826658	まさに	-0.07939662
-3.224598	まし	-0.113708
-3.826658	まじまじ	-0.07939662
-2.712714	ます	-0.2019094
-3.826658	ますます	-0.07939662
-3.826658	まず	-0.085701
-3.349536	ませ	-0.1153999
-3.224598	また	-0.1291648
-3.048506	まだ	-0.2508867
-3.826658	まだまだ	-0.07939662
-3.826658	まっすぐ	-0.085701
-3.826658	まっただ中	-0.09695884
-2.747477	まで	-0.2162015
-3.826658	まとも	-0.1105014
-3.826658	まどろん	-0.07939662
-3.127688	まま	-0.0467286
-3.826658	まもなく	-0.07939662
-3.826658	み	-0.1010728
-3.826658	みごと	-0.07939662
-3.349536	みじん	-0.2182631
-3.826658	みせる	-0.1010728
-3.349536	みる	-0.3335537
-3.826658	みれ	-0.1010728
-3.826658	むち打ち	-0.1032823
-3.826658	むんむん	-0.07939662
-3.349536	め	-0.3483351
-3.826658	めいめい	-0.07939662
-3.826658	めまい	-0.1162434
-1.951596	も	-0.1455539
-2.826658	もう	-0.6064801
-3.826658	もし	-0.1105014
-3.826658	もた	-0.1023463
-3.826658	もたげ	-0.1023463
-3.525628	もち	-0.09709435
-3.525628	もっ	-0.3319976
-3.525628	もっと	-0.06035759
-3.826658	もともと	-0.07939662
-2.826658	もの	-0.05142053
-3.525628	もはや	-0.3090479
-3.826658	もみ手	-0.09939148
-3.349536	や	-0.07106166
-3.349536	やがて	-0.3118774
-3.826658	やけに	-0.07939662
-3.826658	やっ	-0.1010728
-3.525628	やってき	-0.3329336
-3.826658	やっと	-0.07939662
-3.525628	やつ	-0.1140339
-3.525628	やはり	-0.04535715
-3.826658	やみ	-0.111944
-3.349536	やめ	-0.1842943
-3.525628	やら	-0.1166321
-3.349536	やり	-0.3335537
-3.048506	やる	-0.4507782
-3.349536	やろ	-0.3335537
-3.826658	ゆえ	-0.1158543
-3.349536	ゆく	-0.2335858
-3.826658	ゆっくり	-0.085701
-3.826658	ゆらゆら	-0.07939662
-2.923568	よ	-0.2006238
-2.872415	よい	-0.2392564
-2.712714	よう	-0.2379953
-3.826658	よかっ	-0.1106328
-3.826658	よかろ	-0.1105014
-3.349536	よき	-0.03936359
-3.826658	よくも	-0.085701
-3.826658	よくよく	-0.07939662
-3.349536	より	-0.1158543
-3.826658	よろしい	-0.07939662
-3.826658	よろめい	-0.085701
-3.349536	よろよろ	-0.1842943
-3.224598	ら	-0.2770419
-3.525628	らしい	-0.3440759
-2.872415	られ	-0.310562
-3.826658	られる	-0.1166969
-2.547904	れ	-0.2213817
-2.872415	れる	-0.3110163
-3.349536	わい	-0.2396742
-3.826658	わかっ	-0.07939662
-3.349536	わから	-0.2292726
-3.525628	わが身	-0.04535715
-3.826658	わけ	-0.07939662
-2.923568	わし	-0.3617976
-3.826658	わび	-0.1010728
-3.826658	わめい	-0.1032823
-1.484235	を	-0.2255708
-3.826658	をもって	-0.1166969
-3.127688	ん	-0.1135776
-3.826658	アレキス	-0.09695884
-3.349536	クス	-0.3491129
-3.349536	シ	-0.2172033
-2.650567	セリヌンティウス	-0.4535263
-3.525628	ゼウス	-0.07932606
-3.349536	ディオニス	-0.3489186
-3.525628	フィロストラトス	-0.08514431
-3.525628	マント	-0.09553348
-1.945844	メロス	-0.8157635
-3.349536	ラ	-0.3491129
-2.826658	一	-0.123743
-3.349536	一つ	-0.1014754
-3.826658	一事	-0.1154648
-3.826658	一切	-0.1032823
-3.525628	一刻	-0.08563146
-3.826658	一団	-0.085701
-3.826658	一家	-0.09695884
-3.826658	一度	-0.1106328
-3.826658	一挙	-0.1167616
-3.826658	一撃	-0.1167616
-3.826658	一斉	-0.1164378
-3.525628	一気に	-0.0687539
-3.826658	一片	-0.09695884
-3.826658	一生	-0.07939662
-3.826658	一睡	-0.07939662
-3.826658	一緒	-0.1117476
-3.525628	万	-0.08542275
-2.747477	三	-0.1938905
-3.826658	三里	-0.1166969
-3.525628	上げ	-0.3319976
-3.826658	上っ	-0.1032823
-3.826658	上り	-0.1032823
-3.826658	下っ	-0.1023463
-3.826658	下流	-0.1117476
-3.826658	不	-0.1032823
-3.525628	不信	-0.07869045
-3.525628	不吉	-0.07925548
-3.826658	不名誉	-0.07939662
-3.826658	不安	-0.1167616
-3.826658	不幸	-0.1167616
-3.826658	与え	-0.1023463
-3.826658	世の中	-0.085701
-3.826658	世界	-0.1166321
-3.826658	世継ぎ	-0.116373
-3.826658	両	-0.1117476
-3.525628	両手	-0.08430792
-3.826658	両足	-0.09695884
-3.525628	中	-0.3266101
-3.826658	中途	-0.085701
-3.826658	久しく	-0.085701
-3.826658	乱れ	-0.1166969
-3.525628	乱心	-0.06035759
-3.525628	事情	-0.09661989
-2.923568	二	-0.09383644
-3.826658	二里	-0.1010728
-3.826658	五臓	-0.085701
-3.349536	亭主	-0.04528081
-2.308144	人	-0.2877662
-3.826658	人々	-0.07939662
-3.826658	人一倍	-0.07939662
-3.826658	人種	-0.09695884
-3.349536	人質	-0.2025264
-3.349536	人間	-0.05717592
-2.622538	今	-0.6833265
-3.525628	今宵	-0.04535715
-3.525628	今度	-0.04535715
-3.224598	今日	-0.2070641
-3.826658	今頃	-0.085701
-3.826658	仕事	-0.1010728
-3.826658	他	-0.085701
-3.826658	代わり	-0.09695884
-3.826658	仰い	-0.1023463
-3.826658	仰天	-0.1023463
-3.525628	仲間	-0.09184663
-3.826658	伏し	-0.1167616
-3.826658	会	-0.1167616
-3.826658	会い	-0.1032823
-3.826658	会っ	-0.1106328
-3.826658	会わ	-0.1167616
-3.826658	会話	-0.114099
-3.826658	会釈	-0.111944
-3.826658	似合い	-0.1167616
-3.826658	低	-0.1167616
-3.826658	低く	-0.1106328
-3.349536	体	-0.1966326
-2.98156	何	-0.09955015
-2.785265	信じ	-0.2584628
-3.826658	信ずる	-0.07939662
-3.127688	信実	-0.09344411
-3.826658	信念	-0.1167616
-3.349536	信頼	-0.1992947
-3.826658	倍	-0.1165026
-3.525628	倒し	-0.1166969
-3.826658	倒れ	-0.1032823
-3.826658	倒れる	-0.1106328
-3.826658	偉い	-0.1167616
-3.826658	偉大	-0.09695884
-3.826658	傾き	-0.1032823
-3.525628	僅か	-0.3090479
-3.826658	優しい	-0.09939148
-3.826658	優しく	-0.11488
-3.127688	兄	-0.1562727
-3.826658	先	-0.1165673
-3.525628	先刻	-0.04535715
-3.525628	光	-0.1166969
-3.826658	光っ	-0.1167616
-3.525628	入っ	-0.3329336
-3.826658	入れ	-0.1032823
-3.525628	全	-0.1166321
-3.826658	全く	-0.1023463
-3.826658	全て	-0.07939662
-3.826658	全体	-0.1159191
-3.826658	全身	-0.07939662
-3.525628	全部	-0.08563146
-3.349536	六	-0.2179808
-3.826658	内気	-0.07939662
-3.826658	再び	-0.085701
-3.826658	処し	-0.1032823
-3.826658	処刑	-0.07939662
-2.98156	出	-0.1974524
-3.826658	出かける	-0.1032823
-3.127688	出発	-0.2122493
-3.826658	分	-0.1165026
-3.826658	刑	-0.07939662
-3.224598	刑場	-0.03781337
-3.826658	列席	-0.1032823
-3.525628	初め	-0.3090479
-3.826658	初めて	-0.07939662
-3.826658	初夏	-0.085701
-3.525628	到着	-0.09655207
-3.826658	到達	-0.1032823
-3.826658	刻	-0.07939662
-3.826658	刻々	-0.09939148
-3.826658	刻み込ま	-0.07939662
-3.826658	刻限	-0.09695884
-3.349536	前	-0.2357604
-3.826658	前方	-0.07939662
-3.826658	前進	-0.111944
-3.224598	力	-0.3237547
-3.826658	力いっぱい	-0.085701
-3.525628	助け	-0.1018776
-3.525628	努め	-0.0980417
-3.826658	努力	-0.1165673
-3.826658	勇	-0.09695884
-3.224598	勇者	-0.1216575
-3.826658	動い	-0.1106328
-3.525628	動け	-0.0687539
-3.826658	勝っ	-0.1032823
-3.826658	勝手	-0.07939662
-3.826658	勢	-0.1167616
-3.826658	匹	-0.1167616
-3.127688	十	-0.07796761
-3.826658	十分	-0.1164378
-3.826658	十字架	-0.1158543
-3.826658	十里	-0.1164378
-3.826658	午前	-0.09695884
-3.826658	午後	-0.11488
-3.826658	半ば	-0.09695884
-3.826658	卑劣	-0.09695884
-3.826658	南無	-0.07939662
-3.826658	単純	-0.07939662
-3.826658	及ぶ	-0.1166321
-2.571385	友	-0.1441632
-3.525628	友人	-0.09628068
-3.525628	友達	-0.1157894
-3.826658	反駁	-0.1010728
-3.826658	取り直し	-0.1023463
-3.826658	取り返し	-0.1023463
-3.826658	受け	-0.1023463
-3.525628	口	-0.04535715
-3.826658	口々	-0.1117476
-3.525628	叫び	-0.08277035
-3.525628	叫ん	-0.1006027
-3.826658	召さ	-0.1032823
-3.525628	台	-0.09661989
-3.826658	叱っ	-0.1023463
-3.826658	叱り	-0.1023463
-3.826658	右	-0.09695884
-3.525628	同じ	-0.08024251
-3.826658	同時に	-0.1146849
-3.525628	名誉	-0.07727466
-3.525628	吏	-0.1166969
-3.826658	向かっ	-0.1032823
-3.826658	向こう	-0.1167616
-3.826658	吸い込ま	-0.1032823
-3.826658	吹き	-0.1023463
-3.826658	呆然	-0.1166969
-3.826658	呼び	-0.1032823
-3.826658	呼ぶ	-0.1023463
-3.349536	呼吸	-0.04528081
-2.98156	命	-0.08438039
-3.826658	命じ	-0.1023463
-3.826658	命乞い	-0.085701
-3.525628	命令	-0.0966877
-3.826658	哀れ	-0.111944
-3.826658	哀願	-0.1010728
-3.826658	品々	-0.1154648
-3.826658	問いつめ	-0.1010728
-3.349536	問題	-0.05479295
-3.826658	喉	-0.07939662
-3.826658	喜色	-0.1032823
-3.826658	嘲笑	-0.1105014
-3.826658	噴き	-0.1105014
-3.826658	四肢	-0.1165673
-3.826658	回し	-0.1167616
-3.826658	回復	-0.1165673
-3.826658	困憊	-0.1165673
-3.826658	囲み	-0.09695884
-3.826658	国王	-0.085701
-3.826658	地	-0.1167616
-3.826658	地上	-0.085701
-3.826658	地位	-0.09695884
-3.826658	地平線	-0.1167616
-3.826658	垂れ	-0.1023463
-3.525628	報い	-0.08702032
-3.525628	塔	-0.06432043
-3.826658	士	-0.09695884
-2.872415	声	-0.1017702
-3.525628	夕日	-0.07925548
-3.826658	外	-0.07939662
-3.127688	夜	-0.1829969
-3.826658	夜明け	-0.085701
-3.127688	夢	-0.1843266
-3.826658	夢見心地	-0.07939662
-3.826658	大き	-0.1144897
-3.525628	大きい	-0.1166969
-3.525628	大きく	-0.09580534
-3.826658	大きな	-0.1032823
-3.349536	大事	-0.2483863
-3.826658	大切	-0.085701
-3.525628	大声	-0.3413989
-3.826658	大蛇	-0.09695884
-3.826658	大路	-0.09695884
-3.826658	大雨	-0.114099
-3.525628	天	-0.08563146
-3.349536	太陽	-0.0641012
-3.525628	夫婦	-0.1154648
-3.826658	奥底	-0.09695884
-3.826658	奪い取っ	-0.1023463
-3.826658	女房	-0.085701
-3.826658	奸佞	-0.09695884
-3.826658	好き	-0.07939662
-3.826658	妄想	-0.114099
-2.747477	妹	-0.2464482
-3.525628	始め	-0.3319976
-3.349536	姿	-0.3294396
-3.826658	威厳	-0.1165026
-3.826658	娘	-0.1167616
-3.224598	婿	-0.1846156
-3.826658	嫌い	-0.1166969
-3.826658	子	-0.09695884
-3.826658	存する	-0.09695884
-3.826658	季節	-0.09695884
-3.826658	孤独	-0.09695884
-3.826658	守り	-0.1023463
-3.525628	守る	-0.3319976
-3.826658	守れ	-0.1023463
-3.826658	定まっ	-0.09695884
-3.826658	定法	-0.09695884
-3.525628	宝	-0.07925548
-3.826658	宣誓	-0.09695884
-3.525628	宴席	-0.07791234
-3.048506	家	-0.1572993
-3.826658	宿し	-0.1032823
-3.525628	寂しい	-0.1165674
-3.826658	寝	-0.07939662
-3.826658	寝転がっ	-0.1167616
-3.826658	察し	-0.1023463
-3.826658	対岸	-0.07939662
-3.826658	尋ね	-0.116373
-3.525628	小さく	-0.1031487
-3.826658	小屋	-0.1165026
-3.826658	小川	-0.07939662
-3.826658	小歌	-0.114099
-3.826658	小耳	-0.1023463
-3.525628	小降り	-0.1118786
-3.826658	小鳥	-0.1026808
-3.127688	少し	-0.218265
-3.826658	少しく	-0.07939662
-3.826658	少女	-0.09695884
-3.826658	尽き	-0.111944
-3.826658	尽くし	-0.1023463
-3.826658	山	-0.1106328
-3.224598	山賊	-0.1216575
-3.826658	山越え	-0.1167616
-3.826658	岩	-0.07939662
-3.224598	峠	-0.2002879
-3.826658	川	-0.09695884
-3.826658	川岸	-0.09939148
-3.826658	巡邏	-0.07939662
-3.826658	巣くっ	-0.1032823
-3.826658	差し出す	-0.1166969
-3.826658	巻き	-0.07939662
-3.826658	希代	-0.07939662
-3.349536	希望	-0.09634852
-3.826658	席	-0.09695884
-2.872415	帰っ	-0.1599686
-3.826658	帰り	-0.09695884
-3.349536	平和	-0.05044021
-3.826658	平気	-0.07939662
-3.525628	年	-0.3459595
-3.826658	幹	-0.09695884
-3.826658	幾分	-0.07939662
-3.525628	幾度	-0.06694237
-3.826658	床	-0.1167616
-3.224598	度	-0.2146996
-3.826658	引きずら	-0.1032823
-3.826658	引きずる	-0.1167616
-3.525628	引き出さ	-0.3329336
-3.826658	引き立て	-0.1023463
-3.826658	弟	-0.09695884
-3.826658	弟子	-0.09695884
-3.826658	張り	-0.09695884
-3.826658	強い	-0.07939662
-3.826658	強く	-0.1023463
-3.826658	影	-0.1010728
-3.224598	彼	-0.1850335
-3.826658	待ち伏せ	-0.1023463
-3.048506	待っ	-0.07451206
-3.826658	待つ	-0.07939662
-3.525628	待て	-0.3153523
-3.826658	律儀	-0.1153349
-3.826658	後	-0.09695884
-3.826658	徐々に	-0.07939662
-3.826658	徒	-0.09695884
-3.826658	御免	-0.1165026
-2.98156	心	-0.5848899
-3.826658	心構え	-0.09695884
-3.525628	心臓	-0.09587327
-3.525628	必ず	-0.04535715
-3.525628	必死	-0.06035759
-3.826658	必要	-0.1167616
-3.525628	忘れ	-0.08549234
-3.826658	忠誠	-0.09695884
-3.826658	思い	-0.1167616
-3.826658	思うつぼ	-0.09695884
-3.826658	思え	-0.1023463
-3.349536	思っ	-0.2506192
-3.349536	急い	-0.2272727
-3.525628	急ぎ	-0.08430792
-3.826658	急ぐ	-0.1166969
-3.826658	急げ	-0.085701
-3.826658	怪しく	-0.1023463
-3.826658	恐ろしく	-0.1166969
-3.826658	恥	-0.09695884
-3.826658	恥ず	-0.1166969
-3.826658	恨み	-0.116373
-3.826658	息	-0.07939662
-3.826658	悔しい	-0.1167616
-3.826658	悔しく	-0.09939148
-3.826658	悔し泣き	-0.07939662
-3.826658	悠々	-0.07939662
-3.349536	悪い	-0.04214012
-3.826658	悪びれ	-0.09939148
-3.525628	悪徳	-0.07925548
-3.525628	悪心	-0.04535715
-3.826658	悪魔	-0.1161785
-3.826658	悲しい	-0.09939148
-3.826658	情	-0.09695884
-3.826658	情け	-0.1032823
-3.826658	情けない	-0.09939148
-3.224598	愛	-0.1424207
-3.826658	愛する	-0.085701
-3.525628	感じ	-0.3319976
-3.826658	態	-0.1166321
-3.826658	憎ん	-0.1023463
-3.826658	憐愍	-0.1165673
-3.826658	憫笑	-0.07939662
-3.826658	懐中	-0.09695884
-3.349536	手	-0.04214012
-3.525628	打た	-0.1021455
-3.826658	打ち	-0.1026808
-3.826658	打ち破る	-0.1023463
-3.826658	打っ	-0.1023463
-3.826658	払い	-0.1106328
-3.826658	承諾	-0.1167616
-3.826658	投げ出し	-0.1023463
-3.826658	投じ	-0.1032823
-3.826658	折っ	-0.1023463
-3.826658	折り曲げ	-0.1023463
-3.826658	抜け	-0.1167616
-3.826658	抱い	-0.1023463
-3.826658	抱き合い	-0.1166969
-3.826658	抱き締め	-0.1166969
-3.525628	抱擁	-0.3413989
-3.826658	押し	-0.1167616
-3.826658	押しのけ	-0.1023463
-3.826658	押し寄せ	-0.07939662
-3.826658	押し流さ	-0.085701
-3.826658	拒め	-0.1023463
-3.826658	拳	-0.1023463
-3.826658	持ち物	-0.085701
-3.826658	挙げ	-0.1023463
-3.826658	挙げる	-0.1023463
-3.525628	振っ	-0.1022125
-3.826658	振り上げ	-0.1023463
-3.826658	捕まえ	-0.1023463
-3.826658	捕縛	-0.1032823
-3.826658	揺すぶっ	-0.1023463
-3.826658	撃ち	-0.111944
-3.525628	支度	-0.06432043
-3.826658	放さ	-0.1167616
-3.826658	放し	-0.07939662
-3.826658	放せ	-0.085701
-3.525628	放っ	-0.07012562
-3.826658	放免	-0.1023463
-3.826658	政治	-0.09939148
-3.826658	故郷	-0.1166969
-3.826658	敏感	-0.1032823
-3.525628	救う	-0.1003339
-3.525628	教え	-0.08702032
-3.826658	斜陽	-0.085701
-3.826658	断ち割っ	-0.1023463
-3.826658	新婦	-0.1167616
-3.826658	新郎	-0.085701
-3.826658	旅人	-0.09695884
-2.650567	日	-0.3683576
-3.826658	日暮れ	-0.09695884
-3.349536	日没	-0.04459334
-3.525628	日間	-0.3457002
-3.826658	日限	-0.09695884
-3.826658	早い	-0.085701
-3.826658	早かっ	-0.07939662
-3.826658	早く	-0.085701
-3.525628	昇っ	-0.3462186
-3.525628	明くる日	-0.06035759
-3.127688	明日	-0.1060916
-3.826658	星	-0.09695884
-3.826658	昨日	-0.085701
-3.349536	時	-0.07989025
-3.826658	暑く	-0.1166969
-3.525628	暗い	-0.05769547
-3.224598	暮らし	-0.1056135
-3.048506	暴君	-0.1652601
-3.826658	暴虐	-0.1166969
-3.525628	最も	-0.07264119
-3.349536	最後	-0.06868157
-3.525628	望み	-0.08277035
-3.826658	望ん	-0.1023463
-3.826658	期待	-0.1032823
-3.826658	木々	-0.07939662
-3.826658	未明	-0.1165673
-3.525628	未練	-0.09682329
-3.826658	本当に	-0.07939662
-2.872415	村	-0.2688817
-3.349536	村人	-0.04611959
-3.349536	来	-0.08444741
-3.826658	来れ	-0.1160489
-3.826658	枝	-0.111944
-3.826658	柱	-0.09695884
-3.826658	根	-0.111944
-3.826658	根性	-0.1026808
-3.525628	棍棒	-0.1018776
-3.826658	森	-0.07939662
-3.525628	楼	-0.3463482
-3.826658	楽しみ	-0.1105014
-2.98156	様	-0.1639181
-3.224598	様子	-0.1793573
-3.826658	横切り	-0.1023463
-3.826658	樹木	-0.09695884
-3.826658	橋	-0.1032823
-3.826658	橋桁	-0.1032823
-3.826658	欲しい	-0.1105014
-3.826658	欺い	-0.1023463
-3.826658	欺か	-0.07939662
-3.826658	欺く	-0.1023463
-3.525628	歌	-0.0967555
-3.525628	歌い	-0.0959412
-3.826658	歌っ	-0.1023463
-3.826658	歓喜	-0.07939662
-3.826658	歓声	-0.07939662
-3.826658	歔欷	-0.07939662
-3.826658	止まっ	-0.07939662
-3.826658	正当	-0.07939662
-3.349536	正直	-0.0430617
-3.349536	正義	-0.03789101
-3.826658	歩	-0.1160489
-3.048506	歩い	-0.1323283
-3.826658	歩き	-0.1117476
-3.826658	歩ける	-0.085701
-3.826658	歩こ	-0.1167616
-3.525628	歳	-0.3463482
-3.826658	死	-0.1167616
-3.349536	死な	-0.07149301
-3.224598	死ぬ	-0.05873266
-3.525628	死ん	-0.04535715
-3.826658	死刑	-0.1105014
-3.826658	死力	-0.09695884
-3.826658	残	-0.09695884
-3.826658	残し	-0.1023463
-3.826658	残ら	-0.09939148
-3.826658	残る	-0.07939662
-3.826658	残虐	-0.07939662
-3.127688	殴っ	-0.3601008
-3.826658	殴り	-0.1023463
-3.127688	殴れ	-0.3601008
-2.98156	殺さ	-0.07539855
-2.923568	殺し	-0.3526968
-3.525628	殺す	-0.1165674
-3.826658	母	-0.07939662
-3.826658	民	-0.07939662
-3.048506	気	-0.1152805
-3.826658	気がかり	-0.09695884
-3.826658	気がつか	-0.1032823
-3.826658	気の毒	-0.085701
-3.826658	気味	-0.111944
-3.525628	気持ち	-0.1140339
-3.349536	水	-0.1842943
-3.826658	水源	-0.09695884
-3.525628	永遠	-0.3090479
-3.826658	氾濫	-0.09939148
-3.826658	汗	-0.09695884
-3.349536	決して	-0.2181926
-3.826658	決まっ	-0.1032823
-3.525628	決意	-0.09709435
-3.224598	沈ま	-0.2403974
-3.525628	沈む	-0.1104357
-3.525628	沈ん	-0.11037
-3.826658	没し	-0.1032823
-3.826658	泉	-0.1154648
-3.224598	波	-0.06628835
-3.525628	泣い	-0.06219674
-3.525628	泣き	-0.3329336
-3.826658	泳い	-0.1023463
-3.525628	泳ぎ	-0.07012562
-3.826658	流す	-0.1023463
-3.127688	流れ	-0.07854907
-3.826658	流れる	-0.09695884
-3.826658	浮かべ	-0.1023463
-3.826658	浴びせ	-0.1023463
-3.826658	海	-0.07939662
-3.826658	消え	-0.1117476
-3.826658	消えよ	-0.07939662
-3.826658	涙	-0.1032823
-3.826658	深い	-0.09695884
-3.826658	深かっ	-0.1032823
-3.826658	深く	-0.1032823
-3.826658	深夜	-0.07939662
-3.826658	清らか	-0.1166969
-3.826658	清水	-0.116373
-3.826658	渡し守	-0.07939662
-3.826658	渦巻き	-0.1167616
-3.826658	湧き出	-0.1105014
-3.826658	満天	-0.07939662
-3.826658	満身	-0.085701
-3.826658	満面	-0.07939662
-3.826658	滾	-0.11488
-3.826658	潜り込ん	-0.1032823
-3.826658	潺	-0.07939662
-3.826658	澄まし	-0.1023463
-3.826658	激しく	-0.1167616
-3.525628	激怒	-0.3290428
-3.826658	激流	-0.1167616
-3.048506	濁流	-0.2279414
-3.826658	灼熱	-0.09695884
-3.826658	災難	-0.1026808
-3.826658	無二	-0.09695884
-3.826658	無心	-0.1023463
-3.826658	無理	-0.09939148
-3.826658	無言	-0.09939148
-3.525628	無駄	-0.04535715
-3.826658	照っ	-0.1167616
-3.525628	照覧	-0.3415953
-3.826658	燃える	-0.111944
-3.826658	父	-0.09939148
-3.224598	牧人	-0.2579876
-3.826658	犬	-0.07939662
-3.826658	狂っ	-0.1105014
-3.826658	独りよがり	-0.07939662
-3.826658	独り合点	-0.07939662
-3.826658	狭い	-0.07939662
-3.826658	猛	-0.07939662
-3.826658	猛然	-0.1117476
-3.826658	獅子奮迅	-0.07939662
-2.547904	王	-0.1987877
-3.127688	王城	-0.2375237
-3.224598	王様	-0.124548
-3.826658	生かし	-0.085701
-3.826658	生きる	-0.1105014
-3.826658	生き延び	-0.1165026
-3.349536	生まれ	-0.05984122
-3.826658	生意気	-0.085701
-3.826658	生涯	-0.1117476
-3.525628	用事	-0.1004683
-3.826658	申し	-0.1167616
-2.747477	男	-0.3212233
-3.826658	男泣き	-0.07939662
-2.68053	町	-0.2105172
-3.826658	番	-0.09695884
-3.826658	疑い	-0.116373
-3.349536	疑う	-0.2090627
-3.349536	疑っ	-0.2410826
-3.826658	疑わ	-0.111944
-3.826658	疑惑	-0.1166969
-3.349536	疲れ	-0.05314704
-3.224598	疲労	-0.04206324
-3.826658	疾風	-0.09939148
-3.826658	発揮	-0.1166969
-3.525628	登り	-0.06358929
-3.826658	百	-0.07939662
-3.525628	皆	-0.07883178
-3.826658	皇后	-0.07939662
-3.048506	目	-0.1250345
-3.826658	目撃	-0.1023463
-3.826658	相	-0.1106328
-3.826658	相手	-0.1023463
-3.826658	眉間	-0.07939662
-3.525628	真	-0.06694237
-3.826658	真っ裸	-0.07939662
-3.525628	真昼	-0.07904368
-3.826658	真紅	-0.07939662
-3.826658	眠っ	-0.1167616
-3.525628	眠り	-0.1010057
-3.826658	眺め	-0.1117476
-3.826658	着い	-0.1032823
-3.826658	着る	-0.1023463
-3.826658	瞬時	-0.1167616
-3.826658	瞬間	-0.1026808
-3.826658	矢	-0.07939662
-3.826658	知っ	-0.07939662
-3.826658	知ら	-0.1032823
-3.826658	知らせ	-0.1166969
-3.826658	短刀	-0.1157894
-3.826658	短剣	-0.09939148
-3.349536	石工	-0.07897304
-3.826658	破る	-0.1023463
-3.826658	破壊	-0.1023463
-3.826658	磔刑	-0.1023463
-3.224598	祝宴	-0.1450241
-3.127688	神	-0.1509146
-3.826658	祭壇	-0.09695884
-1.945844	私	-0.5695314
-3.826658	私欲	-0.1167616
-3.826658	秘密	-0.1166969
-3.826658	空	-0.1105014
-3.826658	空っぽ	-0.07939662
-3.826658	空虚	-0.1166321
-3.826658	突入	-0.1032823
-3.826658	突然	-0.07939662
-3.525628	突破	-0.1015425
-3.826658	立ちすくん	-0.07939662
-3.826658	立ち上がる	-0.085701
-3.826658	立ち去り	-0.11488
-3.826658	立ち止まり	-0.07939662
-3.826658	立っ	-0.1167616
-3.525628	立て	-0.1116821
-3.525628	竹馬	-0.06694237
-3.826658	笑い	-0.1023463
-3.826658	笑お	-0.1032823
-3.224598	笑っ	-0.0491561
-3.525628	笑わ	-0.1117476
-3.826658	笛	-0.085701
-3.048506	答え	-0.06197646
-3.826658	精	-0.07939662
-3.525628	精いっぱい	-0.09294229
-3.826658	精神	-0.07939662
-3.048506	約束	-0.08156457
-3.048506	結婚式	-0.1149831
-3.826658	絞め殺し	-0.1023463
-3.525628	続け	-0.1022125
-3.826658	緋	-0.07939662
-3.349536	縄	-0.1966326
-3.826658	繋	-0.07939662
-3.525628	罪	-0.06432043
-3.525628	置い	-0.08833563
-3.127688	羊	-0.1010607
-3.826658	群	-0.1165026
-2.98156	群衆	-0.1209883
-3.826658	義務	-0.085701
-3.224598	老爺	-0.1616491
-3.349536	考え	-0.07378632
-3.224598	者	-0.1140339
-3.525628	耳	-0.1105671
-3.826658	耳打ち	-0.1117476
-3.525628	聞い	-0.07012562
-3.826658	聞か	-0.1167616
-3.826658	聞き入れ	-0.1023463
-3.349536	聞こえ	-0.2493071
-3.826658	肉体	-0.085701
-3.826658	肩	-0.09695884
-3.826658	背後	-0.09695884
-3.826658	背負っ	-0.07939662
-3.826658	胴震い	-0.1167616
-3.349536	胸	-0.07854906
-3.349536	腕	-0.08423813
-3.826658	膝	-0.1117476
-3.826658	膨れ	-0.07939662
-3.826658	臣	-0.1167616
-3.826658	臣下	-0.07939662
-3.048506	自分	-0.08407894
-3.525628	自身	-0.1008043
-3.826658	舟	-0.1167616
-3.224598	花婿	-0.1428813
-3.349536	花嫁	-0.04520448
-3.349536	若い	-0.2231752
-3.525628	若い衆	-0.07048588
-3.826658	茫然	-0.09939148
-3.826658	草原	-0.09695884
-3.826658	荒い	-0.1155947
-3.525628	荒れ	-0.07932606
-3.826658	華やか	-0.1167616
-3.826658	萎え	-0.1167616
-3.525628	落ち	-0.09824444
-3.826658	落ち着い	-0.09939148
-3.826658	落とし	-0.1023463
-3.525628	葉	-0.05769547
-3.826658	蒸し暑い	-0.1167616
-3.826658	蒼白	-0.09939148
-3.826658	薄明	-0.09695884
-3.826658	虫	-0.1167616
-3.826658	血	-0.11488
-3.826658	血液	-0.09695884
-3.525628	行か	-0.1028814
-3.525628	行き	-0.1166969
-3.826658	行き着く	-0.1032823
-3.826658	行き着け	-0.1032823
-3.826658	行こ	-0.085701
-3.826658	行っ	-0.11488
-3.826658	行わ	-0.1032823
-3.525628	衣装	-0.09410342
-3.826658	裂けめ	-0.09695884
-3.525628	裏切り者	-0.1032155
-3.525628	裸体	-0.09682329
-3.826658	襲いかかり	-0.1032823
-3.826658	西	-0.1165026
-3.826658	覆い	-0.1023463
-3.525628	見	-0.08833563
-3.826658	見え	-0.111944
-3.826658	見えすい	-0.1105014
-3.525628	見える	-0.07890242
-3.525628	見せ	-0.3319976
-3.826658	見せつけ	-0.1166969
-3.826658	見つけ	-0.1023463
-3.525628	見つめ	-0.09709435
-3.826658	見よ	-0.085701
-3.525628	見る	-0.06358929
-3.826658	視線	-0.1032823
-3.224598	覚め	-0.2702334
-3.525628	覚悟	-0.1118131
-3.127688	言い	-0.08632644
-3.127688	言う	-0.2209282
-3.826658	言え	-0.085701
-3.826658	言える	-0.111944
-3.349536	言っ	-0.08284035
-3.826658	言わ	-0.111944
-3.525628	訪ね	-0.07918489
-3.826658	訪れ	-0.1023463
-3.349536	許し	-0.0641012
-3.826658	許せ	-0.085701
-3.826658	誇っ	-0.1023463
-3.826658	誇り	-0.1154648
-3.826658	誇る	-0.1166969
-3.826658	語っ	-0.1023463
-3.826658	語勢	-0.07939662
-3.525628	誠	-0.3413989
-3.826658	説き伏せ	-0.07939662
-3.525628	誰	-0.04535715
-3.826658	調え	-0.1023463
-3.826658	調べ	-0.085701
-3.826658	警	-0.09695884
-3.826658	議論	-0.1160489
-3.525628	豪雨	-0.3266101
-3.525628	負け	-0.094308
-3.525628	買い	-0.3319976
-3.826658	買い物	-0.085701
-3.826658	買っ	-0.111944
-3.826658	資格	-0.1165026
-3.826658	賢	-0.07939662
-3.224598	質問	-0.181398
-3.826658	赤い	-0.09939148
-3.826658	赤く	-0.07939662
-3.525628	赤らめ	-0.3319976
-3.826658	赤面	-0.1167616
-2.826658	走っ	-0.1446602
-3.826658	走ら	-0.085701
-3.349536	走り	-0.09912185
-2.826658	走る	-0.2260236
-3.826658	走れ	-0.085701
-3.826658	走れる	-0.1010728
-3.525628	起き	-0.0992567
-3.826658	起き上がっ	-0.1166321
-3.826658	起こっ	-0.1105014
-3.826658	越え	-0.1023463
-3.826658	足	-0.09695884
-3.525628	足もと	-0.09885208
-3.826658	路傍	-0.085701
-3.525628	跳ね	-0.06035759
-3.826658	踏ん	-0.1167616
-3.826658	蹴飛ばし	-0.1023463
-3.826658	躍り	-0.1167616
-3.826658	躍り出	-0.1105014
-3.525628	身	-0.09918929
-3.048506	身代わり	-0.1443117
-3.826658	身体	-0.085701
-3.525628	身支度	-0.08024251
-3.826658	車軸	-0.1166321
-3.826658	輝い	-0.1032823
-3.826658	辺り	-0.07939662
-3.826658	迎える	-0.1165026
-3.826658	近	-0.1166969
-3.826658	近々	-0.07939662
-3.826658	近づき	-0.1032823
-3.826658	近寄り	-0.1032823
-3.826658	追い出す	-0.11488
-3.826658	逃がし	-0.085701
-3.826658	逃げ	-0.1105014
-3.826658	途中	-0.07939662
-3.826658	速く	-0.111944
-3.826658	遂行	-0.1167616
-3.826658	遅かっ	-0.09939148
-2.98156	遅れ	-0.2758371
-3.826658	遊ん	-0.1117476
-3.826658	運命	-0.1026808
-3.826658	過ぎ	-0.1032823
-3.525628	道	-0.06432043
-3.826658	道行く	-0.085701
-3.826658	邪悪	-0.1165026
-3.525628	邪知	-0.1166969
-3.826658	都	-0.11488
-3.525628	酒宴	-0.07264119
-3.826658	酔っ	-0.1032823
-3.826658	醜い	-0.07939662
-3.826658	里	-0.1165026
-3.826658	里程	-0.1166969
-3.826658	重ね	-0.1023463
-3.349536	野	-0.1992947
-3.826658	野原	-0.085701
-3.826658	鎮め	-0.07939662
-3.826658	長い	-0.1117476
-3.826658	長く	-0.1163082
-3.826658	開始	-0.1023463
-3.048506	間	-0.8417302
-3.525628	間に合う	-0.08563146
-3.826658	間に合っ	-0.085701
-3.525628	間に合わ	-0.3090479
-3.826658	間近	-0.111944
-3.826658	闘争	-0.09695884
-3.826658	降っ	-0.07939662
-3.349536	降り	-0.2493071
-3.826658	限り	-0.1023463
-3.826658	除か	-0.1023463
-3.826658	陽気	-0.07939662
-3.826658	隅	-0.09695884
-3.826658	隊	-0.1161785
-3.826658	隙	-0.1167616
-3.826658	隣村	-0.07939662
-3.826658	集まり	-0.1032823
-3.826658	集め	-0.1166969
-3.826658	離れ	-0.1167616
-3.224598	雨	-0.1451004
-3.826658	雨中	-0.07939662
-3.826658	雲	-0.09695884
-3.349536	静か	-0.06013635
-3.826658	面前	-0.09695884
-3.826658	韋	-0.1166969
-3.349536	音	-0.116373
-3.826658	響き	-0.1117476
-3.048506	頃	-0.1367206
-3.826658	頑強	-0.111944
-3.127688	頬	-0.1417445
-3.525628	頭	-0.09682329
-3.826658	頼む	-0.085701
-3.525628	頼ん	-0.09580534
-3.826658	額	-0.09939148
-3.224598	顔	-0.05747287
-3.525628	願い	-0.06432043
-3.826658	願っ	-0.1117476
-3.349536	風	-0.04528081
-3.525628	飛ばし	-0.1166321
-3.826658	飛び越え	-0.1023463
-3.826658	飛び込み	-0.1032823
-3.826658	飛鳥	-0.07939662
-3.826658	飲ん	-0.1167616
-3.826658	飾り	-0.1023463
-3.826658	首	-0.07939662
-3.826658	馬	-0.09939148
-3.826658	駄	-0.1167616
-3.525628	駆け	-0.3319976
-3.826658	駆け抜け	-0.1023463
-3.826658	騒ぎ	-0.07939662
-3.525628	驚い	-0.0687539
-3.826658	驚き	-0.09939148
-3.826658	高々	-0.1105014
-3.224598	高く	-0.1986716
-3.826658	鳴り響く	-0.1032823
-3.826658	黒い	-0.09939148
-3.826658	黒雲	-0.07939662
-3.826658	黙れ	-0.085701

\2-grams:
-1.972815	<s> 、	-0.02899117
-0.005652503	<s> 。	-0.03799788
-3.293866	<s> なら
-1.229408	― </s>
-0.560921	― ―
-1.229408	― 、
-1.530438	　 ありがたい
-1.530438	　 あれ
-1.530438	　 か
-1.530438	　 くれ
-1.530438	　 こい
-1.530438	　 を
-1.530438	　 吏
-1.530438	　 走れ
-3.370858	、 々
-3.370858	、 あ
-1.567418	、 ああ	0
-3.370858	、 あがり
-2.702371	、 ありがとう	0.172366
-3.370858	、 いいえ
-3.370858	、 いっそ
-2.295649	、 いや	-0.07850531
-3.370858	、 いよいよ
-3.370858	、 いる
-2.702371	、 う
-3.370858	、 うえ
-3.370858	、 うずくまり
-3.370858	、 うとうと
-2.702371	、 うなずき	0.172366
-3.370858	、 えい
-3.370858	、 おわび
-2.146843	、 か	0.02426637
-2.523975	、 かき分け
-1.84042	、 から	-0.1883496
-1.421291	、 が	-0.1825183
-3.370858	、 きり
-3.370858	、 くぐり抜け
-2.523975	、 くれ	0.7815745
-2.702371	、 けれども
-3.370858	、 こい
-3.370858	、 こらえ
-3.370858	、 さあ
-3.370858	、 させ
-3.370858	、 さて
-3.370858	、 さては
-3.370858	、 さらば
-2.295649	、 し
-3.370858	、 すぐ
-2.702371	、 ず
-3.370858	、 せ
-3.370858	、 ぜひとも
-2.523975	、 そうして	0.0273446
-2.702371	、 その	0.106715
-2.146843	、 それから	0.1364473
-3.370858	、 それでは
-3.370858	、 それでも
-3.370858	、 ぞ
-3.370858	、 たい
-3.370858	、 たたえ
-2.523975	、 ただ	0.03155368
-3.370858	、 たちまち
-3.370858	、 たまえ
-3.370858	、 ためらい
-1.84042	、 たら	0.004241746
-3.370858	、 だ
-2.702371	、 だいじょうぶ
-3.370858	、 だけ
-2.702371	、 だし
-2.295649	、 だって
-2.523975	、 だの
-3.370858	、 ついに
-3.370858	、 つぶやき
-1.14145	、 て	-0.04838271
-1.53939	、 で
-2.702371	、 でも
-1.84042	、 と
-3.370858	、 という
-3.370858	、 とおり
-2.702371	、 とき	0.0482065
-3.370858	、 とく
-3.370858	、 とともに
-3.370858	、 ども
-3.370858	、 な
-2.702371	、 ない
-3.370858	、 ながら
-2.702371	、 なく
-3.370858	、 なだめ
-3.370858	、 なに
-3.370858	、 なにもかも
-3.370858	、 なら
-2.702371	、 なり	0.172366
-2.702371	、 なんだか	0.172366
-1.488237	、 に	-0.02479713
-2.523975	、 ぬ	-0.08753762
-1.789267	、 の	-0.03069982
-3.370858	、 のみ
-0.63292	、 は	0.0033325
-3.370858	、 はい
-3.370858	、 はたと
-2.096294	、 ば	-0.009991784
-3.370858	、 ばかり
-3.370858	、 ひょいと
-3.370858	、 ひょっとしたら
-3.370858	、 ほほえみ
-3.370858	、 まえ
-3.370858	、 ます
-3.370858	、 まず
-2.702371	、 また	-0.03454579
-3.370858	、 まで
-3.370858	、 みごと
-3.370858	、 むち打ち
-1.44248	、 も	-0.03978206
-2.295649	、 もう	-0.0151173
-3.370858	、 もたげ
-3.370858	、 もっと
-3.370858	、 やっと
-3.370858	、 やはり
-3.370858	、 やみ
-3.370858	、 ゆえ
-2.702371	、 よ	-0.1099111
-3.370858	、 よろしい
-3.370858	、 られ
-1.488237	、 を	0.003229826
-3.370858	、 セリヌンティウス
-2.523975	、 メロス	-0.1077272
-3.370858	、 一つ
-3.370858	、 一度
-3.370858	、 一撃
-3.370858	、 三
-3.370858	、 上り
-3.370858	、 二
-3.370858	、 人間
-2.295649	、 今	0.2806337
-3.370858	、 今宵
-3.370858	、 伏し
-3.370858	、 会い
-3.370858	、 倒し
-3.370858	、 先刻
-3.370858	、 初夏
-3.370858	、 勇
-3.370858	、 勇者
-3.370858	、 午前
-3.370858	、 友
-3.370858	、 取り返し
-3.370858	、 吹き
-3.370858	、 呆然
-3.370858	、 回し
-3.370858	、 夜
-3.370858	、 天
-3.370858	、 小さく
-3.370858	、 少し
-3.370858	、 山越え
-3.370858	、 巻き
-2.702371	、 度
-3.370858	、 引き立て
-2.702371	、 必ず
-3.370858	、 急げ
-3.370858	、 悔しく
-3.370858	、 感じ
-3.370858	、 払い
-3.370858	、 投じ
-3.370858	、 折り曲げ
-3.370858	、 抱き合い
-3.370858	、 押しのけ
-3.370858	、 明日
-3.370858	、 最も
-3.370858	、 横切り
-3.370858	、 歌い
-3.370858	、 歳
-3.370858	、 没し
-3.370858	、 深夜
-3.370858	、 災難
-3.370858	、 照覧
-3.370858	、 男
-3.370858	、 登り
-3.370858	、 瞬間
-3.370858	、 突然
-3.370858	、 立ち去り
-3.370858	、 立て
-3.370858	、 笑い
-3.370858	、 答え
-3.370858	、 行き
-3.370858	、 襲いかかり
-3.370858	、 覆い
-3.370858	、 見よ
-3.370858	、 言い
-3.370858	、 許せ
-3.370858	、 調え
-3.370858	、 起き
-3.370858	、 蹴飛ばし
-3.370858	、 近々
-3.370858	、 近づき
-3.370858	、 近寄り
-3.370858	、 間
-3.370858	、 間に合う
-3.370858	、 集まり
-3.370858	、 集め
-3.370858	、 雨中
-2.702371	、 頃
-3.370858	、 頼む
-3.370858	、 飛ばし
-3.370858	、 飛び越え
-3.370858	、 飛び込み
-3.370858	、 飾り
-3.370858	、 駆け抜け
-3.370858	、 驚き
-3.288213	。 あっぱれ
-3.288213	。 ありがたい
-1.430417	。 ある	0.1213658
-2.013649	。 いい	-0.00692436
-3.288213	。 いく
-3.288213	。 いけ
-1.581684	。 いる	-0.1130395
-3.288213	。 いろ
-1.581684	。 う	-0.1997946
-3.288213	。 うた
-3.288213	。 おっしゃる
-3.288213	。 おめでとう
-3.288213	。 おもしろい
-1.581684	。 か	0.03396467
-3.288213	。 が
-1.757776	。 ください	0
-3.288213	。 くだらない
-3.288213	。 くるう
-1.967163	。 くれ	0.7314079
-2.441331	。 こい	1.42165
-2.441331	。 さ
-3.288213	。 しまえ
-3.288213	。 じゃ
-2.013649	。 ぞ
-0.5116464	。 た	-0.001242131
-2.441331	。 たい
-3.288213	。 たまらない
-0.803533	。 だ	-0.01149143
-3.288213	。 つらい
-1.757776	。 です	0.2164622
-3.288213	。 と
-1.967163	。 な
-1.229502	。 ない	-0.1173148
-1.338646	。 ぬ	-0.1246849
-3.288213	。 ね
-3.288213	。 のに
-3.288213	。 は
-3.288213	。 ばかばかしい
-3.288213	。 ふるさと
-3.288213	。 ほしい
-1.581684	。 ます	0.02378858
-3.288213	。 みせる
-3.288213	。 やる
-3.288213	。 ゆく
-2.064199	。 よ	0.01354371
-2.213004	。 よい	-0.1518485
-3.288213	。 らしい
-2.064199	。 れる	0.138992
-2.619726	。 わい	0.02410924
-2.013649	。 を	-0.1457045
-3.288213	。 ん
-2.619726	。 セリヌンティウス
-3.288213	。 フィロストラトス
-2.619726	。 メロス
-3.288213	。 出かける
-3.288213	。 及ぶ
-3.288213	。 守れ
-3.288213	。 寂しい
-2.619726	。 待て	0.172366
-3.288213	。 情けない
-3.288213	。 挙げる
-3.288213	。 放せ
-3.288213	。 様
-3.288213	。 歩ける
-3.288213	。 歳
-1.967163	。 殴れ	0.1269802
-2.619726	。 沈む
-3.288213	。 生きる
-2.619726	。 見える
-3.288213	。 言える
-3.288213	。 間に合う
-3.288213	。 黙れ
-1.326318	々 滾
-1.326318	々 潺
-0.4794353	々 神	0.0669267
-0.627348	あ 、
-0.02996322	ああ </s>
-1.803439	ああ 　
-0.627348	あおり 、
-0.627348	あがり 膨れ
-0.627348	あきれ </s>
-0.627348	あげ 大声
-0.627348	あげよ 全部
-0.627348	あげる を
-0.627348	あたりまえ は
-0.627348	あちこち </s>
-1.668741	あっ か
-1.668741	あっ が
-0.08715018	あっ で	-0.05877671
-0.627348	あっぱれ </s>
-0.627348	あて 、
-1.229408	あなた </s>
-0.3825253	あなた 、	-0.09609114
-1.627348	あの </s>
-0.3527841	あの 、	-0.03673105
-1.627348	あの さんざん
-1.627348	あの の
-0.259891	ありがたい </s>
-0.259891	ありがとう </s>
-0.4586379	ある が	-0.03247774
-0.2477845	ある で	-0.07340467
-1.989076	ある の
-1.989076	ある は
-0.560921	あれ </s>
-1.229408	あれ 、
-1.229408	あれ 照覧
-0.627348	あん と
-1.237615	い が
-1.237615	い ぜ
-0.1648103	い て	-0.04702693
-1.906102	い で
-1.906102	い に
-1.668741	いい 、
-0.34769	いい が	-0.0565876
-0.821858	いい でも	-0.3097134
-1.668741	いい の
-1.668741	いい を
-0.627348	いいえ </s>
-0.2575866	いう と	-0.02209751
-0.627348	いえ と
-0.259891	いき て
-0.627348	いきり立っ 、
-0.2575866	いく て
-0.928378	いけ て
-0.928378	いけ は
-0.627348	いこ て
-0.928378	いちばん 、
-0.928378	いちばん で
-0.928378	いっ て
-0.928378	いっ と
-0.627348	いっそ もう
-0.627348	いっぱい 刑場
-0.627348	いつ 、
-0.627348	いも もはや
-0.3825253	いや </s>
-1.229408	いや 、
-0.627348	いよ て
-0.928378	いよいよ て
-0.928378	いよいよ は
-0.04968778	いる て	-0.01479608
-1.527063	いる で
-2.19555	いる に
-2.19555	いる も
-0.627348	いろ て
-1.906102	う あげよ
-1.906102	う いこ
-1.906102	う いよ
-1.906102	う うと
-1.906102	う しよ
-0.6820868	う だろ	0.03724148
-1.059219	う やろ	-0.147872
-1.906102	う よかろ
-1.906102	う 歩こ
-1.906102	う 消えよ
-1.906102	う 笑お
-1.906102	う 行こ
-0.627348	うえ この
-0.627348	うずくまり に
-1.104469	うそ 、
-1.104469	うそ この
-1.104469	うそ とんでもない
-0.627348	うた 会
-1.229408	うち いる
-0.560921	うち ぬ
-1.229408	うち の
-0.627348	うと と
-0.627348	うとうと 、
-0.627348	うなずい で
-0.259891	うなずき で
-0.627348	うなり に
-0.627348	うぬぼれ </s>
-0.627348	うめく </s>
-0.627348	うるさく 、
-0.627348	うれしい </s>
-0.627348	うれし泣き から
-0.928378	うんと 、
-0.928378	うんと に
-0.928378	えい </s>
-0.928378	えい 、
-1.472446	お </s>
-1.472446	お 、
-0.6255634	お の
-0.803959	お を
-0.627348	おい て
-0.627348	おいおい に
-0.627348	おけ て
-0.627348	おっしゃる を
-0.2218488	おまえ </s>
-0.6538141	おまえ 、	0.07207268
-1.928378	おまえ もう
-0.627348	おめでとう </s>
-0.627348	おもしろい も
-0.259891	おら て
-1.229408	おり 、
-0.560921	おり て
-1.229408	おり は
-0.627348	おわび で
-0.928378	お互い 、
-0.928378	お互い は
-0.627348	お子様 の
-1.989076	か う
-1.989076	か うれしい
-1.989076	か が
-0.6680251	か た
-1.989076	か ため
-1.320589	か どう	0.0482065
-1.320589	か ない
-1.989076	か ぬる
-1.142193	か の	-0.07179996
-1.989076	か まい
-1.989076	か ん
-1.989076	か 乱心
-1.989076	か 何
-1.989076	か 幾度
-1.989076	か 独りよがり
-0.627348	かかっ に
-0.627348	かがめ を
-1.229408	かき分け 、
-1.229408	かき分け かき分け
-1.229408	かき分け と
-1.229408	かき分け を
-0.657831	かけ に
-1.326318	かけ を
-1.326318	かけ 傾き
-1.326318	かけ 言い
-0.627348	かじりつい 、
-0.627348	かすか が
-0.627348	かすれ 、
-0.1541989	かた あの	0.1764036
-0.627348	かたまり の
-0.627348	かっと 、
-0.627348	かなっ は
-0.627348	かなわ 前進
-0.627348	かの 、
-0.627348	かも の
-2.104469	から ある
-2.104469	から いる
-2.104469	から おり
-2.104469	から これ
-1.257587	から それ	-0.02005786
-2.104469	から た
-0.8299053	から だ	0.1274772
-1.435982	から て
-1.435982	から とき
-2.104469	から 中
-2.104469	から 初め
-2.104469	から 口
-2.104469	から 囲み
-2.104469	から 夢
-2.104469	から 宴席
-2.104469	から 懐中
-2.104469	から 手
-2.104469	から 村
-2.104469	から 背後
-2.104469	から 裂けめ
-0.627348	からかっ を
-0.627348	かわいい この
-2.61412	が 、
-2.61412	が あれ
-2.61412	が いる
-2.61412	が おまえ
-2.61412	が かた
-1.945633	が きみ	-0.0167864
-2.61412	が くる
-1.293069	が こと
-2.61412	が これ
-2.61412	が する
-2.61412	が それ
-1.390105	が た
-2.61412	が ため息
-1.293069	が だ	0.2172158
-2.61412	が だらし
-2.61412	が です
-2.61412	が なに
-1.767237	が の
-2.61412	が ほう
-2.61412	が やる
-1.945633	が メロス
-2.61412	が 事情
-2.61412	が 五臓
-2.61412	が 亭主
-1.945633	が 人	-0.1593971
-2.61412	が 全体
-2.61412	が 友
-2.61412	が 友達
-2.61412	が 呼ぶ
-1.767237	が 命
-2.61412	が 喉
-1.767237	が 声
-2.61412	が 太陽
-2.61412	が 奥底
-2.61412	が 妹
-2.61412	が 孤独
-2.61412	が 宣誓
-2.61412	が 家
-2.61412	が 小鳥
-2.61412	が 少女
-2.61412	が 山賊
-2.61412	が 希望
-2.61412	が 政治
-2.61412	が 日
-2.61412	が 時
-2.61412	が 柱
-2.61412	が 根性
-2.61412	が 楼
-2.61412	が 歓声
-1.945633	が 気
-2.61412	が 気味
-2.61412	が 水
-2.61412	が 清水
-2.61412	が 激流
-2.61412	が 王様
-2.61412	が 用事
-2.61412	が 皆
-1.767237	が 目	-0.3567367
-2.61412	が 着る
-2.61412	が 短剣
-2.61412	が 石工
-1.945633	が 私	0.1269184
-2.61412	が 自分
-2.61412	が 血
-1.945633	が 走る
-2.61412	が 間
-2.61412	が 雨
-2.61412	が 音
-2.61412	が 騒ぎ
-2.61412	が 黒雲
-0.627348	がら な
-0.02996322	き て	-0.05729387
-0.627348	きい 、
-0.627348	きかせ を
-0.928378	きっ 疲れ
-0.928378	きっ 登り
-0.2575866	きっと 、	0.007108705
-0.5172765	きみ </s>
-1.072804	きみ 、
-1.741291	きみ と
-1.072804	きみ は	-0.1104425
-1.741291	きみ も
-1.741291	きみ 初めて
-0.627348	きらきら て
-0.627348	きり 泳ぎ
-0.627348	きる 泳ぎ
-0.627348	きれい </s>
-0.627348	くぐり抜け を
-0.05115252	ください て	-0.1251951
-0.627348	くだらない 、
-0.928378	くらい ぬ
-0.928378	くらい 同じ
-0.627348	くり が
-0.1541989	くる て	-0.06171823
-0.4359823	くるう 荒れ
-1.104469	くるう 躍り
-0.0234811	くれ て	-0.03618057
-1.906102	くれ に
-0.259891	くれる て
-0.627348	ぐずぐず に
-0.4794353	けれども </s>
-0.657831	けれども 、
-0.259891	こ て	-0.1574415
-0.005267273	こい て	-0.05246763
-0.928378	こう 、
-0.928378	こう はり
-0.627348	こうむっ 御免
-0.3527841	ここ 、
-1.627348	ここ で
-1.627348	ここ として
-1.627348	ここ まま
-0.259891	こそ 今	0.1849103
-0.627348	こちら 、
-0.627348	こっ 、
-1.969771	こと いい
-1.969771	こと すがりつく
-1.301284	こと た
-1.969771	こと つく
-1.969771	こと て
-1.969771	こと できる
-1.122888	こと な
-1.969771	こと なる
-1.969771	こと ぬ
-1.969771	こと 信ずる
-1.969771	こと 同じ
-1.969771	こと 寂しい
-1.969771	こと 差し出す
-1.969771	こと 待つ
-1.969771	こと 死ぬ
-1.969771	こと 疑う
-1.969771	こと 立ち上がる
-1.969771	こと 行き着く
-1.969771	こと 迎える
-0.6074532	この </s>
-0.9845853	この 、
-1.831468	この いる
-1.831468	この た
-1.831468	この に
-1.162981	この は
-1.831468	この 一生
-1.831468	この 長く
-0.627348	この世 、
-0.627348	こめ に
-0.627348	こらえ も
-1.326318	これ </s>
-0.2511089	これ 、	0.03673255
-0.2575866	これから 、
-0.627348	これしき の
-0.627348	こんなに 今
-1.229408	ご </s>
-1.229408	ご 、
-1.229408	ご せせら笑う
-1.229408	ご は
-0.08444852	ござい で
-1.405499	ござい は
-0.627348	ごちそう の
-0.2575866	ごとく の
-0.627348	ごろりと に
-1.530438	さ かたまり
-1.530438	さ さま
-1.530438	さ のんき
-1.530438	さ もの
-1.530438	さ 仰天
-0.861951	さ 信頼	0.02410924
-1.530438	さ 捕縛
-0.627348	さあ </s>
-0.4359823	さえ を
-1.104469	さえ 資格
-0.627348	さける 張り
-0.627348	ささげ に
-0.928378	ささやき の
-0.928378	ささやき 小さく
-0.627348	さすが 、
-0.627348	させ 挙げ
-0.627348	さっさと 、
-0.928378	さっと 、
-0.928378	さっと と
-0.627348	さて </s>
-0.627348	さては </s>
-0.928378	さま お互い
-0.928378	さま の
-0.627348	さらに と
-0.627348	さらば </s>
-0.627348	さらわ に
-0.627348	さん 娘
-0.627348	さんざん 、
-0.627348	ざ 、
-2.412678	し が
-1.337469	し そう	-0.1935645
-2.412678	し と
-1.188663	し に	-0.04833286
-2.412678	し は
-2.412678	し ひっそり
-2.412678	し ひと眠り
-2.412678	し ふり
-2.412678	し ほっと
-2.412678	し も
-2.412678	し もみ手
-1.337469	し を
-2.412678	し 一つ
-2.412678	し 会釈
-1.744191	し 出発
-2.412678	し 列席
-2.412678	し 到着
-2.412678	し 到達
-2.412678	し 努力
-2.412678	し 反駁
-2.412678	し 哀願
-2.412678	し 嘲笑
-2.412678	し 強く
-2.412678	し 待ち伏せ
-2.412678	し 憫笑
-2.412678	し 承諾
-2.412678	し 期待
-2.412678	し 氾濫
-2.412678	し 決して
-1.744191	し 決意
-1.744191	し 激怒	0.172366
-2.412678	し 独り合点
-2.412678	し 疲労
-2.412678	し 発揮
-2.412678	し 目撃
-2.412678	し 破壊
-2.412678	し 突入
-1.744191	し 突破
-2.412678	し 約束
-2.412678	し 耳打ち
-2.412678	し 覚悟
-1.744191	し 質問
-2.412678	し 赤面
-2.412678	し 開始
-2.412678	し 顔
-0.627348	しかた </s>
-0.928378	しばらく </s>
-0.928378	しばらく 、
-0.627348	しまえ て
-0.2511089	しまっ て
-1.326318	しまっ で
-0.627348	しまわ で
-0.627348	しよ 出発
-0.627348	しれ かも
-0.627348	しわ の
-0.928378	しわがれ 、
-0.928378	しわがれ て
-0.627348	じだんだ 、
-0.928378	じゃ やつ
-0.928378	じゃ 真っ裸
-0.627348	すかし 、
-0.627348	すがりつく 、
-0.627348	すくっ で
-1.530438	すぐ </s>
-0.6835553	すぐ 、
-1.530438	すぐ これから
-1.530438	すぐ それから
-1.530438	すぐ て
-1.530438	すぐ また
-0.627348	すごし 寝
-1.326318	すでに </s>
-0.657831	すでに は	-0.1667483
-1.326318	すでに も
-1.326318	すでに もう
-1.326318	する に
-0.657831	する を	-0.1708266
-1.326318	する 抱擁
-1.326318	する 放免
-0.627348	するりと 、
-0.928378	すれ 出発
-0.928378	すれ 疲労
-0.627348	すれ違っ さっと
-0.627348	すん が
-1.405499	ず せ
-1.405499	ず でき
-1.405499	ず 悪びれ
-1.405499	ず 残ら
-1.405499	ず 疑わ
-1.405499	ず 言わ
-0.928378	ずつ 人
-0.928378	ずつ 少し
-0.627348	ずんずん </s>
-1.530438	せ さ
-0.861951	せ も
-1.530438	せ もた
-0.6835553	せ 死な
-1.530438	せ 知ら
-0.627348	せい の
-0.627348	せせら笑う を
-0.928378	ぜ </s>
-0.928378	ぜ い
-0.627348	ぜひとも は
-0.6255634	そう </s>
-0.6255634	そう 、
-1.472446	そう 立ち止まり
-0.1541989	そうして </s>
-0.928378	そっと </s>
-0.928378	そっと 、
-0.3222193	その </s>
-0.6750033	その 、
-1.949567	その ただ
-1.949567	その は
-1.949567	その も
-1.949567	その 早く
-0.7282301	それ </s>
-0.1760913	それ 、	0.01500026
-1.803439	それ は
-0.1513953	それから </s>
-0.803959	それから 、
-0.627348	それでは </s>
-0.627348	それでも 、
-0.259891	そろそろ 、
-0.627348	そん も
-0.259891	そんなに </s>
-1.530438	ぞ いる
-1.530438	ぞ う
-1.530438	ぞ た
-1.530438	ぞ だ
-1.530438	ぞ できる
-1.530438	ぞ ぬ
-1.530438	ぞ 死ぬ
-1.530438	ぞ 殺す
-2.959786	た あきれ
-1.291046	た あっ	0
-1.332438	た い	-0.5407904
-2.959786	た いっ
-2.959786	た うなずい
-2.959786	た かがめ
-2.959786	た かじりつい
-2.959786	た かすれ
-2.959786	た かなっ
-1.253257	た き	0.06214792
-2.959786	た きい
-1.884577	た くれ	0.9647365
-2.959786	た ささげ
-0.9344984	た し	-0.01172772
-1.884577	た しまっ	0.04650067
-2.291299	た しわがれ
-2.959786	た すごし
-2.959786	た すれ違っ
-2.959786	た たかっ
-2.291299	た だし
-2.959786	た だっ
-2.959786	た つい
-2.959786	た つらかっ
-2.112904	た でき
-2.959786	た どよめい
-1.378196	た なかっ	-0.03507612
-1.735772	た なっ	0.2798065
-2.959786	た の
-2.959786	た はっ
-2.959786	た はらわ
-2.959786	た ふてくされ
-2.959786	た まごつい
-1.884577	た まし
-2.959786	た み
-2.959786	た やっ
-2.291299	た やってき	0.172366
-2.959786	た よかっ
-1.378196	た れ	-0.007221419
-2.959786	た わい
-2.959786	た わび
-2.959786	た わめい
-2.959786	た 下っ
-2.959786	た 会っ
-2.291299	た 信じ	0.01913103
-2.112904	た 出
-2.959786	た 努め
-2.959786	た 勝っ
-2.959786	た 問いつめ
-2.959786	た 報い
-2.959786	た 始め
-2.959786	た 定まっ
-2.959786	た 宿し
-2.959786	た 寝転がっ
-2.959786	た 察し
-2.959786	た 尋ね
-2.959786	た 尽き
-2.959786	た 巣くっ
-2.112904	た 思っ	0.09020871
-2.959786	た 感じ
-2.959786	た 打っ
-2.959786	た 折っ
-2.959786	た 抱き締め
-2.959786	た 振り上げ
-2.959786	た 早かっ
-2.959786	た 望み
-2.291299	た 来
-2.959786	た 欺い
-2.959786	た 止まっ
-2.959786	た 歩い
-2.291299	た 殴っ	0.1833322
-2.959786	た 殺し
-2.959786	た 泣い
-2.959786	た 浴びせ
-2.959786	た 深かっ
-2.959786	た 澄まし
-2.959786	た 狂っ
-2.291299	た 生まれ
-2.291299	た 疑っ	0.02410924
-2.959786	た 眠っ
-2.959786	た 着い
-2.959786	た 笑っ
-2.112904	た 答え
-2.959786	た 考え
-2.112904	た 聞こえ	0.09020871
-2.959786	た 背負っ
-2.959786	た 見
-2.112904	た 覚め	0.1244257
-2.291299	た 言っ
-2.959786	た 訪れ
-2.959786	た 語っ
-2.959786	た 説き伏せ
-2.959786	た 負け
-2.959786	た 赤らめ
-1.735772	た 走っ	-7.810874e-05
-2.959786	た 起こっ
-2.959786	た 躍り出
-2.959786	た 逃がし
-2.959786	た 遅かっ
-2.959786	た 重ね
-2.959786	た 間に合っ
-2.959786	た 降り
-2.959786	た 離れ
-2.959786	た 願っ
-2.291299	た 驚い
-1.581591	たい い
-1.581591	たい いき
-0.9131035	たい かけ
-0.7347078	たい やり	-0.147872
-1.581591	たい 眠り
-1.581591	たい 言い
-0.627348	たかっ い
-0.627348	たく 言い
-0.627348	たくさん </s>
-0.627348	たたい を
-0.627348	たたえ を
-0.560921	ただ </s>
-1.229408	ただ 、
-1.229408	ただ は
-1.627348	たち おまえ
-0.7804653	たち 人	-0.0694399
-1.627348	たち 妹
-1.627348	たち 山賊
-0.7804653	たち 村人
-1.627348	たち 私
-0.928378	たちまち </s>
-0.928378	たちまち 、
-1.104469	たった </s>
-0.4359823	たった 、
-0.627348	たて 呼び
-0.627348	たぶん 、
-0.627348	たまえ 鎮め
-0.627348	たまらない 、
-0.627348	たまらなく 、
-0.2605398	ため の
-1.581591	ため れる
-1.581591	ため 守る
-1.581591	ため 打ち破る
-1.581591	ため 救う
-0.627348	ためらい 瞬時
-0.928378	ため息 ほっと
-0.928378	ため息 長い
-1.530438	たら だっ
-0.6835553	たら なかっ
-1.530438	たら なっ
-1.530438	たら 覚め
-0.861951	たら 遅れ	-0.05673293
-2.605072	だ あたりまえ
-2.605072	だ こう
-1.936585	だ こと
-2.605072	だ これ
-2.605072	だ すん
-2.605072	だ それ
-2.605072	だ たち
-2.605072	だ ため
-1.936585	だ だけ
-0.3245111	だ の	-0.3097021
-2.605072	だ はさん
-1.936585	だ はず
-2.605072	だ ほくそ笑ん
-2.605072	だ もの
-2.605072	だ メロス
-2.605072	だ 一事
-2.605072	だ 人種
-2.605072	だ 勇者
-2.605072	だ 友人
-1.936585	だ 叫ん
-1.936585	だ 夢
-1.936585	だ 平和
-2.605072	だ 思うつぼ
-2.605072	だ 急い
-2.605072	だ 悪徳
-2.605072	だ 憎ん
-2.605072	だ 明日
-2.605072	だ 暮らし
-2.605072	だ 死ん
-2.605072	だ 気の毒
-2.605072	だ 泳い
-2.605072	だ 王
-2.605072	だ 男
-1.758189	だ 私	0.1930178
-2.605072	だ 空っぽ
-2.605072	だ 立ちすくん
-1.936585	だ 裏切り者
-2.605072	だ 誰
-2.605072	だ 踏ん
-1.936585	だ 頼ん
-2.605072	だ 飲ん
-0.928378	だいじょうぶ ば
-0.928378	だいじょうぶ まだまだ
-1.472446	だけ きみ
-1.472446	だけ それ
-1.472446	だけ と
-1.472446	だけ 度
-1.472446	だけ 日間
-1.472446	だけ 羊
-1.472446	だけ 血液
-1.229408	だし 歌い
-1.229408	だし 歩き
-1.229408	だし 泣き
-1.229408	だし 降り
-0.928378	だっ 夜
-0.928378	だっ 大事
-1.229408	だって おまえ
-1.229408	だって わし
-1.229408	だって 今
-1.229408	だって 度
-1.104469	だの 信実
-1.104469	だの 愛
-1.104469	だの 正義
-0.627348	だまさ に
-0.627348	だめ 、
-0.627348	だらし </s>
-1.405499	だろ いく
-0.7370123	だろ いる	0.7920301
-1.405499	だろ する
-1.405499	だろ ない
-1.405499	だろ なる
-0.627348	だんだん 、
-0.627348	ちがい に
-0.627348	ちゃんと 、
-0.627348	ちょうど </s>
-0.657831	ちょっと </s>
-0.657831	ちょっと 、
-1.326318	ちょっと もう
-0.627348	ちら 、
-0.627348	って た
-0.928378	つい </s>
-0.928378	つい を
-0.1541989	ついに 、
-0.627348	つき うそ
-0.627348	つく を
-0.627348	つくっ も
-0.627348	つけ を
-0.627348	つつ れ
-0.627348	つぶやき て
-0.627348	つぶれ が
-1.326318	つもり する
-1.326318	つもり たい
-1.326318	つもり だ
-1.326318	つもり みる
-1.326318	つもり 欺く
-0.627348	つらい より
-0.627348	つらかっ 、
-0.928378	つり上げ 、
-0.928378	つり上げ 徐々に
-3.005746	て あげ
-3.005746	て いきり立っ
-3.005746	て いっ
-3.005746	て うぬぼれ
-3.005746	て おい
-3.005746	て かかっ
-2.337259	て かけ
-3.005746	て からかっ
-3.005746	て き
-3.005746	て きかせ
-2.337259	て きっ
-2.337259	て くれ
-3.005746	て こうむっ
-3.005746	て こめ
-0.9470341	て し	-0.03850176
-3.005746	て しまっ
-3.005746	て すかし
-3.005746	て すくっ
-1.684695	て せ	-0.1275816
-3.005746	て たたい
-3.005746	て たて
-3.005746	て つい
-3.005746	て つくっ
-3.005746	て つけ
-3.005746	て つぶれ
-3.005746	て てれ
-3.005746	て でき
-3.005746	て とどまっ
-3.005746	て なく
-1.378398	て なっ	-0.2466723
-2.337259	て もっ	0.172366
-2.158863	て やめ	0.09020871
-3.005746	て よろめい
-1.781731	て られ	0.138992
-1.684695	て れ	-0.02188816
-3.005746	て わかっ
-2.337259	て 上げ	0.172366
-3.005746	て 上っ
-3.005746	て 与え
-1.684695	て 信じ	-0.02864308
-3.005746	て 光っ
-2.337259	て 入っ	0.172366
-3.005746	て 入れ
-3.005746	て 処し
-1.930537	て 出	-0.004189542
-3.005746	て 助け
-3.005746	て 努め
-3.005746	て 動い
-3.005746	て 取り直し
-3.005746	て 受け
-3.005746	て 叱っ
-3.005746	て 向かっ
-3.005746	て 命じ
-3.005746	て 垂れ
-3.005746	て 奪い取っ
-3.005746	て 始め
-3.005746	て 尽くし
-1.424155	て 帰っ	0.09020872
-1.781731	て 待っ	0.03724148
-2.337259	て 忘れ
-3.005746	て 投げ出し
-3.005746	て 抜け
-3.005746	て 抱い
-3.005746	て 押し
-2.337259	て 振っ
-3.005746	て 捕まえ
-3.005746	て 揺すぶっ
-3.005746	て 放し
-2.337259	て 放っ
-2.337259	て 教え
-3.005746	て 断ち割っ
-2.337259	て 昇っ	0.172366
-2.337259	て 暮らし
-3.005746	て 歌っ
-1.684695	て 歩い
-3.005746	て 残し
-2.158863	て 殴っ	0.2494317
-1.781731	て 殺し	-0.04329365
-3.005746	て 決まっ
-3.005746	て 泣い
-3.005746	て 流れ
-3.005746	て 浮かべ
-3.005746	て 消え
-3.005746	て 湧き出
-3.005746	て 照っ
-3.005746	て 生かし
-3.005746	て 生き延び
-3.005746	て 生まれ
-3.005746	て 疑っ
-2.337259	て 疲れ
-3.005746	て 知っ
-3.005746	て 知らせ
-3.005746	て 立っ
-2.158863	て 笑っ
-3.005746	て 絞め殺し
-2.337259	て 続け
-2.337259	て 置い
-2.337259	て 考え
-2.337259	て 聞い
-3.005746	て 聞き入れ
-3.005746	て 萎え
-2.337259	て 落ち
-3.005746	て 落ち着い
-3.005746	て 行っ
-3.005746	て 見えすい
-2.337259	て 見せ	0.172366
-3.005746	て 見せつけ
-3.005746	て 見つけ
-2.337259	て 見つめ
-3.005746	て 言っ
-2.337259	て 訪ね
-2.158863	て 許し
-3.005746	て 誇っ
-3.005746	て 買っ
-3.005746	て 赤らめ
-1.930537	て 走っ
-3.005746	て 起き
-3.005746	て 起き上がっ
-3.005746	て 輝い
-3.005746	て 逃げ
-1.684695	て 遅れ	0.03048267
-3.005746	て 過ぎ
-3.005746	て 酔っ
-3.005746	て 降っ
-3.005746	て 降り
-3.005746	て 飛ばし
-0.627348	てれ 、
-1.936585	で ここ	0.08068025
-1.936585	で こと
-2.605072	で この世
-2.605072	で これ
-1.936585	で それ	0.3030097
-2.605072	で た
-2.605072	で だけ
-2.605072	で だめ
-1.936585	で つもり
-2.605072	で なん
-2.605072	で にぎやか
-1.284021	で の	-0.1922201
-2.605072	で のん
-2.605072	で ばかり
-2.605072	で ぶり
-2.605072	で まどろん
-2.605072	で まま
-1.936585	で もの
-2.605072	で セリヌンティウス
-2.605072	で フィロストラトス
-1.936585	で 両手
-2.605072	で 中
-2.605072	で 中途
-2.605072	で 乱心
-2.605072	で 仰い
-2.605072	で 体
-2.605072	で 友
-2.605072	で 口
-2.605072	で 命令
-1.758189	で 問題
-2.605072	で 地上
-1.529863	で 声	0.01002858
-2.605072	で 夢見心地
-2.605072	で 大声
-2.605072	で 妄想
-2.605072	で 定法
-1.936585	で 希望
-2.605072	で 平気
-2.605072	で 弟子
-2.605072	で 徒
-2.605072	で 必死
-2.605072	で 思い
-1.936585	で 急い	0.02410924
-2.605072	で 恥
-2.605072	で 拳
-2.605072	で 敏感
-2.605072	で 星
-2.605072	で 望ん
-2.605072	で 村
-2.605072	で 楽しみ
-1.758189	で 様子	0.03155368
-2.605072	で 死ん
-2.605072	で 気持ち
-1.936585	で 沈ん
-2.605072	で 潜り込ん
-2.605072	で 無言
-2.605072	で 無駄
-2.605072	で 牧人
-1.936585	で 男	-0.05850398
-2.605072	で 町
-2.605072	で 短刀
-2.605072	で 秘密
-2.605072	で 蒼白
-2.605072	で 裸体
-2.605072	で 覚悟
-2.605072	で 豪雨
-2.605072	で 足もと
-2.605072	で 途中
-2.605072	で 遊ん
-2.605072	で 道
-2.605072	で 野原
-2.605072	で 面前
-2.605072	で 頃
-2.605072	で 頑強
-1.706529	でき 、
-0.6313201	でき が	-0.2913177
-0.6313201	でき は	-0.07184017
-1.038042	でき も
-1.706529	でき 抱擁
-0.928378	できる 、
-0.928378	できる が
-1.581591	です そう
-1.581591	です ところ
-1.581591	です どき
-0.2605398	です の	-0.05913123
-1.581591	です 大事
-1.530438	でも いつ
-1.530438	でも ちょっと
-0.4552289	でも どう	-0.1935645
-1.530438	でも 夜
-1.530438	でも 少し
-1.67256	と </s>
-2.519443	と ―
-0.7459666	と 、	-0.06281103
-2.519443	と 々
-2.519443	と あちこち
-2.519443	と いる
-1.67256	と う
-2.519443	と えい
-1.67256	と きみ	-0.06963919
-2.519443	と くり
-2.519443	と くる
-2.519443	と くれる
-2.519443	と こと
-2.519443	と これしき
-2.519443	と たい
-2.519443	と たち
-1.67256	と だ
-2.519443	と ちら
-2.519443	と どう
-2.519443	と どうどう
-2.519443	と な
-2.519443	と など
-2.519443	と なる
-1.850956	と ぬ
-2.519443	と の
-2.519443	と ふい
-2.519443	と ほう
-2.519443	と まじまじ
-2.519443	と みる
-2.519443	と よろよろ
-2.519443	と ん
-1.850956	と 一刻
-2.519443	と 亭主
-2.519443	と 信実
-1.444234	と 友	-0.051019
-2.519443	と 哀れ
-2.519443	と 大雨
-1.850956	と 妹
-2.519443	と 宝
-2.519443	と 幾度
-2.519443	と 悠々
-1.67256	と 愛	0.03155368
-2.519443	と 旅人
-2.519443	と 濁流
-2.519443	と 王
-2.519443	と 羊
-2.519443	と 茫然
-2.519443	と 見る
-2.519443	と 高々
-1.104469	という いい
-1.104469	という セリヌンティウス
-1.104469	という 情
-0.627348	とおり の
-0.627348	とかいう 者
-1.472446	とき いる
-0.3972369	とき た	-0.02470343
-1.472446	とき な
-1.472446	とき 若い
-0.627348	とく ご
-0.928378	ところ なる
-0.928378	ところ 存する
-1.326318	として 人
-1.326318	として 人質
-1.326318	として 士
-1.326318	として 者
-1.326318	として 花婿
-0.928378	とともに 回復
-0.928378	とともに 風
-0.627348	とどまっ ぐずぐず
-0.627348	ともに も
-0.627348	とんでもない </s>
-0.3972369	どう </s>
-0.6255634	どう 、	-0.105808
-0.627348	どうか 、
-0.627348	どうせ </s>
-0.627348	どうどう 、
-0.627348	どうにか 、
-0.627348	どき 真昼
-0.627348	どっこい </s>
-0.627348	どっと </s>
-0.627348	ども いえ
-0.627348	どよめい 、
-0.259891	どんな 、
-2.250597	な あん
-2.250597	な か
-2.250597	な から
-2.250597	な きれい
-2.250597	な そん
-2.250597	な だ
-2.250597	な つもり
-2.250597	な のんき
-2.250597	な はで
-2.250597	な ばか
-2.250597	な もう
-1.175388	な よう
-1.58211	な 不吉
-2.250597	な 不幸
-2.250597	な 似合い
-2.250597	な 偉大
-2.250597	な 内気
-2.250597	な 単純
-2.250597	な 大き
-2.250597	な 大事
-2.250597	な 大切
-2.250597	な 好き
-2.250597	な 嫌い
-2.250597	な 宝
-2.250597	な 律儀
-2.250597	な 心構え
-2.250597	な 態
-1.58211	な 正直
-2.250597	な 残虐
-2.250597	な 泣き
-2.250597	な 清らか
-2.250597	な 生意気
-2.250597	な 男
-2.250597	な 空虚
-2.250597	な 言う
-2.250597	な 運命
-2.250597	な 間近
-1.58211	ない い	0.3264907
-2.250597	ない いけ
-2.250597	ない が
-2.250597	ない くれ
-2.250597	ない こ
-2.250597	ない さえ
-1.403715	ない し
-2.250597	ない しれ
-2.250597	ない じゃ
-2.250597	ない ちがい
-1.58211	ない で	-0.166466
-1.58211	ない でき
-1.58211	ない なら
-2.250597	ない に
-1.403715	ない の
-0.7201593	ない は	-0.2393976
-0.7201593	ない も	-0.05174806
-2.250597	ない られ
-2.250597	ない 気がつか
-2.250597	ない 見え
-1.706529	なかっ くれ
-1.706529	なかっ こ
-1.706529	なかっ でき
-0.8596466	なかっ は	-0.08952873
-1.038042	なかっ も	-0.1676986
-1.706529	なかっ 会わ
-1.706529	なかっ 欺か
-1.038042	なかっ 答え
-0.627348	なかなか </s>
-1.472446	ながら ささやき
-1.472446	ながら し
-1.472446	ながら 僅か
-1.472446	ながら 叫び
-1.472446	ながら 叱り
-0.803959	ながら 走り
-1.581591	なく い
-1.581591	なく し
-1.581591	なく たく
-1.581591	なく と
-1.581591	なく は
-1.581591	なく も
-0.9131035	なく 動け
-1.581591	なく 影
-1.472446	なけれ くれ
-1.472446	なけれ れ
-1.472446	なけれ 報い
-0.803959	なけれ 行か
-1.472446	なけれ 走ら
-1.472446	なけれ 除か
-0.627348	なぜ </s>
-0.627348	なぞ 命
-0.627348	なだめ を
-1.857797	なっ そう
-1.857797	なっ と
-1.18931	なっ なく
-0.1890562	なっ に	-0.03373756
-1.857797	なっ 大きく
-1.857797	なっ 暑く
-0.928378	など 、
-0.928378	など 命乞い
-0.4359823	なに </s>
-1.104469	なに 、
-0.259891	なにか 、
-0.627348	なにもかも 、
-1.906102	なら 、
-1.906102	なら こと
-1.906102	なら た
-1.906102	なら つもり
-1.906102	なら て
-1.906102	なら ない
-1.906102	なら に
-0.5850509	なら は	-0.2231003
-0.6820868	なら ば	-0.6927409
-1.906102	なら まま
-0.259891	なり に
-0.657831	なる なく	-0.1175315
-0.4794353	なる に
-0.657831	なん </s>
-0.657831	なん 、
-1.326318	なん まだ
-0.259891	なんだか 、
-2.941215	に あて
-2.941215	に いっぱい
-1.866006	に うち	0.06117753
-2.941215	に うれし泣き
-2.094332	に おまえ	0.2899279
-2.941215	に かすか
-2.941215	に くれる
-1.866006	に ここ	0.1764036
-2.941215	に こちら
-2.941215	に こと
-2.941215	に さすが
-1.620165	に すぐ	-0.1275816
-2.941215	に ず
-2.941215	に そう
-2.272728	に たち
-1.7172	に ため	0.1646675
-2.941215	に つき
-2.941215	に とき
-2.941215	に ない
-2.272728	に はりつけ	-0.06627774
-2.272728	に ばかり
-2.941215	に ばら
-2.272728	に ほか
-2.941215	に ほど
-2.941215	に まっすぐ
-1.620165	に まで	-0.1638636
-2.941215	に まとも
-2.272728	に まま
-2.941215	に みじん
-2.272728	に め	0.1751956
-1.359625	に よう	-0.001160283
-2.941215	に わが身
-2.272728	に わし
-2.941215	に ゼウス
-1.866006	に メロス	0.07850876
-2.941215	に 一挙
-2.941215	に 一斉
-2.941215	に 一緒
-2.941215	に 下流
-2.941215	に 不安
-2.941215	に 両足
-2.094332	に 人	-0.05263485
-2.941215	に 人一倍
-2.941215	に 人質
-2.272728	に 今	0.1849103
-2.941215	に 他
-2.941215	に 代わり
-2.941215	に 仲間
-2.941215	に 信頼
-2.941215	に 兄
-2.272728	に 刑場
-2.941215	に 到着
-2.941215	に 刻々
-2.094332	に 前	0.09020871
-2.941215	に 力
-2.941215	に 力いっぱい
-2.941215	に 助け
-2.941215	に 勇者
-2.941215	に 勝手
-2.941215	に 十字架
-2.941215	に 半ば
-2.941215	に 友
-2.941215	に 口々
-2.272728	に 台
-2.941215	に 吏
-2.941215	に 向こう
-2.941215	に 地平線
-2.941215	に 夜
-2.941215	に 夫婦
-2.941215	に 妹
-2.941215	に 姿
-2.272728	に 家
-2.941215	に 小屋
-2.941215	に 小耳
-2.272728	に 小降り
-2.941215	に 川岸
-2.941215	に 幹
-2.941215	に 床
-2.941215	に 弟
-2.941215	に 心
-2.272728	に 急ぎ
-2.941215	に 悔し泣き
-2.272728	に 明日
-2.941215	に 村
-2.941215	に 歓喜
-2.941215	に 死刑
-2.941215	に 気
-2.272728	に 永遠	0.172366
-2.941215	に 泉
-2.941215	に 波
-2.941215	に 流れ
-2.941215	に 満面
-2.941215	に 濁流
-2.941215	に 無心
-2.941215	に 無理
-2.941215	に 無駄
-2.272728	に 王
-1.866006	に 王城	0.02944558
-2.941215	に 男
-2.941215	に 男泣き
-1.666651	に 町	-0.007531471
-2.941215	に 疑い
-2.941215	に 皆
-2.272728	に 目
-2.941215	に 相手
-2.941215	に 真昼
-2.941215	に 眠り
-2.941215	に 磔刑
-2.941215	に 祝宴
-1.620165	に 私	0.4253363
-2.272728	に 精いっぱい
-2.941215	に 群衆
-2.941215	に 老爺
-2.941215	に 者
-2.941215	に 耳
-2.941215	に 胸
-2.272728	に 腕
-2.941215	に 花嫁
-2.941215	に 草原
-2.941215	に 華やか
-2.941215	に 葉
-2.941215	に 西
-2.941215	に 言う
-2.941215	に 買い
-2.941215	に 足もと
-2.941215	に 野
-2.272728	に 間	0.578621
-2.941215	に 限り
-2.941215	に 陽気
-2.941215	に 隅
-2.941215	に 隙
-2.941215	に 隣村
-2.094332	に 静か
-2.272728	に 頃
-0.627348	にぎやか は
-0.627348	について 後
-0.627348	に対して 邪悪
-2.18365	ぬ おけ
-2.18365	ぬ かなわ
-2.18365	ぬ しまわ
-2.18365	ぬ せ
-1.336768	ぬ でき	0.007595492
-0.4423591	ぬ なら	-0.1461039
-1.515164	ぬ ませ
-2.18365	ぬ られ
-2.18365	ぬ れ
-1.336768	ぬ わから	0.09020871
-2.18365	ぬ 放さ
-1.108441	ぬ 沈ま	-0.07850531
-2.18365	ぬ 聞か
-2.18365	ぬ 負け
-1.515164	ぬ 間に合わ	0.172366
-0.928378	ぬる ん
-0.928378	ぬる 死
-0.627348	ね いる
-3.104469	の 々
-3.104469	の あなた
-2.02926	の ある	-0.1283806
-3.104469	の いい
-2.257586	の いう	-0.147872
-3.104469	の いく
-1.783419	の いる	0.7356782
-1.880454	の おまえ	0.4871608
-3.104469	の くらい
-3.104469	の くる
-3.104469	の しかた
-3.104469	の する
-1.09691	の た	0.02374979
-2.435982	の たい
-3.104469	の たくさん
-3.104469	の ため
-2.435982	の と
-1.880454	の な
-1.783419	の ない	-0.05001866
-2.02926	の なん	0.02944558
-3.104469	の に
-3.104469	の ぬ
-2.435982	の はりつけ
-3.104469	の ぶどう
-2.435982	の へ
-3.104469	の ほど
-3.104469	の まえ
-3.104469	の みる
-3.104469	の め
-3.104469	の もの
-2.02926	の やる	0.1525146
-3.104469	の よい
-2.435982	の ら	0.05832622
-3.104469	の られる
-3.104469	の れる
-3.104469	の わけ
-2.257586	の わし	-0.2014761
-2.257586	の クス	-0.147872
-2.435982	の セリヌンティウス
-3.104469	の ディオニス
-1.522879	の メロス	0.1817368
-3.104469	の 一つ
-3.104469	の 一切
-3.104469	の 一団
-3.104469	の 一片
-2.435982	の 不信
-3.104469	の 不名誉
-3.104469	の 世の中
-3.104469	の 世界
-1.522879	の 人	-0.03312546
-3.104469	の 仲間
-2.435982	の 信実
-3.104469	の 倒れる
-2.257586	の 兄
-3.104469	の 先刻
-2.435982	の 六	0.02410924
-3.104469	の 刑場
-3.104469	の 前方
-3.104469	の 匹
-3.104469	の 十分
-3.104469	の 十里
-3.104469	の 午後
-2.257586	の 友	-0.0660499
-3.104469	の 命
-3.104469	の 困憊
-3.104469	の 外
-3.104469	の 夜
-3.104469	の 大蛇
-3.104469	の 太陽
-2.435982	の 婿	-0.03454579
-3.104469	の 子
-3.104469	の 宴席
-3.104469	の 家
-3.104469	の 対岸
-3.104469	の 山
-3.104469	の 山賊
-3.104469	の 岩
-3.104469	の 巡邏
-3.104469	の 希代
-3.104469	の 彼
-3.104469	の 心
-3.104469	の 必死
-3.104469	の 悔しい
-3.104469	の 悪魔
-3.104469	の 支度
-3.104469	の 救う
-3.104469	の 新婦
-2.257586	の 日	0.06546925
-3.104469	の 日間
-2.435982	の 明くる日
-3.104469	の 明日
-3.104469	の 昨日
-3.104469	の 暗い
-3.104469	の 暴君
-3.104469	の 暴虐
-2.257586	の 最後
-3.104469	の 木々
-3.104469	の 未練
-2.257586	の 村	-0.3350104
-2.435982	の 様
-3.104469	の 樹木
-3.104469	の 欲しい
-3.104469	の 歔欷
-3.104469	の 正当
-2.435982	の 正義
-3.104469	の 死ぬ
-3.104469	の 殺す
-3.104469	の 民
-3.104469	の 気
-3.104469	の 水
-3.104469	の 海
-3.104469	の 渡し守
-3.104469	の 満天
-3.104469	の 満身
-3.104469	の 灼熱
-3.104469	の 無二
-3.104469	の 獅子奮迅
-1.829905	の 王	0.009051029
-3.104469	の 王様
-2.435982	の 男
-2.257586	の 町	-0.01092618
-2.435982	の 疑う
-3.104469	の 疑惑
-3.104469	の 疾風
-3.104469	の 目
-3.104469	の 眉間
-2.435982	の 真
-3.104469	の 真紅
-3.104469	の 矢
-2.435982	の 祝宴
-1.435729	の 私	0.3557952
-3.104469	の 私欲
-2.435982	の 竹馬
-2.435982	の 約束
-3.104469	の 緋
-3.104469	の 罪
-3.104469	の 群
-2.257586	の 群衆
-3.104469	の 老爺
-3.104469	の 者
-3.104469	の 肉体
-3.104469	の 胸
-3.104469	の 臣
-3.104469	の 臣下
-2.02926	の 自分	0.009509942
-3.104469	の 自身
-2.435982	の 花婿
-3.104469	の 花嫁
-3.104469	の 蒸し暑い
-3.104469	の 薄明
-2.435982	の 誠	0.172366
-1.829905	の 走る	0.0444676
-3.104469	の 路傍
-2.257586	の 身代わり
-3.104469	の 近
-3.104469	の 遂行
-3.104469	の 都
-2.435982	の 酒宴
-3.104469	の 里程
-3.104469	の 間
-3.104469	の 隊
-3.104469	の 額
-3.104469	の 風
-3.104469	の 飛鳥
-3.104469	の 馬
-0.627348	のそのそ 、
-0.627348	のに いる
-0.627348	のみ を
-0.627348	のん を
-0.928378	のんき </s>
-0.928378	のんき の
-3.048952	は </s>
-2.380465	は あなた	0.05832622
-3.048952	は あれ
-2.380465	は おまえ
-3.048952	は か
-3.048952	は かた
-3.048952	は から
-2.202069	は きみ	-0.06963919
-1.824937	は こと
-3.048952	は ささやき
-3.048952	は さん
-3.048952	は しばらく
-3.048952	は しわ
-2.380465	は それ	0.3030097
-1.727901	は たち	0.01718209
-3.048952	は だけ
-3.048952	は つもり
-1.774388	は て
-1.380211	は で
-2.380465	は と
-2.380465	は とき
-3.048952	は なぞ
-1.099385	は に	-0.1143794
-3.048952	は に対して
-3.048952	は ぬ
-1.342423	は の	-0.06835704
-3.048952	は は
-3.048952	は ほか
-2.380465	は もの
-3.048952	は ら
-3.048952	は わし
-3.048952	は をもって
-1.727901	は セリヌンティウス	0.1695077
-2.380465	は ディオニス	0.1751956
-0.7495061	は メロス	-0.1546206
-3.048952	は 人
-3.048952	は 人々
-3.048952	は 人間
-1.824937	は 今	0.4576995
-2.380465	は 今度
-2.202069	は 今日	0.1244257
-3.048952	は 今頃
-3.048952	は 信実
-3.048952	は 兄
-3.048952	は 初め
-3.048952	は 勇者
-2.202069	は 友	-0.0660499
-3.048952	は 国王
-3.048952	は 地
-3.048952	は 夫婦
-2.380465	は 妹
-2.380465	は 彼
-2.202069	は 心	0.4231606
-3.048952	は 斜陽
-1.774388	は 日	-0.1333477
-2.380465	は 時
-2.380465	は 暴君
-3.048952	は 望み
-3.048952	は 未練
-3.048952	は 楼
-3.048952	は 波
-3.048952	は 流れ
-3.048952	は 濁流
-3.048952	は 牧人
-1.824937	は 王	-0.05177654
-3.048952	は 王様
-3.048952	は 町
-3.048952	は 祝宴
-0.8653014	は 私	-0.3369239
-2.380465	は 結婚式	-0.03366921
-3.048952	は 縄
-3.048952	は 罪
-2.380465	は 群衆
-2.380465	は 老爺	-0.03454579
-3.048952	は 舟
-3.048952	は 花婿
-3.048952	は 花嫁
-3.048952	は 若い衆
-3.048952	は 足
-3.048952	は 身支度
-3.048952	は 間
-3.048952	は 頃
-3.048952	は 頭
-3.048952	は 顔
-0.627348	はい </s>
-0.627348	はさん に
-0.928378	はず た
-0.928378	はず ない
-0.627348	はたと 、
-0.627348	はっ 言い
-0.627348	はで 少しく
-0.627348	はね を
-0.627348	はばかる を
-0.627348	はらわ の
-0.627348	はり 王
-0.657831	はりつけ 、
-1.326318	はりつけ すでに
-1.326318	はりつけ ついに
-1.326318	はりつけ て
-0.627348	はるか </s>
-0.627348	はるばる 、
-1.134952	ば すれ
-0.5288753	ば なけれ	0.03115058
-1.803439	ば なら
-1.803439	ば みれ
-1.803439	ば 思え
-1.803439	ば 拒め
-1.803439	ば 来れ
-1.803439	ば 行き着け
-0.627348	ばか </s>
-0.627348	ばかばかしい 、
-1.326318	ばかり せい
-0.657831	ばかり た
-1.326318	ばかり 夕日
-1.326318	ばかり 燃える
-0.627348	ばら やつ
-0.627348	ぱ こっ
-0.928378	ひしと 、
-0.928378	ひしと を
-0.627348	ひっそり </s>
-0.627348	ひとつ なに
-0.627348	ひと口 、
-0.627348	ひと眠り ちょっと
-0.627348	ひどく 、
-0.627348	ひょいと は
-0.627348	ひょっとしたら </s>
-0.627348	ひるむ の
-0.627348	ふい 、
-0.627348	ふてくされ な
-0.627348	ふと </s>
-0.627348	ふり た
-0.627348	ふるさと 、
-0.627348	ぶと ん
-0.627348	ぶどう 、
-0.928378	ぶらぶら </s>
-0.928378	ぶらぶら を
-0.627348	ぶり 年
-0.627348	ぶる 、
-1.405499	へ 々
-1.405499	へ ここ
-1.405499	へ 家
-1.405499	へ 故郷
-1.405499	へ 村
-1.405499	へ 王城
-0.928378	べき 恥ず
-0.928378	べき 誇る
-0.928378	ほう </s>
-0.928378	ほう 早い
-1.104469	ほか の
-0.4359823	ほか より
-0.627348	ほくそ笑ん そっと
-0.627348	ほしい て
-0.259891	ほっと 、
-0.627348	ほとんど 、
-1.229408	ほど これ
-1.229408	ほど メロス
-1.229408	ほど 虫
-1.229408	ほど 鳴り響く
-0.627348	ほどか 、
-0.627348	ほほえみ 優しく
-0.627348	ほんの </s>
-0.627348	ぽつりぽつり 、
-0.627348	まい くれ
-0.928378	まえ た
-0.928378	まえ もち
-0.627348	まごつい 、
-0.627348	まさか 、
-0.627348	まさしく 、
-0.627348	まさに 、
-1.229408	まし い
-1.229408	まし おり
-1.229408	まし ござい
-1.229408	まし れ
-0.627348	まじまじ 、
-1.741291	ます い
-1.741291	ます いき
-1.741291	ます おり
-1.741291	ます き
-0.6660823	ます ござい	0.4387154
-1.741291	ます れ
-1.741291	ます 守り
-1.741291	ます 来
-1.741291	ます 殺し
-1.741291	ます 申し
-0.627348	ますます 、
-0.627348	まず </s>
-1.104469	ませ おり
-1.104469	ませ ござい
-1.104469	ませ でき
-1.229408	また </s>
-0.560921	また 、
-1.229408	また に
-1.405499	まだ </s>
-0.3302901	まだ 、	-0.05611538
-1.405499	まだ は
-0.627348	まだまだ 、
-0.627348	まっすぐ </s>
-0.627348	まっただ中 の
-0.8596466	まで ここ	0.1467797
-1.706529	まで なる
-1.706529	まで 処刑
-1.706529	まで 刻限
-1.706529	まで 夜明け
-1.706529	まで 季節
-1.706529	まで 日暮れ
-0.8596466	まで 日没
-0.627348	まとも が
-0.627348	まどろん 、
-1.326318	まま </s>
-1.326318	まま この
-1.326318	まま た
-1.326318	まま の
-1.326318	まま 言う
-0.627348	まもなく 、
-0.627348	み て
-0.627348	みごと 、
-0.4359823	みじん 、	-0.05899077
-1.104469	みじん ぱ
-0.627348	みせる て
-0.2575866	みる て
-0.627348	みれ て
-0.627348	むち打ち に
-0.627348	むんむん 、
-0.2575866	め 日	-0.3236977
-0.627348	めいめい 、
-0.627348	めまい なく
-2.502409	も 々
-1.833922	も おまえ
-1.833922	も から
-2.502409	も こと
-2.502409	も それ
-2.502409	も つつ
-1.655527	も て
-1.4272	も で
-2.502409	も と
-1.181359	も に
-1.655527	も の	-0.1039331
-1.833922	も みじん	0.02410924
-1.833922	も もの
-1.833922	も を
-1.655527	も メロス
-2.502409	も 一家
-2.502409	も 一睡
-2.502409	も 人
-1.655527	も 何
-2.502409	も 倍
-2.502409	も 光
-1.833922	も 呼吸
-1.833922	も 命	-0.05673293
-2.502409	も 太陽
-2.502409	も 女房
-2.502409	も 妹
-2.502409	も 姿
-2.502409	も 少し
-2.502409	も 必要
-2.502409	も 支度
-2.502409	も 日
-2.502409	も 枝
-2.502409	も 根
-2.502409	も 母
-2.502409	も 気がかり
-2.502409	も 父
-2.502409	も 牧人
-2.502409	も 男
-2.502409	も 石工
-1.833922	も 神
-1.833922	も 私
-2.502409	も 精
-2.502409	も 精神
-2.502409	も 結婚式
-2.502409	も 羊
-2.502409	も 葉
-2.502409	も 衣装
-2.502409	も 誰
-1.655527	も 雨	0.03155368
-0.3062973	もう </s>
-0.5521389	もう 、	-0.06646729
-1.627348	もう た
-0.627348	もし が
-0.627348	もた を
-0.627348	もたげ を
-0.928378	もち と
-0.928378	もち を
-0.259891	もっ を
-0.928378	もっと 、
-0.928378	もっと は
-0.627348	もともと 、
-1.627348	もの </s>
-1.627348	もの 、
-1.627348	もの たい
-1.627348	もの という
-0.958861	もの な
-1.627348	もの ぬ
-1.627348	もの の
-1.627348	もの 大きい
-1.627348	もの 見る
-0.259891	もはや 、
-0.627348	もみ手 は
-1.104469	や </s>
-1.104469	や ごちそう
-1.104469	や に
-0.2575866	やがて 、
-0.627348	やけに 、
-0.627348	やっ て
-0.259891	やってき に	-0.1646524
-0.627348	やっと 、
-0.928378	やつ とかいう
-0.928378	やつ ない
-0.928378	やはり </s>
-0.928378	やはり 、
-0.627348	やみ も
-1.104469	やめ </s>
-0.4359823	やめ 、	-0.05899077
-0.928378	やら ともに
-0.928378	やら 衣装
-0.2575866	やり て
-0.1814844	やる て
-0.2575866	やろ て
-0.627348	ゆえ それ
-0.4359823	ゆく て	-0.1668728
-1.104469	ゆく で
-0.627348	ゆっくり </s>
-0.627348	ゆらゆら 、
-1.530438	よ いる
-1.530438	よ だ
-0.861951	よ セリヌンティウス	0.2238284
-1.530438	よ ゼウス
-0.861951	よ メロス
-1.530438	よ 友
-1.581591	よい あの
-0.5063814	よい が
-1.581591	よい きっと
-1.581591	よい この
-1.581591	よい で
-1.581591	よい 本当に
-1.741291	よう うめく
-1.072804	よう た
-1.072804	よう だ
-0.6660823	よう の
-1.741291	よう れる
-1.741291	よう 流す
-1.741291	よう 走れる
-1.741291	よう 追い出す
-0.627348	よかっ で
-0.627348	よかろ が
-1.104469	よき </s>
-1.104469	よき 、
-1.104469	よき と
-0.627348	よくも </s>
-0.627348	よくよく 、
-1.104469	より きる
-1.104469	より 死ぬ
-1.104469	より 走る
-0.627348	よろしい 、
-0.627348	よろめい </s>
-1.104469	よろよろ </s>
-0.4359823	よろよろ 、
-0.3825253	ら おまえ	0.2899279
-1.229408	ら や
-0.259891	らしい いる	0.7920301
-1.581591	られ かけ
-0.9131035	られ つり上げ
-0.5063814	られ 信じ
-1.581591	られ 立て
-1.581591	られ 調べ
-0.627348	られる 見
-1.906102	れ おら
-1.059219	れ さ	-0.04381167
-1.906102	れ さらわ
-1.906102	れ だまさ
-1.906102	れ ほどか
-1.906102	れ 刻み込ま
-1.906102	れ 召さ
-1.906102	れ 引きずら
-1.237615	れ 引き出さ	0.172366
-1.237615	れ 打た
-1.906102	れ 押し流さ
-1.059219	れ 殺さ
-1.906102	れ 行わ
-1.581591	れる おら
-1.581591	れる やら
-1.581591	れる 吸い込ま
-0.5063814	れる 殺さ
-0.9131035	れる 笑わ
-1.104469	わい て
-0.4359823	わい 言う	-0.06627774
-0.627348	わかっ 、
-0.4359823	わから が
-1.104469	わから の
-0.928378	わが身 </s>
-0.928378	わが身 、
-0.627348	わけ 、
-0.861951	わし </s>
-0.3064232	わし 、	-0.04660378
-0.627348	わび て
-0.627348	わめい に
-2.969771	を あなた
-2.969771	を あれ
-2.301284	を うそ
-2.969771	を うなり
-2.969771	を おまえ
-2.969771	を お子様
-2.301284	を かた	0.3504121
-1.894562	を きみ
-2.122888	を こと
-2.969771	を さ
-2.969771	を さま
-2.122888	を それ	-0.01811918
-2.969771	を たち
-2.969771	を ため息
-2.969771	を ところ
-2.969771	を ばかり
-2.969771	を まっただ中
-2.969771	を めまい
-2.969771	を もの
-2.969771	を ら
-2.969771	を わが身
-2.969771	を わし
-2.301284	を マント
-2.969771	を メロス
-2.969771	を 世継ぎ
-2.969771	を 事情
-2.969771	を 亭主
-1.38818	を 人	0.03052386
-2.969771	を 仕事
-2.969771	を 会話
-2.301284	を 体
-2.122888	を 何
-2.969771	を 信念
-2.969771	を 先
-2.969771	を 光
-2.969771	を 全て
-2.969771	を 全部
-2.969771	を 出発
-2.122888	を 力	0.03155368
-2.969771	を 卑劣
-2.122888	を 友
-2.969771	を 友人
-2.969771	を 叫び
-2.301284	を 名誉
-2.969771	を 呼吸
-2.969771	を 命令
-2.969771	を 品々
-2.969771	を 喜色
-2.969771	を 四肢
-2.969771	を 地位
-2.301284	を 声
-2.969771	を 夕日
-2.301284	を 夢	0.0008272211
-2.969771	を 大路
-2.969771	を 天
-2.969771	を 姿
-2.969771	を 威厳
-2.969771	を 婿
-2.969771	を 家
-2.969771	を 小川
-2.969771	を 小歌
-2.969771	を 山賊
-1.894562	を 峠	0.06117753
-2.969771	を 川
-2.969771	を 席
-2.969771	を 帰り
-2.969771	を 平和
-2.969771	を 彼
-2.301284	を 心	0.3570611
-2.301284	を 心臓
-2.969771	を 忠誠
-2.969771	を 息
-2.969771	を 悪心
-2.969771	を 情け
-2.969771	を 憐愍
-2.301284	を 手
-2.969771	を 日限
-2.969771	を 暮らし
-2.301284	を 村
-2.301284	を 棍棒
-2.969771	を 森
-1.894562	を 様
-2.969771	を 様子
-2.969771	を 橋
-2.969771	を 橋桁
-2.301284	を 歌
-2.969771	を 死力
-2.301284	を 気
-2.969771	を 気持ち
-2.969771	を 水
-2.969771	を 汗
-2.301284	を 波
-2.301284	を 流れ
-2.969771	を 涙
-2.122888	を 濁流	0.03243026
-2.969771	を 牧人
-2.969771	を 犬
-2.969771	を 王
-2.969771	を 用事
-2.122888	を 男	-0.04344342
-2.969771	を 町
-2.969771	を 番
-2.969771	を 石工
-2.969771	を 祭壇
-1.138303	を 私	0.5182615
-2.969771	を 空
-2.969771	を 笛
-2.122888	を 約束
-2.122888	を 結婚式
-2.969771	を 縄
-2.969771	を 群衆
-2.969771	を 耳
-2.969771	を 肩
-2.969771	を 胴震い
-2.969771	を 胸
-2.969771	を 腕
-2.969771	を 膝
-2.969771	を 自分
-2.969771	を 自身
-2.969771	を 若い衆
-2.969771	を 裸体
-2.969771	を 視線
-2.969771	を 誇り
-2.969771	を 語勢
-2.969771	を 議論
-2.969771	を 豪雨
-2.969771	を 買い物
-2.301284	を 質問
-2.969771	を 身
-2.122888	を 身代わり	0.03243026
-2.969771	を 身支度
-2.969771	を 車軸
-2.969771	を 辺り
-2.969771	を 道
-2.969771	を 邪知
-2.301284	を 野	0.02410924
-2.969771	を 闘争
-2.969771	を 雲
-2.969771	を 響き
-1.64872	を 頬	0.04629605
-2.969771	を 頭
-2.301284	を 顔
-2.301284	を 願い
-2.969771	を 首
-0.627348	をもって 悪心
-1.326318	ん ざ
-1.326318	ん な
-1.326318	ん ぶる
-1.326318	ん ませ
-1.326318	ん や
-0.627348	アレキス の
-0.2575866	クス ラ	-0.147872
-1.104469	シ 、
-0.4359823	シ この
-0.2218488	セリヌンティウス </s>
-1.134952	セリヌンティウス 、
-1.803439	セリヌンティウス た
-1.803439	セリヌンティウス て
-1.803439	セリヌンティウス に
-1.803439	セリヌンティウス 友達
-0.928378	ゼウス 、
-0.928378	ゼウス がら
-0.2575866	ディオニス 暴君	0.03243026
-0.928378	フィロストラトス </s>
-0.928378	フィロストラトス 　
-0.928378	マント その
-0.928378	マント の
-0.2276011	メロス </s>
-2.508162	メロス 　
-0.6255411	メロス 、	0.04310562
-2.508162	メロス た
-1.839675	メロス と
-2.508162	メロス な
-1.839675	メロス に
-1.839675	メロス は
-2.508162	メロス を
-2.508162	メロス 未明
-2.508162	メロス 若い
-2.508162	メロス 高く
-0.2575866	ラ シ	0.09020871
-0.958861	一 </s>
-1.627348	一 、
-0.958861	一 たった
-1.627348	一 な
-1.627348	一 に
-0.958861	一 の
-1.627348	一 人質
-1.104469	一つ たった
-1.104469	一つ もう
-1.104469	一つ を
-0.627348	一事 その
-0.627348	一切 に
-0.928378	一刻 </s>
-0.928378	一刻 刻
-0.627348	一団 </s>
-0.627348	一家 の
-0.627348	一度 で
-0.627348	一挙 勢
-0.627348	一撃 猛然
-0.627348	一斉 ず
-0.928378	一気に </s>
-0.928378	一気に て
-0.627348	一片 の
-0.627348	一生 、
-0.627348	一睡 、
-0.627348	一緒 と
-0.928378	万 </s>
-0.928378	万 王様
-1.038042	三 </s>
-0.4825144	三 、	-0.03631178
-1.706529	三 この
-1.706529	三 に
-1.706529	三 を
-1.706529	三 南無
-0.627348	三里 行き
-0.259891	上げ を
-0.627348	上っ に
-0.627348	上り に
-0.627348	下っ を
-0.627348	下流 と
-0.627348	不 に
-0.928378	不信 の
-0.928378	不信 は
-0.928378	不吉 、
-0.928378	不吉 なにか
-0.627348	不名誉 、
-0.627348	不安 だんだん
-0.627348	不幸 よくよく
-0.627348	与え を
-0.627348	世の中 </s>
-0.627348	世界 人間
-0.627348	世継ぎ お
-0.627348	両 と
-0.928378	両手 は
-0.928378	両手 を
-0.627348	両足 の
-0.259891	中 の
-0.627348	中途 </s>
-0.627348	久しく </s>
-0.627348	乱れ いよいよ
-0.928378	乱心 、
-0.928378	乱心 は
-0.928378	事情 の
-0.928378	事情 少し
-1.530438	二 </s>
-0.6835553	二 、
-1.530438	二 から
-1.530438	二 と
-1.530438	二 に
-1.530438	二 よろよろ
-0.627348	二里 て
-0.627348	五臓 </s>
-1.104469	亭主 </s>
-1.104469	亭主 、
-1.104469	亭主 優しい
-0.9218471	人 </s>
-1.070653	人 、	-0.1958223
-1.477375	人 いる	0.7920301
-2.145862	人 その
-2.145862	人 ない
-1.070653	人 の
-2.145862	人 よい
-0.9218471	人 一	-7.810874e-05
-1.477375	人 三
-1.070653	人 二
-2.145862	人 六
-2.145862	人 道行く
-0.627348	人々 、
-0.627348	人一倍 、
-0.627348	人種 の
-0.4359823	人質 、
-1.104469	人質 を
-1.104469	人間 </s>
-1.104469	人間 が
-1.104469	人間 の
-0.6074532	今 </s>
-0.2498775	今 、	-0.02138038
-1.831468	今 ちょうど
-0.928378	今宵 </s>
-0.928378	今宵 、
-0.928378	今度 </s>
-0.928378	今度 、
-0.3825253	今日 </s>
-1.229408	今日 、
-0.627348	今頃 </s>
-0.627348	仕事 て
-0.627348	他 </s>
-0.627348	代わり の
-0.627348	仰い を
-0.627348	仰天 を
-0.928378	仲間 の
-0.928378	仲間 も
-0.627348	伏し 倒れ
-0.627348	会 相
-0.627348	会い に
-0.627348	会っ で
-0.627348	会わ 久しく
-0.627348	会話 な
-0.627348	会釈 も
-0.627348	似合い 不
-0.627348	低 はばかる
-0.627348	低く で
-1.104469	体 、
-0.4359823	体 の
-1.472446	何 </s>
-0.6255634	何 、
-1.472446	何 から
-1.472446	何 で
-1.472446	何 は
-0.821858	信じ </s>
-1.668741	信じ 、
-1.668741	信じ から
-0.4447259	信じ を	-0.1497438
-0.627348	信ずる 、
-1.326318	信実 </s>
-1.326318	信実 、
-1.326318	信実 と
-0.657831	信実 の
-0.627348	信念 強い
-1.104469	信頼 、
-0.4359823	信頼 は	-0.1104425
-0.627348	倍 十
-0.928378	倒し 撃ち
-0.928378	倒し 殴り
-0.627348	倒れ に
-0.627348	倒れる で
-0.627348	偉い たぶん
-0.627348	偉大 の
-0.627348	傾き に
-0.259891	僅か 、
-0.627348	優しい は
-0.627348	優しく から
-1.326318	兄 うるさく
-1.326318	兄 くる
-0.657831	兄 の	-0.1683545
-1.326318	兄 は
-0.627348	先 また
-0.928378	先刻 </s>
-0.928378	先刻 、
-0.928378	光 残
-0.928378	光 赤い
-0.627348	光っ きらきら
-0.259891	入っ に
-0.627348	入れ に
-0.928378	全 そろそろ
-0.928378	全 ほとんど
-0.627348	全く を
-0.627348	全て 、
-0.627348	全体 町
-0.627348	全身 、
-0.928378	全部 </s>
-0.928378	全部 持ち物
-1.104469	六 、
-0.4359823	六 十
-0.627348	内気 、
-0.627348	再び </s>
-0.627348	処し に
-0.627348	処刑 、
-0.803959	出 が
-0.803959	出 に
-1.472446	出 を
-1.472446	出 噴き
-1.472446	出 走り
-0.627348	出かける に
-1.326318	出発 ついに
-0.4794353	出発 に	-0.4866382
-1.326318	出発 を
-0.627348	分 十
-0.627348	刑 、
-1.229408	刑場 </s>
-1.229408	刑場 、
-1.229408	刑場 ごとく
-1.229408	刑場 で
-0.627348	列席 に
-0.259891	初め 、
-0.627348	初めて 、
-0.627348	初夏 </s>
-0.928378	到着 の
-0.928378	到着 へ
-0.627348	到達 に
-0.627348	刻 、
-0.627348	刻々 は
-0.627348	刻み込ま 、
-0.627348	刻限 の
-0.4359823	前 の
-1.104469	前 年
-0.627348	前方 、
-0.627348	前進 も
-0.560921	力 な
-0.560921	力 の
-0.627348	力いっぱい </s>
-0.928378	助け お
-0.928378	助け を
-0.928378	努め と
-0.928378	努め に
-0.627348	努力 ほど
-0.627348	勇 の
-1.229408	勇者 </s>
-1.229408	勇者 、
-0.560921	勇者 の	-0.1725172
-0.627348	動い で
-0.928378	動け </s>
-0.928378	動け て
-0.627348	勝っ に
-0.627348	勝手 、
-0.627348	勢 猛
-0.627348	匹 百
-1.326318	十 </s>
-0.657831	十 、
-1.326318	十 の
-1.326318	十 は
-0.627348	十分 まだ
-0.627348	十字架 ば
-0.627348	十里 ず
-0.627348	午前 の
-0.627348	午後 から
-0.627348	半ば の
-0.627348	卑劣 の
-0.627348	南無 、
-0.627348	単純 、
-0.627348	及ぶ や
-1.214134	友 </s>
-1.214134	友 、
-1.88262	友 その
-1.035738	友 と	-0.4812762
-1.035738	友 の	-0.1064177
-1.88262	友 は
-1.88262	友 ゆく
-1.88262	友 よい
-1.035738	友 よき
-1.88262	友 愛する
-0.928378	友人 あの
-0.928378	友人 の
-0.928378	友達 お
-0.928378	友達 よい
-0.627348	反駁 て
-0.627348	取り直し を
-0.627348	取り返し を
-0.627348	受け を
-0.928378	口 </s>
-0.928378	口 、
-0.627348	口々 と
-0.928378	叫び に
-0.928378	叫び の
-0.928378	叫ん て
-0.928378	叫ん ながら
-0.627348	召さ に
-0.928378	台 の
-0.928378	台 はりつけ
-0.627348	叱っ を
-0.627348	叱り を
-0.627348	右 の
-0.928378	同じ </s>
-0.928378	同じ と
-0.627348	同時に 人
-0.928378	名誉 、
-0.928378	名誉 から
-0.928378	吏 刑
-0.928378	吏 警
-0.627348	向かっ に
-0.627348	向こう はるか
-0.627348	吸い込ま に
-0.627348	吹き を
-0.627348	呆然 今宵
-0.627348	呼び に
-0.627348	呼ぶ を
-1.104469	呼吸 </s>
-1.104469	呼吸 、
-1.104469	呼吸 荒い
-1.472446	命 </s>
-1.472446	命 、
-1.472446	命 お
-0.6255634	命 の
-1.472446	命 は
-0.627348	命じ を
-0.627348	命乞い </s>
-0.928378	命令 ご
-0.928378	命令 の
-0.627348	哀れ も
-0.627348	哀願 て
-0.627348	品々 その
-0.627348	問いつめ て
-1.104469	問題 、
-1.104469	問題 は
-1.104469	問題 も
-0.627348	喉 、
-0.627348	喜色 に
-0.627348	嘲笑 が
-0.627348	噴き が
-0.627348	四肢 ―
-0.627348	回し 眺め
-0.627348	回復 疲労
-0.627348	困憊 疲労
-0.627348	囲み の
-0.627348	国王 </s>
-0.627348	地 水源
-0.627348	地上 </s>
-0.627348	地位 の
-0.627348	地平線 ゆらゆら
-0.627348	垂れ を
-0.928378	報い て
-0.928378	報い に
-0.928378	塔 </s>
-0.928378	塔 の
-0.627348	士 の
-1.581591	声 、
-1.581591	声 いい
-1.581591	声 おいおい
-0.7347078	声 た	-0.1057858
-1.581591	声 な
-1.581591	声 の
-1.581591	声 低
-0.928378	夕日 、
-0.928378	夕日 大きい
-0.627348	外 、
-0.4794353	夜 、	0.007108705
-1.326318	夜 その
-1.326318	夜 は
-0.627348	夜明け </s>
-1.326318	夢 、
-1.326318	夢 は
-0.4794353	夢 悪い
-0.627348	夢見心地 、
-0.627348	大き ぬ
-0.928378	大きい 恐ろしく
-0.928378	大きい 赤く
-0.928378	大きく が
-0.928378	大きく を
-0.627348	大きな に
-0.4359823	大事 が	-0.166625
-1.104469	大事 この
-0.627348	大切 </s>
-0.259891	大声 と
-0.627348	大蛇 の
-0.627348	大路 の
-0.627348	大雨 な
-0.928378	天 </s>
-0.928378	天 駄
-1.104469	太陽 </s>
-1.104469	太陽 の
-1.104469	太陽 ゆく
-0.928378	夫婦 よい
-0.928378	夫婦 妹
-0.627348	奥底 の
-0.627348	奪い取っ を
-0.627348	女房 </s>
-0.627348	奸佞 の
-0.627348	好き 、
-0.627348	妄想 な
-0.6313201	妹 </s>
-0.8596466	妹 、	-0.104904
-1.706529	妹 この
-1.706529	妹 な
-0.8596466	妹 の
-0.259891	始め を
-0.2575866	姿 の
-0.627348	威厳 けれども
-0.627348	娘 かわいい
-0.560921	婿 </s>
-1.229408	婿 どうにか
-1.229408	婿 妹
-0.627348	嫌い いちばん
-0.627348	子 の
-0.627348	存する の
-0.627348	季節 の
-0.627348	孤独 の
-0.627348	守り を
-0.259891	守る を
-0.627348	守れ を
-0.627348	定まっ の
-0.627348	定法 の
-0.928378	宝 、
-0.928378	宝 べき
-0.627348	宣誓 の
-0.928378	宴席 、
-0.928378	宴席 その
-1.405499	家 、
-1.405499	家 この
-0.5586166	家 の	-0.09178872
-1.405499	家 狭い
-0.627348	宿し に
-0.928378	寂しい やけに
-0.928378	寂しい 決して
-0.627348	寝 、
-0.627348	寝転がっ ごろりと
-0.627348	察し を
-0.627348	対岸 、
-0.627348	尋ね ながら
-0.928378	小さく なにか
-0.928378	小さく に
-0.627348	小屋 羊
-0.627348	小川 、
-0.627348	小歌 な
-0.627348	小耳 を
-0.928378	小降り も
-0.928378	小降り 幾分
-0.627348	小鳥 た
-0.657831	少し </s>
-0.657831	少し 、
-1.326318	少し ほんの
-0.627348	少しく 、
-0.627348	少女 の
-0.627348	尽き も
-0.627348	尽くし を
-0.627348	山 で
-0.560921	山賊 </s>
-1.229408	山賊 、
-1.229408	山賊 の
-0.627348	山越え 越え
-0.627348	岩 、
-1.229408	峠 て
-1.229408	峠 ながら
-0.560921	峠 一気に
-0.627348	川 の
-0.627348	川岸 は
-0.627348	巡邏 、
-0.627348	巣くっ に
-0.627348	差し出す ずつ
-0.627348	巻き 、
-0.627348	希代 、
-1.104469	希望 ながら
-1.104469	希望 の
-1.104469	希望 守る
-0.627348	席 の
-1.581591	帰っ </s>
-1.581591	帰っ 、
-0.9131035	帰っ が
-1.581591	帰っ どうせ
-0.9131035	帰っ に
-0.9131035	帰っ へ
-0.627348	帰り の
-1.104469	平和 、
-1.104469	平和 が
-1.104469	平和 の
-0.627348	平気 、
-0.259891	年 二	-0.07326089
-0.627348	幹 の
-0.627348	幾分 、
-0.928378	幾度 </s>
-0.928378	幾度 は
-0.627348	床 まもなく
-0.560921	度 一
-1.229408	度 三
-1.229408	度 二
-0.627348	引きずら に
-0.627348	引きずる 渦巻き
-0.259891	引き出さ に
-0.627348	引き立て を
-0.627348	弟 の
-0.627348	弟子 の
-0.627348	張り の
-0.627348	強い 、
-0.627348	強く を
-0.627348	影 て
-0.560921	彼 </s>
-1.229408	彼 たちまち
-1.229408	彼 として
-0.627348	待ち伏せ を
-1.405499	待っ </s>
-0.7370123	待っ 、
-1.405499	待っ に
-1.405499	待っ まで
-1.405499	待っ を
-0.627348	待つ 、
-0.259891	待て </s>
-0.627348	律儀 ある
-0.627348	後 の
-0.627348	徐々に 、
-0.627348	徒 の
-0.627348	御免 ちょっと
-1.472446	心 、
-0.1513953	心 の	-0.04830955
-1.472446	心 破る
-0.627348	心構え の
-0.928378	心臓 この
-0.928378	心臓 の
-0.928378	必ず </s>
-0.928378	必ず 、
-0.928378	必死 、
-0.928378	必死 は
-0.627348	必要 急ぐ
-0.928378	忘れ </s>
-0.928378	忘れ さえ
-0.627348	忠誠 の
-0.627348	思い さける
-0.627348	思うつぼ の
-0.627348	思え を
-0.4359823	思っ と
-1.104469	思っ 怪しく
-0.4359823	急い に	-0.1717877
-1.104469	急い を
-0.928378	急ぎ は
-0.928378	急ぎ を
-0.627348	急ぐ そんなに
-0.627348	急げ </s>
-0.627348	怪しく を
-0.627348	恐ろしく もっと
-0.627348	恥 の
-0.627348	恥ず 最も
-0.627348	恨み お
-0.627348	息 、
-0.627348	悔しい たまらなく
-0.627348	悔しく は
-0.627348	悔し泣き 、
-0.627348	悠々 、
-1.104469	悪い </s>
-1.104469	悪い 、
-1.104469	悪い な
-0.627348	悪びれ は
-0.928378	悪徳 、
-0.928378	悪徳 べき
-0.928378	悪心 </s>
-0.928378	悪心 、
-0.627348	悪魔 あの
-0.627348	悲しい は
-0.627348	情 の
-0.627348	情け に
-0.627348	情けない は
-0.560921	愛 </s>
-1.229408	愛 、
-1.229408	愛 ぬ
-0.627348	愛する </s>
-0.259891	感じ を
-0.627348	態 風
-0.627348	憎ん を
-0.627348	憐愍 ついに
-0.627348	憫笑 、
-0.627348	懐中 の
-1.104469	手 、
-1.104469	手 に
-1.104469	手 の
-0.928378	打た を
-0.928378	打た 縄
-0.627348	打ち た
-0.627348	打ち破る を
-0.627348	打っ を
-0.627348	払い で
-0.627348	承諾 なかなか
-0.627348	投げ出し を
-0.627348	投じ に
-0.627348	折っ を
-0.627348	折り曲げ を
-0.627348	抜け するりと
-0.627348	抱い を
-0.627348	抱き合い ひしと
-0.627348	抱き締め ひしと
-0.259891	抱擁 と	-0.1647816
-0.627348	押し さらに
-0.627348	押しのけ を
-0.627348	押し寄せ 、
-0.627348	押し流さ </s>
-0.627348	拒め を
-0.627348	拳 を
-0.627348	持ち物 </s>
-0.627348	挙げ を
-0.627348	挙げる を
-0.928378	振っ を
-0.928378	振っ 大きく
-0.627348	振り上げ を
-0.627348	捕まえ を
-0.627348	捕縛 に
-0.627348	揺すぶっ を
-0.627348	撃ち も
-0.928378	支度 </s>
-0.928378	支度 の
-0.627348	放さ どっこい
-0.627348	放し 、
-0.627348	放せ </s>
-0.928378	放っ </s>
-0.928378	放っ を
-0.627348	放免 を
-0.627348	政治 は
-0.627348	故郷 もはや
-0.627348	敏感 に
-0.928378	救う から
-0.928378	救う を
-0.928378	教え て
-0.928378	教え に
-0.627348	斜陽 </s>
-0.627348	断ち割っ を
-0.627348	新婦 新郎
-0.627348	新郎 </s>
-0.627348	旅人 の
-1.134952	日 </s>
-0.9565566	日 、
-1.803439	日 すでに
-1.803439	日 は
-0.9565566	日 まだ	0.1656053
-0.4823885	日 三	0.103938
-0.627348	日暮れ の
-1.104469	日没 </s>
-1.104469	日没 の
-1.104469	日没 は
-0.259891	日間 三
-0.627348	日限 の
-0.627348	早い </s>
-0.627348	早かっ 、
-0.627348	早く </s>
-0.259891	昇っ 高く
-0.928378	明くる日 、
-0.928378	明くる日 は
-0.657831	明日 </s>
-1.326318	明日 、
-1.326318	明日 どうか
-1.326318	明日 を
-0.627348	星 の
-0.627348	昨日 </s>
-1.104469	時 　
-1.104469	時 て
-1.104469	時 の
-0.627348	暑く そろそろ
-0.928378	暗い 、
-0.928378	暗い の
-1.229408	暮らし で
-1.229408	暮らし な
-1.229408	暮らし 人
-1.229408	暮らし 生涯
-0.5586166	暴君 </s>
-1.405499	暴君 と
-1.405499	暴君 を
-1.405499	暴君 言え
-0.627348	暴虐 邪知
-0.928378	最も 、
-0.928378	最も で
-1.104469	最後 </s>
-1.104469	最後 て
-1.104469	最後 まさに
-0.928378	望み に
-0.928378	望み の
-0.627348	望ん を
-0.627348	期待 に
-0.627348	木々 、
-0.627348	未明 今日
-0.928378	未練 の
-0.928378	未練 やはり
-0.627348	本当に 、
-0.9131035	村 </s>
-0.5063814	村 、	0.03673255
-0.9131035	村 は
-1.581591	村 を
-1.104469	村人 、
-1.104469	村人 た
-1.104469	村人 て
-1.104469	来 に
-1.104469	来 は
-1.104469	来 まで
-0.627348	来れ まで
-0.627348	枝 も
-0.627348	柱 の
-0.627348	根 も
-0.627348	根性 た
-0.928378	棍棒 その
-0.928378	棍棒 に
-0.627348	森 、
-0.259891	楼 塔
-0.627348	楽しみ が
-1.472446	様 アレキス
-1.472446	様 セリヌンティウス
-1.472446	様 メロス
-0.803959	様 妹	-0.1095429
-1.472446	様 婿
-1.472446	様 皇后
-0.560921	様子 いる	0.7920301
-1.229408	様子 た
-1.229408	様子 の
-0.627348	横切り を
-0.627348	樹木 の
-0.627348	橋 に
-0.627348	橋桁 に
-0.627348	欲しい が
-0.627348	欺い を
-0.627348	欺か 、
-0.627348	欺く を
-0.928378	歌 が
-0.928378	歌 に
-0.928378	歌い で
-0.928378	歌い を
-0.627348	歌っ を
-0.627348	歓喜 、
-0.627348	歓声 、
-0.627348	歔欷 、
-0.627348	止まっ 、
-0.627348	正当 、
-1.104469	正直 </s>
-1.104469	正直 、
-1.104469	正直 から
-1.104469	正義 </s>
-1.104469	正義 、
-1.104469	正義 が
-0.627348	歩 三
-1.405499	歩い </s>
-1.405499	歩い しばらく
-1.405499	歩い て
-0.7370123	歩い ぶらぶら
-1.405499	歩い 歩
-0.627348	歩き と
-0.627348	歩ける </s>
-0.627348	歩こ ゆっくり
-0.259891	歳 万
-0.627348	死 ちゃんと
-1.104469	死な て
-1.104469	死な に
-1.104469	死な を
-1.229408	死ぬ 、
-1.229408	死ぬ として
-1.229408	死ぬ に
-1.229408	死ぬ も
-0.928378	死ん </s>
-0.928378	死ん 、
-0.627348	死刑 が
-0.627348	死力 の
-0.627348	残 の
-0.627348	残し を
-0.627348	残ら は
-0.627348	残る 、
-0.627348	残虐 、
-1.326318	殴っ </s>
-0.2511089	殴っ を	-0.1306735
-0.627348	殴り を
-1.326318	殴れ </s>
-0.2511089	殴れ を	-0.1306735
-1.472446	殺さ </s>
-1.472446	殺さ 　
-0.803959	殺さ 、
-1.472446	殺さ は
-1.472446	殺さ やがて
-1.472446	殺さ 人
-1.530438	殺し に
-0.255874	殺し を	-0.2932073
-0.928378	殺す きっと
-0.928378	殺す なぜ
-0.627348	母 、
-0.627348	民 、
-1.405499	気 、
-0.7370123	気 と
-1.405499	気 な
-1.405499	気 は
-1.405499	気 全く
-0.627348	気がかり の
-0.627348	気がつか に
-0.627348	気の毒 </s>
-0.627348	気味 も
-0.928378	気持ち な
-0.928378	気持ち めいめい
-1.104469	水 </s>
-0.4359823	水 、
-0.627348	水源 の
-0.259891	永遠 、	-0.05899077
-0.627348	氾濫 は
-0.627348	汗 の
-0.4359823	決して 、
-1.104469	決して など
-0.627348	決まっ に
-0.928378	決意 と
-0.928378	決意 を
-1.229408	沈ま の
-0.3825253	沈ま は	-0.4898158
-0.928378	沈む が
-0.928378	沈む ずんずん
-0.928378	沈ん が
-0.928378	沈ん ずつ
-0.627348	没し に
-0.627348	泉 その
-1.229408	波 </s>
-1.229408	波 くるう
-1.229408	波 ず
-1.229408	波 は
-0.928378	泣い 、
-0.928378	泣い て
-0.259891	泣き に
-0.627348	泳い を
-0.928378	泳ぎ </s>
-0.928378	泳ぎ を
-0.627348	流す を
-1.326318	流れ </s>
-1.326318	流れ が
-1.326318	流れ くるう
-1.326318	流れ ぶと
-1.326318	流れ 引きずる
-0.627348	流れる の
-0.627348	浮かべ を
-0.627348	浴びせ を
-0.627348	海 、
-0.627348	消え と
-0.627348	消えよ 、
-0.627348	涙 に
-0.627348	深い の
-0.627348	深かっ に
-0.627348	深く に
-0.627348	深夜 、
-0.627348	清らか どんな
-0.627348	清水 ながら
-0.627348	渡し守 、
-0.627348	渦巻き 押し寄せ
-0.627348	湧き出 が
-0.627348	満天 、
-0.627348	満身 </s>
-0.627348	満面 、
-0.627348	滾 から
-0.627348	潜り込ん に
-0.627348	潺 、
-0.627348	澄まし を
-0.627348	激しく ますます
-0.259891	激怒 は	-0.08896741
-0.627348	激流 あげる
-0.7370123	濁流 </s>
-1.405499	濁流 　
-0.5586166	濁流 、
-0.627348	灼熱 の
-0.627348	災難 た
-0.627348	無二 の
-0.627348	無心 を
-0.627348	無理 は
-0.627348	無言 は
-0.928378	無駄 </s>
-0.928378	無駄 、
-0.627348	照っ かっと
-0.259891	照覧 も
-0.627348	燃える も
-0.627348	父 は
-0.3825253	牧人 の	-0.1064177
-1.229408	牧人 一
-0.627348	犬 、
-0.627348	狂っ が
-0.627348	独りよがり 、
-0.627348	独り合点 、
-0.627348	狭い 、
-0.627348	猛 、
-0.627348	猛然 と
-0.627348	獅子奮迅 、
-0.5850509	王 </s>
-0.8308925	王 、	0.03673255
-1.906102	王 あの
-1.906102	王 か
-1.906102	王 これから
-1.906102	王 その
-1.906102	王 た
-1.906102	王 て
-1.906102	王 の
-1.237615	王 は	-0.1104425
-1.906102	王 まさしく
-0.657831	王城 、
-0.657831	王城 に
-1.326318	王城 のそのそ
-0.560921	王様 </s>
-1.229408	王様 、
-1.229408	王様 は
-0.627348	生かし </s>
-0.627348	生きる が
-0.627348	生き延び として
-1.104469	生まれ </s>
-1.104469	生まれ が
-1.104469	生まれ は
-0.627348	生意気 </s>
-0.627348	生涯 と
-0.928378	用事 な
-0.928378	用事 に
-0.627348	申し 恨み
-1.706529	男 あの
-0.8596466	男 その	-0.004897947
-0.6313201	男 な	-0.06686913
-0.8596466	男 の	-0.1056056
-1.706529	男 偉い
-0.627348	男泣き 、
-1.104989	町 </s>
-0.6982669	町 、	-0.04584165
-1.104989	町 この
-1.773476	町 すぐ
-1.773476	町 に
-0.9265934	町 の	-0.4947726
-1.773476	町 はるばる
-0.627348	番 の
-0.627348	疑い お
-1.104469	疑う </s>
-0.4359823	疑う を
-1.104469	疑っ さえ
-0.4359823	疑っ を	-0.1685397
-0.627348	疑わ も
-0.627348	疑惑 暗い
-1.104469	疲れ 、
-1.104469	疲れ が
-1.104469	疲れ は
-1.229408	疲労 、
-1.229408	疲労 に
-1.229408	疲労 の
-1.229408	疲労 身体
-0.627348	疾風 は
-0.627348	発揮 こそ
-0.928378	登り 、
-0.928378	登り を
-0.627348	百 、
-0.928378	皆 、
-0.928378	皆 でも
-0.627348	皇后 、
-0.5586166	目 </s>
-1.405499	目 、
-1.405499	目 お
-1.405499	目 は
-0.627348	目撃 を
-0.627348	相 で
-0.627348	相手 を
-0.627348	眉間 、
-0.928378	真 </s>
-0.928378	真 は
-0.627348	真っ裸 、
-0.928378	真昼 、
-0.928378	真昼 すでに
-0.627348	真紅 、
-0.627348	眠っ 深く
-0.928378	眠り て
-0.928378	眠り 深い
-0.627348	眺め と
-0.627348	着い に
-0.627348	着る を
-0.627348	瞬時 落とし
-0.627348	瞬間 た
-0.627348	矢 、
-0.627348	知っ 、
-0.627348	知ら に
-0.627348	知らせ こそ
-0.627348	短刀 この
-0.627348	短剣 は
-1.104469	石工 、
-1.104469	石工 という
-1.104469	石工 若い
-0.627348	破る を
-0.627348	破壊 を
-0.627348	磔刑 を
-0.560921	祝宴 </s>
-1.229408	祝宴 、
-1.229408	祝宴 やら
-1.326318	神 </s>
-0.4794353	神 、
-1.326318	神 て
-0.627348	祭壇 の
-0.30103	私 </s>
-1.839675	私 　
-0.6503647	私 、	-0.05193586
-2.508162	私 が
-2.508162	私 けれども
-2.508162	私 そんなに
-2.508162	私 た
-2.508162	私 て
-2.508162	私 で
-2.508162	私 でも
-2.508162	私 なく
-2.508162	私 なら
-2.508162	私 に
-1.432953	私 は
-2.508162	私 まさか
-2.508162	私 も
-2.508162	私 もし
-2.508162	私 よくも
-2.508162	私 高く
-0.627348	私欲 もともと
-0.627348	秘密 どんな
-0.627348	空 が
-0.627348	空っぽ 、
-0.627348	空虚 決して
-0.627348	突入 に
-0.627348	突然 、
-0.928378	突破 まで
-0.928378	突破 を
-0.627348	立ちすくん 、
-0.627348	立ち上がる </s>
-0.627348	立ち去り から
-0.627348	立ち止まり 、
-0.627348	立っ 再び
-0.928378	立て あおり
-0.928378	立て と
-0.928378	竹馬 </s>
-0.928378	竹馬 は
-0.627348	笑い を
-0.627348	笑お に
-1.229408	笑っ </s>
-1.229408	笑っ て
-1.229408	笑っ は
-1.229408	笑っ 低く
-0.928378	笑わ きっと
-0.928378	笑わ も
-0.627348	笛 </s>
-1.405499	答え だけ
-1.405499	答え て
-1.405499	答え と
-1.405499	答え に
-1.405499	答え は
-1.405499	答え 僅か
-0.627348	精 、
-0.928378	精いっぱい で
-0.928378	精いっぱい は
-0.627348	精神 、
-0.7370123	約束 </s>
-1.405499	約束 、
-1.405499	約束 あの
-1.405499	約束 と
-1.405499	約束 は
-0.5586166	結婚式 </s>
-1.405499	結婚式 、
-1.405499	結婚式 で
-1.405499	結婚式 の
-0.627348	絞め殺し を
-0.928378	続け もち
-0.928378	続け を
-0.627348	緋 、
-0.4359823	縄 、
-1.104469	縄 の
-0.627348	繋 、
-0.928378	罪 </s>
-0.928378	罪 の
-0.928378	置い に
-0.928378	置い を
-1.326318	羊 </s>
-0.657831	羊 、
-1.326318	羊 と
-1.326318	羊 に
-0.627348	群 羊
-0.803959	群衆 </s>
-0.803959	群衆 、
-1.472446	群衆 どっと
-1.472446	群衆 に
-1.472446	群衆 の
-0.627348	義務 </s>
-0.560921	老爺 </s>
-1.229408	老爺 て
-1.229408	老爺 で
-1.104469	考え 、
-1.104469	考え と
-1.104469	考え ひとつ
-1.229408	者 いる
-1.229408	者 悪徳
-1.229408	者 正直
-1.229408	者 残る
-0.928378	耳 で
-0.928378	耳 ふと
-0.627348	耳打ち と
-0.928378	聞い </s>
-0.928378	聞い を
-0.627348	聞か って
-0.627348	聞き入れ を
-0.4359823	聞こえ が
-1.104469	聞こえ とともに
-0.627348	肉体 </s>
-0.627348	肩 の
-0.627348	背後 の
-0.627348	背負っ 、
-0.627348	胴震い 大きな
-1.104469	胸 お互い
-1.104469	胸 の
-1.104469	胸 は
-1.104469	腕 は
-1.104469	腕 を
-1.104469	腕 両
-0.627348	膝 と
-0.627348	膨れ 、
-0.627348	臣 賢
-0.627348	臣下 、
-1.405499	自分 </s>
-0.7370123	自分 、
-1.405499	自分 ご
-1.405499	自分 て
-1.405499	自分 と
-0.928378	自身 ご
-0.928378	自身 て
-0.627348	舟 繋
-1.229408	花婿 </s>
-0.560921	花婿 、
-1.229408	花婿 から
-1.104469	花嫁 </s>
-1.104469	花嫁 、
-1.104469	花嫁 らしい
-0.4359823	若い </s>
-1.104469	若い その
-0.928378	若い衆 </s>
-0.928378	若い衆 た
-0.627348	茫然 は
-0.627348	草原 の
-0.627348	荒い い
-0.928378	荒れ 、
-0.928378	荒れ 打ち
-0.627348	華やか 乱れ
-0.627348	萎え 全身
-0.928378	落ち に
-0.928378	落ち も
-0.627348	落ち着い は
-0.627348	落とし を
-0.928378	葉 、
-0.928378	葉 の
-0.627348	蒸し暑い むんむん
-0.627348	蒼白 は
-0.627348	薄明 の
-0.627348	虫 いも
-0.627348	血 から
-0.627348	血液 の
-0.928378	行か に
-0.928378	行か へ
-0.928378	行き 三里
-0.928378	行き 二里
-0.627348	行き着く に
-0.627348	行き着け に
-0.627348	行こ </s>
-0.627348	行っ から
-0.627348	行わ に
-0.928378	衣装 な
-0.928378	衣装 の
-0.627348	裂けめ の
-0.928378	裏切り者 に
-0.928378	裏切り者 醜い
-0.928378	裸体 の
-0.928378	裸体 全
-0.627348	襲いかかり に
-0.627348	西 すでに
-0.627348	覆い を
-0.928378	見 に
-0.928378	見 を
-0.627348	見え も
-0.627348	見えすい が
-0.928378	見える </s>
-0.928378	見える が
-0.259891	見せ を
-0.627348	見せつけ うんと
-0.627348	見つけ を
-0.928378	見つめ と
-0.928378	見つめ を
-0.627348	見よ </s>
-0.928378	見る 、
-0.928378	見る を
-0.627348	視線 に
-1.229408	覚め から
-0.3825253	覚め が	-0.4896925
-0.928378	覚悟 ぬる
-0.928378	覚悟 も
-1.326318	言い で
-1.326318	言い と
-1.326318	言い に
-1.326318	言い も
-1.326318	言い 同時に
-0.657831	言う </s>
-1.326318	言う の
-0.657831	言う を
-0.627348	言え </s>
-0.627348	言える も
-1.104469	言っ こう
-1.104469	言っ て
-1.104469	言っ は
-0.627348	言わ も
-0.928378	訪ね 、
-0.928378	訪ね これから
-0.627348	訪れ を
-1.104469	許し 、
-1.104469	許し だけ
-1.104469	許し に
-0.627348	許せ </s>
-0.627348	誇っ を
-0.627348	誇り その
-0.627348	誇る いちばん
-0.627348	語っ を
-0.627348	語勢 、
-0.259891	誠 と	-0.1647816
-0.627348	説き伏せ 、
-0.928378	誰 </s>
-0.928378	誰 、
-0.627348	調え を
-0.627348	調べ </s>
-0.627348	警 の
-0.627348	議論 まで
-0.259891	豪雨 の
-0.928378	負け は
-0.928378	負け も
-0.259891	買い を
-0.627348	買い物 </s>
-0.627348	買っ も
-0.627348	資格 する
-0.627348	賢 、
-0.560921	質問 て
-1.229408	質問 と
-1.229408	質問 に
-0.627348	赤い は
-0.627348	赤く 、
-0.259891	赤らめ を
-0.627348	赤面 ひどく
-1.627348	走っ こんなに
-1.627348	走っ さっさと
-1.627348	走っ て
-1.627348	走っ ながら
-0.958861	走っ に
-0.958861	走っ は
-1.627348	走っ まで
-1.627348	走っ 速く
-0.627348	走ら </s>
-1.104469	走り ごとく
-1.104469	走り について
-1.104469	走り は
-0.5521389	走る </s>
-1.627348	走る 、
-1.627348	走る うんと
-1.627348	走る から
-0.7804653	走る に	-0.4887694
-0.627348	走れ </s>
-0.627348	走れる て
-0.928378	起き は
-0.928378	起き 跳ね
-0.627348	起き上がっ よろよろ
-0.627348	起こっ が
-0.627348	越え を
-0.627348	足 の
-0.928378	足もと すぐ
-0.928378	足もと は
-0.627348	路傍 </s>
-0.928378	跳ね 、
-0.928378	跳ね は
-0.627348	踏ん じだんだ
-0.627348	蹴飛ばし を
-0.627348	躍り 激しく
-0.627348	躍り出 が
-0.928378	身 ごとく
-0.928378	身 は
-1.405499	身代わり </s>
-1.405499	身代わり 、
-1.405499	身代わり そうして
-0.5586166	身代わり その	-0.004897947
-0.627348	身体 </s>
-0.928378	身支度 </s>
-0.928378	身支度 と
-0.627348	車軸 やがて
-0.627348	輝い に
-0.627348	辺り 、
-0.627348	迎える として
-0.627348	近 身
-0.627348	近々 、
-0.627348	近づき に
-0.627348	近寄り に
-0.627348	追い出す から
-0.627348	逃がし </s>
-0.627348	逃げ が
-0.627348	途中 、
-0.627348	速く も
-0.627348	遂行 義務
-0.627348	遅かっ は
-0.6255634	遅れ </s>
-0.803959	遅れ 、
-0.803959	遅れ ちょっと
-0.627348	遊ん と
-0.627348	運命 た
-0.627348	過ぎ に
-0.928378	道 </s>
-0.928378	道 の
-0.627348	道行く </s>
-0.627348	邪悪 けれども
-0.928378	邪知 かの
-0.928378	邪知 奸佞
-0.627348	都 から
-0.928378	酒宴 、
-0.928378	酒宴 で
-0.627348	酔っ に
-0.627348	醜い 、
-0.627348	里 十
-0.627348	里程 全
-0.627348	重ね を
-0.4359823	野 、
-1.104469	野 は
-0.627348	野原 </s>
-0.627348	鎮め 、
-0.627348	長い と
-0.627348	長く でも
-0.627348	開始 を
-0.08444852	間 の	-0.05913123
-1.405499	間 まだ
-0.928378	間に合う </s>
-0.928378	間に合う 分
-0.627348	間に合っ </s>
-0.259891	間に合わ 、
-0.627348	間近 も
-0.627348	闘争 の
-0.627348	降っ 、
-1.104469	降り が
-0.4359823	降り 駆け	0.172366
-0.627348	限り を
-0.627348	除か を
-0.627348	陽気 、
-0.627348	隅 の
-0.627348	隊 一
-0.627348	隙 ひるむ
-0.627348	隣村 、
-0.627348	集まり に
-0.627348	集め 買い
-0.627348	離れ 里
-1.229408	雨 </s>
-0.560921	雨 、	-0.05899077
-1.229408	雨 ぽつりぽつり
-0.627348	雨中 、
-0.627348	雲 の
-1.104469	静か 、
-1.104469	静か は
-1.104469	静か やがて
-0.627348	面前 の
-0.627348	韋 倒し
-1.104469	音 くらい
-1.104469	音 ほど
-1.104469	音 流れる
-0.627348	響き と
-1.405499	頃 この
-1.405499	頃 その
-0.7370123	頃 た
-1.405499	頃 だ
-1.405499	頃 の
-0.627348	頑強 も
-1.326318	頬 に
-0.657831	頬 の
-1.326318	頬 は
-1.326318	頬 右
-0.928378	頭 そっと
-0.928378	頭 の
-0.627348	頼む </s>
-0.928378	頼ん て
-0.928378	頼ん と
-0.627348	額 は
-1.229408	顔 、
-1.229408	顔 さっと
-1.229408	顔 の
-1.229408	顔 悲しい
-0.928378	願い </s>
-0.928378	願い の
-0.627348	願っ と
-1.104469	風 </s>
-1.104469	風 、
-1.104469	風 黒い
-0.928378	飛ばし はね
-0.928378	飛ばし 跳ね
-0.627348	飛び越え を
-0.627348	飛び込み に
-0.627348	飛鳥 、
-0.627348	飲ん ひと口
-0.627348	飾り を
-0.627348	首 、
-0.627348	馬 は
-0.627348	駄 韋
-0.259891	駆け を	-0.1685397
-0.627348	駆け抜け を
-0.627348	騒ぎ 、
-0.928378	驚い </s>
-0.928378	驚い て
-0.627348	驚き は
-0.627348	高々 が
-1.229408	高く すでに
-1.229408	高く は
-0.560921	高く 音
-0.627348	鳴り響く に
-0.627348	黒い は
-0.627348	黒雲 、
-0.627348	黙れ </s>

\3-grams:
-0.8790479	<s> 、 て
-0.6571991	あなた 、 ああ
-1.025176	あの 、 たら
-1.025176	おまえ 、 は
-0.6571991	きっと 、 は
-0.7821379	これ 、 は
-0.6863599	それ 、 は
-1.326206	と 、 う
-1.326206	と 、 くれ
-1.326206	と 、 ぬ
-0.6571991	どう 、 もう
-0.7821379	まだ 、 いや
-0.7821379	まだ 、 は
-0.4811078	みじん 、 は
-0.7821379	もう 、 ああ
-0.4811078	やめ 、 は
-0.9582291	わし 、 か
-0.9582291	わし 、 と
-0.9582291	わし 、 は
-0.7011263	メロス 、 て
-1.43535	メロス 、 は
-1.43535	メロス 、 も
-0.9582291	三 、 を
-0.2913381	人 、 は
-0.6435206	今 、 は
-1.13432	今 、 を
-0.6571991	夜 、 は
-0.6571991	妹 、 それから
-0.7821379	村 、 は
-0.4811078	永遠 、 は
-0.7821379	王 、 は
-0.7821379	町 、 て
-0.919727	私 、 が
-1.410527	私 、 たら
-0.4811078	雨 、 は
-1.430417	<s> 。 ある
-1.815767	<s> 。 いい
-1.581684	<s> 。 いる
-1.581684	<s> 。 う
-1.581684	<s> 。 か
-1.757776	<s> 。 ください
-2.106719	<s> 。 くれ
-2.350144	<s> 。 こい
-2.350144	<s> 。 さ
-1.815767	<s> 。 ぞ
-0.5116464	<s> 。 た
-2.350144	<s> 。 たい
-0.803533	<s> 。 だ
-1.757776	<s> 。 です
-2.106719	<s> 。 な
-1.229502	<s> 。 ない
-1.338646	<s> 。 ぬ
-1.581684	<s> 。 ます
-1.882714	<s> 。 よ
-2.347225	<s> 。 よい
-1.882714	<s> 。 れる
-2.840943	<s> 。 わい
-1.815767	<s> 。 を
-2.840943	<s> 。 セリヌンティウス
-2.840943	<s> 。 メロス
-2.840943	<s> 。 待て
-2.106719	<s> 。 殴れ
-2.840943	<s> 。 沈む
-2.840943	<s> 。 見える
-0.02996322	、 ああ </s>
-0.08715018	た あっ で
-0.4811078	は あなた 、
-0.7821379	かた あの 、
-0.4811078	、 ありがとう </s>
-0.919727	。 ある が
-0.1165056	。 ある で
-0.2884199	の ある が
-0.04139268	た い て
-0.4811078	ない い て
-0.2909519	。 いい が
-1.025176	。 いい でも
-0.1663993	の いう と
-0.2913381	、 いや </s>
-0.03778856	。 いる て
-0.4811078	だろ いる て
-0.38533	の いる て
-0.4811078	らしい いる て
-0.4811078	人 いる て
-0.4811078	様子 いる て
-0.30103	。 う だろ
-0.7821379	に うち ぬ
-0.4811078	、 うなずき で
-0.6571991	に おまえ </s>
-0.4645112	の おまえ </s>
-0.9582291	の おまえ 、
-0.6571991	ら おまえ </s>
-0.9582291	、 か た
-0.9582291	、 か どう
-0.7684593	。 か た
-1.259259	。 か ない
-1.259259	。 か の
-0.4811078	を かた あの
-0.3489438	、 から だ
-0.544068	、 が た
-1.011497	、 が だ
-1.502297	、 が の
-1.083168	ある が 人
-0.8790479	いい が 走る
-0.2884199	でき が こと
-0.4811078	大事 が 命
-0.1663993	覚め が 目
-0.03476211	た き て
-0.4811078	が きみ </s>
-0.6571991	と きみ は
-0.6571991	は きみ 、
-0.05115252	。 ください て
-0.1663993	、 くれ て
-0.1448238	。 くれ て
-0.2884199	た くれ て
-0.1663993	。 こい て
-0.4811078	で ここ 、
-0.7821379	に ここ 、
-0.6571991	まで ここ 、
-0.2884199	ます ござい で
-0.6571991	れ さ 信頼
-1.578018	た し 決意
-1.578018	た し 激怒
-1.578018	た し 質問
-1.117724	て し そう
-1.117724	て し に
-1.120642	て し を
-0.2913381	た しまっ て
-0.3882481	に すぐ 、
-0.3882481	て せ 死な
-0.2913381	し そう 、
-0.1663993	、 そうして </s>
-0.4811078	、 その </s>
-0.6571991	男 その 、
-0.6571991	身代わり その 、
-0.1663993	から それ 、
-0.4811078	で それ 、
-0.4811078	は それ 、
-0.6571991	を それ </s>
-0.2240051	、 それから </s>
-1.371068	。 た あっ
-1.304121	。 た い
-1.304121	。 た き
-2.329297	。 た くれ
-0.8704655	。 た し
-1.838497	。 た しまっ
-2.329297	。 た だし
-1.304121	。 た なかっ
-1.835579	。 た なっ
-1.835579	。 た まし
-1.595073	。 た れ
-2.329297	。 た 出
-2.329297	。 た 思っ
-2.329297	。 た 殴っ
-2.329297	。 た 疑っ
-1.838497	。 た 答え
-1.838497	。 た 聞こえ
-2.329297	。 た 言っ
-1.595073	。 た 走っ
-2.329297	。 た 驚い
-0.7821379	とき た し
-1.560289	の た あっ
-1.066571	の た き
-1.560289	の た し
-1.560289	の た でき
-1.560289	の た 覚め
-0.6571991	声 た しわがれ
-0.6571991	、 ただ </s>
-0.8790479	は たち 村人
-0.4674293	に ため の
-0.5923681	、 たら なかっ
-1.083168	、 たら 遅れ
-2.03741	。 だ こと
-2.03741	。 だ だけ
-0.30103	。 だ の
-2.03741	。 だ 夢
-2.03741	。 だ 平和
-2.03741	。 だ 裏切り者
-2.03741	。 だ 頼ん
-0.531458	から だ の
-0.8790479	が だ の
-0.9582291	う だろ いる
-0.8239087	、 て し
-1.782138	、 て られ
-1.782138	、 て 出
-1.782138	、 て 昇っ
-1.291338	、 て 殺し
-0.8032215	い て し
-1.294021	い て 見つめ
-1.207792	いる て し
-1.207792	いる て なっ
-1.698592	いる て られ
-1.698592	いる て れ
-1.204874	いる て 待っ
-1.698592	いる て 走っ
-1.326206	き て なっ
-0.8354061	き て 帰っ
-0.5923681	ください て やめ
-0.7821379	くる て 帰っ
-0.9416324	くれ て し
-1.43535	くれ て 信じ
-1.43535	くれ て 待っ
-1.43535	くれ て 殴っ
-0.4811078	こ て 帰っ
-0.8790479	こい て 遅れ
-0.4811078	ゆく て られ
-1.13432	あっ で つもり
-1.13432	あっ で 男
-0.8003033	ある で の
-1.294021	ある で 希望
-0.4811078	ない で 問題
-0.6571991	ぬ でき が
-0.5894499	。 です の
-0.1663993	いい でも どう
-0.6571991	いう と 、
-0.1663993	友 と 友
-0.4811078	抱擁 と きみ
-0.4811078	誠 と 愛
-0.4811078	、 とき た
-0.4811078	か どう </s>
-0.2913381	でも どう 、
-0.7821379	男 な 正直
-1.611442	。 ない でき
-1.611442	。 ない なら
-0.5862657	。 ない は
-0.5862657	。 ない も
-0.8790479	の ない で
-0.6435206	た なかっ は
-1.13432	た なかっ も
-1.13432	た なかっ 答え
-0.4811078	なる なく 動け
-1.025176	ば なけれ 行か
-0.9582291	た なっ なく
-0.4674293	た なっ に
-0.09691001	て なっ に
-0.8003033	ぬ なら は
-0.3357921	ぬ なら ば
-0.4811078	、 なり に
-0.7821379	の なん 、
-0.4811078	、 なんだか 、
-1.43535	、 に うち
-1.43535	、 に 間
-0.9582291	し に 明日
-1.221471	なっ に よう
-1.221471	なっ に 小降り
-1.502297	は に おまえ
-1.011497	は に まで
-1.011497	は に メロス
-1.502297	は に 私
-1.502297	は に 頃
-0.4811078	やってき に 町
-0.1663993	出発 に すぐ
-0.4811078	急い に 急ぎ
-0.1663993	走る に ため
-0.6571991	、 ぬ でき
-0.3222193	。 ぬ なら
-1.502297	。 ぬ ませ
-1.502297	。 ぬ わから
-1.011497	。 ぬ 沈ま
-1.13432	、 の 兄
-0.6571991	か の た
-1.339572	だ の ある
-1.339572	だ の いる
-0.5070845	だ の た
-1.339572	だ の な
-1.342491	だ の ない
-1.83329	だ の やる
-1.099066	だ の 走る
-0.3882481	で の た
-0.8790479	です の いう
-0.7655412	は の た
-1.259259	は の 走る
-0.6571991	も の やる
-0.4811078	兄 の おまえ
-0.4811078	勇者 の 真
-0.6571991	友 の 竹馬
-0.6571991	家 の 私
-0.8790479	心 の 人
-0.6571991	牧人 の 婿
-0.6571991	男 の 身代わり
-0.1663993	町 の クス
-0.8790479	間 の 友
-2.290668	、 は きみ
-1.79695	、 は たち
-1.799868	、 は て
-2.290668	、 は とき
-1.11059	、 は に
-1.2075	、 は の
-1.79695	、 は セリヌンティウス
-0.8318361	、 は メロス
-2.290668	、 は 今
-1.799868	、 は 友
-1.799868	、 は 心
-1.556444	、 は 王
