
\data\
ngram 1=1351
ngram 2=3718

\1-grams:
-1.16014	</s>
-99	<s>	-0.2696212
-3.826711	<unk>
-3.224598	―	-0.2112396
-2.923568	　	-0.1517307
-1.083148	、	-0.1269155
-1.165792	。	-2.630687
-3.127688	々	-0.04573854
-3.826658	あ	-0.07939662
-2.650567	ああ	-1.16669
-3.826658	あおり	-0.1166969
-3.826658	あがり	-0.07939662
-3.826658	あきれ	-0.1026808
-3.826658	あげ	-0.1010728
-3.826658	あげよ	-0.1155947
-3.826658	あげる	-0.1167616
-3.826658	あたりまえ	-0.1106328
-3.826658	あちこち	-0.1117476
-2.785265	あっ	-1.065036
-3.826658	あっぱれ	-0.08611806
-3.826658	あて	-0.1032823
-3.224598	あなた	-0.1626765
-2.826658	あの	-0.2346043
-3.525628	ありがたい	-0.08556191
-3.525628	ありがとう	-0.3090479
-2.46493	ある	-0.8722252
-3.224598	あれ	-0.07691998
-3.826658	あん	-0.114099
-2.547904	い	-0.4633026
-2.785265	いい	-0.2372337
-3.826658	いいえ	-0.07939662
-3.349536	いう	-0.3294396
-3.826658	いえ	-0.1167616
-3.525628	いき	-0.1153999
-3.826658	いきり立っ	-0.1010728
-3.349536	いく	-0.06432042
-3.525628	いけ	-0.08319023
-3.826658	いこ	-0.1155947
-3.525628	いちばん	-0.1166969
-3.525628	いっ	-0.08639588
-3.826658	いっそ	-0.07939662
-3.826658	いっぱい	-0.1032823
-3.826658	いつ	-0.1163082
-3.826658	いも	-0.1167616
-3.224598	いや	-0.487094
-3.826658	いよ	-0.1155947
-3.525628	いよいよ	-0.07932606
-2.258456	いる	-0.3406312
-3.826658	いろ	-0.08611806
-2.547904	う	-0.6228824
-3.826658	うえ	-0.07939662
-3.826658	うずくまり	-0.07939662
-3.349536	うそ	-0.2412165
-3.826658	うた	-0.08611806
-3.224598	うち	-0.5109797
-3.826658	うと	-0.1155947
-3.826658	うとうと	-0.07939662
-3.826658	うなずい	-0.1026808
-3.525628	うなずき	-0.3090479
-3.826658	うなり	-0.1023463
-3.826658	うぬぼれ	-0.1010728
-3.826658	うめく	-0.115984
-3.826658	うるさく	-0.1165026
-3.826658	うれしい	-0.1153349
-3.826658	うれし泣き	-0.1032823
-3.525628	うんと	-0.1161137
-3.525628	えい	-0.0738578
-2.98156	お	-0.1155297
-3.826658	おい	-0.1010728
-3.826658	おいおい	-0.1162434
-3.826658	おけ	-0.1144897
-3.826658	おっしゃる	-0.08611806
-2.525628	おまえ	-0.2351279
-3.826658	おめでとう	-0.08611806
-3.826658	おもしろい	-0.08611806
-3.525628	おら	-0.11501
-3.224598	おり	-0.1135776
-3.826658	おわび	-0.07939662
-3.525628	お互い	-0.1165026
-3.826658	お子様	-0.1023463
-2.46493	か	-0.4950239
-3.826658	かかっ	-0.1010728
-3.826658	かがめ	-0.1026808
-3.224598	かき分け	-0.2408212
-3.127688	かけ	-0.2728471
-3.826658	かじりつい	-0.1026808
-3.826658	かすか	-0.1032823
-3.826658	かすれ	-0.1026808
-3.224598	かた	-0.1773069
-3.826658	かたまり	-0.1163082
-3.826658	かっと	-0.1167616
-3.826658	かなっ	-0.1026808
-3.826658	かなわ	-0.1144897
-3.826658	かの	-0.1166969
-3.826658	かも	-0.1167616
-2.349536	から	-0.1983321
-3.826658	からかっ	-0.1010728
-3.826658	かわいい	-0.1167616
-1.839886	が	-0.2869555
-3.826658	がら	-0.1166969
-2.68053	き	-0.9305904
-3.826658	きい	-0.1026808
-3.826658	きかせ	-0.1010728
-3.525628	きっ	-0.3307241
-3.349536	きっと	-0.115984
-2.712714	きみ	-0.3246658
-3.826658	きらきら	-0.1167616
-3.826658	きり	-0.07939662
-3.826658	きる	-0.1166321
-3.826658	きれい	-0.114099
-3.826658	くぐり抜け	-0.07939662
-2.923568	ください	-0.9235342
-3.826658	くだらない	-0.08611806
-3.525628	くらい	-0.0967555
-3.826658	くり	-0.1117476
-3.224598	くる	-0.08458689
-3.349536	くるう	-0.08549232
-2.547904	くれ	-0.3013701
-3.525628	くれる	-0.0980417
-3.826658	ぐずぐず	-0.1167616
-3.127688	けれども	-0.1517935
-3.525628	こ	-0.1133166
-3.127688	こい	-0.1693947
-3.525628	こう	-0.1104357
-3.826658	こうむっ	-0.1010728
-2.826658	ここ	-0.3553419
-3.525628	こそ	-0.1166969
-3.826658	こちら	-0.1032823
-3.826658	こっ	-0.1167616
-2.484235	こと	-0.3412553
-2.622538	この	-0.1587958
-3.826658	この世	-0.1106328
-3.826658	こめ	-0.1010728
-3.826658	こらえ	-0.07939662
-3.127688	これ	-0.09553347
-3.349536	これから	-0.114945
-3.826658	これしき	-0.1117476
-3.826658	こんなに	-0.1161785
-3.224598	ご	-0.1161137
-3.048506	ござい	-0.3416881
-3.826658	ごちそう	-0.1166321
-3.349536	ごとく	-0.1162434
-3.826658	ごろりと	-0.1167616
-2.923568	さ	-0.2303162
-3.826658	さあ	-0.07939662
-3.349536	さえ	-0.1137732
-3.826658	さける	-0.1167616
-3.826658	ささげ	-0.1026808
-3.525628	ささやき	-0.09891954
-3.826658	さすが	-0.1032823
-3.826658	させ	-0.07939662
-3.826658	さっさと	-0.1161785
-3.525628	さっと	-0.1165026
-3.826658	さて	-0.07939662
-3.826658	さては	-0.07939662
-3.525628	さま	-0.1018106
-3.826658	さらに	-0.1167616
-3.826658	さらば	-0.07939662
-3.826658	さらわ	-0.1155947
-3.826658	さん	-0.09939148
-3.826658	さんざん	-0.1161785
-3.826658	ざ	-0.1165026
-2.041328	し	-1.101022
-3.826658	しかた	-0.09695884
-3.525628	しばらく	-0.09898699
-3.826658	しまえ	-0.08611806
-3.127688	しまっ	-0.3763711
-3.826658	しまわ	-0.1144897
-3.826658	しよ	-0.1155947
-3.826658	しれ	-0.114099
-3.826658	しわ	-0.09939148
-3.525628	しわがれ	-0.3323321
-3.826658	じだんだ	-0.1167616
-3.525628	じゃ	-0.08319023
-3.826658	すかし	-0.1010728
-3.826658	すがりつく	-0.1153999
-3.826658	すくっ	-0.1010728
-2.923568	すぐ	-0.4781401
-3.826658	すごし	-0.1026808
-3.127688	すでに	-0.115075
-3.127688	する	-0.08950911
-3.826658	するりと	-0.1167616
-3.525628	すれ	-0.3455056
-3.826658	すれ違っ	-0.1026808
-3.826658	すん	-0.1106328
-3.048506	ず	-0.1281104
-3.525628	ずつ	-0.1166321
-3.826658	ずんずん	-0.1166969
-2.923568	せ	-0.4737997
-3.826658	せい	-0.1165026
-3.826658	せせら笑う	-0.1165673
-3.525628	ぜ	-0.345246
-3.826658	ぜひとも	-0.07939662
-2.98156	そう	-0.2831422
-3.224598	そうして	-0.24068
-3.525628	そっと	-0.1166321
-2.504438	その	-0.1458741
-2.650567	それ	-0.195318
-2.98156	それから	-0.3578554
-3.826658	それでは	-0.07939662
-3.826658	それでも	-0.07939662
-3.525628	そろそろ	-0.1166321
-3.826658	そん	-0.114099
-3.525628	そんなに	-0.1118131
-2.923568	ぞ	-0.310176
-1.494219	た	-0.8117761
-2.872415	たい	-0.1279617
-3.826658	たかっ	-0.1026808
-3.826658	たく	-0.1162434
-3.826658	たくさん	-0.09695884
-3.826658	たたい	-0.1010728
-3.826658	たたえ	-0.07939662
-3.224598	ただ	-0.2396193
-2.826658	たち	-0.4278714
-3.525628	たちまち	-0.0791143
-3.349536	たった	-0.2549211
-3.826658	たて	-0.1010728
-3.826658	たぶん	-0.1167616
-3.826658	たまえ	-0.07939662
-3.826658	たまらない	-0.08611806
-3.826658	たまらなく	-0.1167616
-2.872415	ため	-0.2741765
-3.826658	ためらい	-0.07939662
-3.525628	ため息	-0.09580534
-2.923568	たら	-0.9168128
-1.848934	だ	-0.9088468
-3.525628	だいじょうぶ	-0.3090479
-2.98156	だけ	-0.09963907
-3.224598	だし	-0.2936063
-3.525628	だっ	-0.1021455
-3.224598	だって	-0.487094
-3.349536	だの	-0.3118774
-3.826658	だまさ	-0.1155947
-3.826658	だめ	-0.1106328
-3.826658	だらし	-0.1105014
-3.048506	だろ	-0.4653001
-3.826658	だんだん	-0.1167616
-3.826658	ちがい	-0.114099
-3.826658	ちゃんと	-0.1167616
-3.826658	ちょうど	-0.1157894
-3.127688	ちょっと	-0.1936602
-3.826658	ちら	-0.1117476
-3.826658	って	-0.1167616
-3.525628	つい	-0.08639588
-3.224598	ついに	-0.07861976
-3.826658	つき	-0.1032823
-3.826658	つく	-0.1153999
-3.826658	つくっ	-0.1010728
-3.826658	つけ	-0.1010728
-3.826658	つつ	-0.111944
-3.826658	つぶやき	-0.07939662
-3.826658	つぶれ	-0.1010728
-3.127688	つもり	-0.1666859
-3.826658	つらい	-0.08611806
-3.826658	つらかっ	-0.1026808
-3.525628	つり上げ	-0.3458947
-1.44826	て	-0.4764486
-3.826658	てれ	-0.1010728
-1.848934	で	-0.4512145
-2.747477	でき	-0.2195501
-3.525628	できる	-0.11488
-2.872415	です	-1.033569
-2.923568	でも	-0.2026612
-1.934563	と	-0.07303315
-3.349536	という	-0.07847836
-3.826658	とおり	-0.07939662
-3.826658	とかいう	-0.1166969
-2.98156	とき	-0.2310358
-3.826658	とく	-0.07939662
-3.525628	ところ	-0.1017436
-3.127688	として	-0.1155298
-3.525628	とともに	-0.07918489
-3.826658	とどまっ	-0.1010728
-3.826658	ともに	-0.1166969
-3.826658	とんでもない	-0.1166321
-2.98156	どう	-0.3815807
-3.826658	どうか	-0.1165026
-3.826658	どうせ	-0.1162434
-3.826658	どうどう	-0.1117476
-3.826658	どうにか	-0.1165673
-3.826658	どき	-0.1162434
-3.826658	どっこい	-0.1167616
-3.826658	どっと	-0.116373
-3.826658	ども	-0.07939662
-3.826658	どよめい	-0.1026808
-3.525628	どんな	-0.1166969
-2.203408	な	-0.169367
-2.203408	ない	-0.6953546
-2.747477	なかっ	-0.9366863
-3.826658	なかなか	-0.1167616
-2.98156	ながら	-0.07791232
-2.872415	なく	-0.1938047
-2.98156	なけれ	-0.4355965
-3.826658	なぜ	-0.1166969
-3.826658	なぞ	-0.09939148
-3.826658	なだめ	-0.07939662
-2.596209	なっ	-0.7502147
-3.525628	など	-0.1115511
-3.349536	なに	-0.07242613
-3.525628	なにか	-0.1165674
-3.826658	なにもかも	-0.07939662
-2.547904	なら	-0.5968034
-3.525628	なり	-0.3090479
-3.127688	なる	-0.1089881
-3.127688	なん	-0.3804483
-3.525628	なんだか	-0.3090479
-1.512791	に	-0.1604051
-3.826658	にぎやか	-0.1106328
-3.826658	について	-0.1166321
-3.826658	に対して	-0.09939148
-2.270355	ぬ	-0.4625103
-3.525628	ぬる	-0.115205
-3.826658	ね	-0.08611806
-1.349537	の	-0.1829717
-3.826658	のそのそ	-0.1165026
-3.826658	のに	-0.08611806
-3.826658	のみ	-0.07939662
-3.826658	のん	-0.1106328
-3.525628	のんき	-0.1135776
-1.405054	は	-0.3570193
-3.826658	はい	-0.07939662
-3.826658	はさん	-0.1106328
-3.525628	はず	-0.340284
-3.826658	はたと	-0.07939662
-3.826658	はっ	-0.1026808
-3.826658	はで	-0.114099
-3.826658	はね	-0.1166969
-3.826658	はばかる	-0.1167616
-3.826658	はらわ	-0.1026808
-3.826658	はり	-0.1166969
-3.127688	はりつけ	-0.2556145
-3.826658	はるか	-0.1167616
-3.826658	はるばる	-0.1159191
-2.650567	ば	-0.3489837
-3.826658	ばか	-0.114099
-3.826658	ばかばかしい	-0.08611806
-3.127688	ばかり	-0.1189211
-3.826658	ばら	-0.1032823
-3.826658	ぱ	-0.1166321
-3.525628	ひしと	-0.1166969
-3.826658	ひっそり	-0.1128596
-3.826658	ひとつ	-0.1166321
-3.826658	ひと口	-0.1167616
-3.826658	ひと眠り	-0.1128596
-3.826658	ひどく	-0.1167616
-3.826658	ひょいと	-0.07939662
-3.826658	ひょっとしたら	-0.07939662
-3.826658	ひるむ	-0.1167616
-3.826658	ふい	-0.1117476
-3.826658	ふてくされ	-0.1026808
-3.826658	ふと	-0.1166969
-3.826658	ふり	-0.1128596
-3.826658	ふるさと	-0.08611806
-3.826658	ぶと	-0.1165026
-3.826658	ぶどう	-0.09695884
-3.525628	ぶらぶら	-0.3460891
-3.826658	ぶり	-0.1106328
-3.826658	ぶる	-0.1165026
-3.048506	へ	-0.2350141
-3.525628	べき	-0.1165674
-3.525628	ほう	-0.1053477
-3.349536	ほか	-0.2242206
-3.826658	ほくそ笑ん	-0.1106328
-3.826658	ほしい	-0.08611806
-3.525628	ほっと	-0.1127289
-3.826658	ほとんど	-0.1166969
-3.224598	ほど	-0.08249019
-3.826658	ほどか	-0.1155947
-3.826658	ほほえみ	-0.07939662
-3.826658	ほんの	-0.1165026
-3.826658	ぽつりぽつり	-0.1165673
-3.826658	まい	-0.1153349
-3.525628	まえ	-0.05769547
-3.826658	まごつい	-0.1026808
-3.826658	まさか	-0.1118786
-3.826658	まさしく	-0.1155947
-3.826658	まさに	-0.1166321
-3.224598	まし	-0.5103782
-3.826658	まじまじ	-0.1117476
-2.712714	ます	-1.159758
-3.826658	ますます	-0.1167616
-3.826658	まず	-0.07939662
-3.349536	ませ	-0.2531013
-3.224598	また	-0.1785807
-3.048506	まだ	-0.2159416
-3.826658	まだまだ	-0.1166969
-3.826658	まっすぐ	-0.1032823
-3.826658	まっただ中	-0.1023463
-2.747477	まで	-0.2921469
-3.826658	まとも	-0.1032823
-3.826658	まどろん	-0.1106328
-3.127688	まま	-0.1728569
-3.826658	まもなく	-0.1167616
-3.826658	み	-0.1026808
-3.826658	みごと	-0.07939662
-3.349536	みじん	-0.2371815
-3.826658	みせる	-0.08611806
-3.349536	みる	-0.09129774
-3.826658	みれ	-0.1158543
-3.826658	むち打ち	-0.07939662
-3.826658	むんむん	-0.1167616
-3.349536	め	-0.2217074
-3.826658	めいめい	-0.1166969
-3.826658	めまい	-0.1023463
-1.951596	も	-0.2887801
-2.826658	もう	-0.1952232
-3.826658	もし	-0.1118786
-3.826658	もた	-0.1163082
-3.826658	もたげ	-0.07939662
-3.525628	もち	-0.1165674
-3.525628	もっ	-0.3307241
-3.525628	もっと	-0.07932606
-3.826658	もともと	-0.1167616
-2.826658	もの	-0.1652356
-3.525628	もはや	-0.1166969
-3.826658	もみ手	-0.1128596
-3.349536	や	-0.1161785
-3.349536	やがて	-0.1161137
-3.826658	やけに	-0.1166969
-3.826658	やっ	-0.1026808
-3.525628	やってき	-0.3323321
-3.826658	やっと	-0.07939662
-3.525628	やつ	-0.1166321
-3.525628	やはり	-0.07925548
-3.826658	やみ	-0.07939662
-3.349536	やめ	-0.3335537
-3.525628	やら	-0.115984
-3.349536	やり	-0.3487242
-3.048506	やる	-0.2837796
-3.349536	やろ	-0.3480755
-3.826658	ゆえ	-0.07939662
-3.349536	ゆく	-0.0846566
-3.826658	ゆっくり	-0.1167616
-3.826658	ゆらゆら	-0.1167616
-2.923568	よ	-0.3622552
-2.872415	よい	-0.19777
-2.712714	よう	-1.020049
-3.826658	よかっ	-0.1026808
-3.826658	よかろ	-0.1155947
-3.349536	よき	-0.3481404
-3.826658	よくも	-0.1118786
-3.826658	よくよく	-0.1167616
-3.349536	より	-0.2555045
-3.826658	よろしい	-0.07939662
-3.826658	よろめい	-0.1010728
-3.349536	よろよろ	-0.1111577
-3.224598	ら	-0.1626765
-3.525628	らしい	-0.08590959
-2.872415	られ	-0.25618
-3.826658	られる	-0.09695884
-2.547904	れ	-0.6551254
-2.872415	れる	-0.2628974
-3.349536	わい	-0.2098549
-3.826658	わかっ	-0.1010728
-3.349536	わから	-0.3469705
-3.525628	わが身	-0.08833563
-3.826658	わけ	-0.09695884
-2.923568	わし	-0.1768466
-3.826658	わび	-0.1026808
-3.826658	わめい	-0.1026808
-1.484235	を	-0.1136624
-3.826658	をもって	-0.09939148
-3.127688	ん	-0.07883178
-3.826658	アレキス	-0.116373
-3.349536	クス	-0.3294396
-3.349536	シ	-0.3491129
-2.650567	セリヌンティウス	-0.2853062
-3.525628	ゼウス	-0.1027477
-3.349536	ディオニス	-0.2176276
-3.525628	フィロストラトス	-0.07946718
-3.525628	マント	-0.3319976
-1.945844	メロス	-0.7156742
-3.349536	ラ	-0.3491129
-2.826658	一	-0.3461604
-3.349536	一つ	-0.05314704
-3.826658	一事	-0.1106328
-3.826658	一切	-0.09695884
-3.525628	一刻	-0.3413989
-3.826658	一団	-0.09695884
-3.826658	一家	-0.111944
-3.826658	一度	-0.07939662
-3.826658	一挙	-0.1032823
-3.826658	一撃	-0.07939662
-3.826658	一斉	-0.1032823
-3.525628	一気に	-0.3462186
-3.826658	一片	-0.09695884
-3.826658	一生	-0.1157894
-3.826658	一睡	-0.111944
-3.826658	一緒	-0.1032823
-3.525628	万	-0.3463482
-2.747477	三	-0.4193885
-3.826658	三里	-0.1166969
-3.525628	上げ	-0.3307241
-3.826658	上っ	-0.1010728
-3.826658	上り	-0.07939662
-3.826658	下っ	-0.1026808
-3.826658	下流	-0.1032823
-3.826658	不	-0.1167616
-3.525628	不信	-0.3266101
-3.525628	不吉	-0.3437503
-3.826658	不名誉	-0.09695884
-3.826658	不安	-0.1032823
-3.826658	不幸	-0.114099
-3.826658	与え	-0.1010728
-3.826658	世の中	-0.09695884
-3.826658	世界	-0.09695884
-3.826658	世継ぎ	-0.1023463
-3.826658	両	-0.1166321
-3.525628	両手	-0.340284
-3.826658	両足	-0.1032823
-3.525628	中	-0.1086584
-3.826658	中途	-0.1106328
-3.826658	久しく	-0.1167616
-3.826658	乱れ	-0.1167616
-3.525628	乱心	-0.1091199
-3.525628	事情	-0.09580534
-2.923568	二	-0.303665
-3.826658	二里	-0.1166969
-3.826658	五臓	-0.1105014
-3.349536	亭主	-0.09047313
-2.308144	人	-0.4825913
-3.826658	人々	-0.09939148
-3.826658	人一倍	-0.1032823
-3.826658	人種	-0.1106328
-3.349536	人質	-0.1022794
-3.349536	人間	-0.06028384
-2.622538	今	-0.3138017
-3.525628	今宵	-0.07932606
-3.525628	今度	-0.3290428
-3.224598	今日	-0.261031
-3.826658	今頃	-0.09939148
-3.826658	仕事	-0.1023463
-3.826658	他	-0.1032823
-3.826658	代わり	-0.1032823
-3.826658	仰い	-0.1106328
-3.826658	仰天	-0.1163082
-3.525628	仲間	-0.08277035
-3.826658	伏し	-0.07939662
-3.826658	会	-0.1167616
-3.826658	会い	-0.07939662
-3.826658	会っ	-0.1026808
-3.826658	会わ	-0.1160489
-3.826658	会話	-0.1023463
-3.826658	会釈	-0.1128596
-3.826658	似合い	-0.114099
-3.826658	低	-0.1162434
-3.826658	低く	-0.1165673
-3.349536	体	-0.2348783
-2.98156	何	-0.2863761
-2.785265	信じ	-0.6766114
-3.826658	信ずる	-0.1153999
-3.127688	信実	-0.1508635
-3.826658	信念	-0.1023463
-3.349536	信頼	-0.2416848
-3.826658	倍	-0.111944
-3.525628	倒し	-0.07932606
-3.826658	倒れ	-0.1167616
-3.826658	倒れる	-0.09695884
-3.826658	偉い	-0.1160489
-3.826658	偉大	-0.114099
-3.826658	傾き	-0.1165026
-3.525628	僅か	-0.115984
-3.826658	優しい	-0.1166321
-3.826658	優しく	-0.1167616
-3.127688	兄	-0.1880721
-3.826658	先	-0.1023463
-3.525628	先刻	-0.05769547
-3.525628	光	-0.09729753
-3.826658	光っ	-0.1010728
-3.525628	入っ	-0.3307241
-3.826658	入れ	-0.1010728
-3.525628	全	-0.1166321
-3.826658	全く	-0.1164378
-3.826658	全て	-0.1023463
-3.826658	全体	-0.1105014
-3.826658	全身	-0.1167616
-3.525628	全部	-0.1022794
-3.349536	六	-0.233654
-3.826658	内気	-0.114099
-3.826658	再び	-0.1167616
-3.826658	処し	-0.1010728
-3.826658	処刑	-0.1160489
-2.98156	出	-0.4102352
-3.826658	出かける	-0.08611806
-3.127688	出発	-0.1759774
-3.826658	分	-0.1166969
-3.826658	刑	-0.1166969
-3.224598	刑場	-0.1825199
-3.826658	列席	-0.1128596
-3.525628	初め	-0.09736523
-3.826658	初めて	-0.115984
-3.826658	初夏	-0.07939662
-3.525628	到着	-0.09918929
-3.826658	到達	-0.1128596
-3.826658	刻	-0.1166969
-3.826658	刻々	-0.1032823
-3.826658	刻み込ま	-0.1155947
-3.826658	刻限	-0.1160489
-3.349536	前	-0.3357631
-3.826658	前方	-0.09695884
-3.826658	前進	-0.1167616
-3.224598	力	-0.2500425
-3.826658	力いっぱい	-0.1032823
-3.525628	助け	-0.08702032
-3.525628	努め	-0.08639588
-3.826658	努力	-0.1128596
-3.826658	勇	-0.07939662
-3.224598	勇者	-0.03758036
-3.826658	動い	-0.1010728
-3.525628	動け	-0.3458947
-3.826658	勝っ	-0.1026808
-3.826658	勝手	-0.1032823
-3.826658	勢	-0.1167616
-3.826658	匹	-0.09695884
-3.127688	十	-0.1943735
-3.826658	十分	-0.09695884
-3.826658	十字架	-0.1032823
-3.826658	十里	-0.09695884
-3.826658	午前	-0.07939662
-3.826658	午後	-0.09695884
-3.826658	半ば	-0.1032823
-3.826658	卑劣	-0.1023463
-3.826658	南無	-0.1160489
-3.826658	単純	-0.114099
-3.826658	及ぶ	-0.08611806
-2.571385	友	-0.161357
-3.525628	友人	-0.0959412
-3.525628	友達	-0.1095151
-3.826658	反駁	-0.1128596
-3.826658	取り直し	-0.1010728
-3.826658	取り返し	-0.07939662
-3.826658	受け	-0.1010728
-3.525628	口	-0.1086584
-3.826658	口々	-0.1032823
-3.525628	叫び	-0.1018776
-3.525628	叫ん	-0.340284
-3.826658	召さ	-0.1155947
-3.525628	台	-0.3329336
-3.826658	叱っ	-0.1010728
-3.826658	叱り	-0.116373
-3.826658	右	-0.1165026
-3.525628	同じ	-0.11527
-3.826658	同時に	-0.1165026
-3.525628	名誉	-0.3319976
-3.525628	吏	-0.1027477
-3.826658	向かっ	-0.1010728
-3.826658	向こう	-0.1032823
-3.826658	吸い込ま	-0.1162434
-3.826658	吹き	-0.07939662
-3.826658	呆然	-0.07939662
-3.826658	呼び	-0.1167616
-3.826658	呼ぶ	-0.1105014
-3.349536	呼吸	-0.2362346
-2.98156	命	-0.2368766
-3.826658	命じ	-0.1010728
-3.826658	命乞い	-0.1166969
-3.525628	命令	-0.0959412
-3.826658	哀れ	-0.1117476
-3.826658	哀願	-0.1128596
-3.826658	品々	-0.1023463
-3.826658	問いつめ	-0.1026808
-3.349536	問題	-0.3431136
-3.826658	喉	-0.1105014
-3.826658	喜色	-0.1023463
-3.826658	嘲笑	-0.1128596
-3.826658	噴き	-0.116373
-3.826658	四肢	-0.1023463
-3.826658	回し	-0.07939662
-3.826658	回復	-0.1166969
-3.826658	困憊	-0.09695884
-3.826658	囲み	-0.11488
-3.826658	国王	-0.09939148
-3.826658	地	-0.09939148
-3.826658	地上	-0.1106328
-3.826658	地位	-0.1023463
-3.826658	地平線	-0.1032823
-3.826658	垂れ	-0.1010728
-3.525628	報い	-0.1022125
-3.525628	塔	-0.3463482
-3.826658	士	-0.1165026
-2.872415	声	-0.3903751
-3.525628	夕日	-0.1020116
-3.826658	外	-0.09695884
-3.127688	夜	-0.04137065
-3.826658	夜明け	-0.1160489
-3.127688	夢	-0.2668829
-3.826658	夢見心地	-0.1106328
-3.826658	大き	-0.114099
-3.525628	大きい	-0.1160489
-3.525628	大きく	-0.1155947
-3.826658	大きな	-0.1167616
-3.349536	大事	-0.1133819
-3.826658	大切	-0.114099
-3.525628	大声	-0.1105671
-3.826658	大蛇	-0.09695884
-3.826658	大路	-0.1023463
-3.826658	大雨	-0.1117476
-3.525628	天	-0.06358929
-3.349536	太陽	-0.0851443
-3.525628	夫婦	-0.08528356
-3.826658	奥底	-0.1105014
-3.826658	奪い取っ	-0.1010728
-3.826658	女房	-0.111944
-3.826658	奸佞	-0.1166969
-3.826658	好き	-0.114099
-3.826658	妄想	-0.1106328
-2.747477	妹	-0.1656714
-3.525628	始め	-0.08639588
-3.349536	姿	-0.08312026
-3.826658	威厳	-0.1023463
-3.826658	娘	-0.1167616
-3.224598	婿	-0.1811171
-3.826658	嫌い	-0.114099
-3.826658	子	-0.09695884
-3.826658	存する	-0.1166969
-3.826658	季節	-0.1160489
-3.826658	孤独	-0.1105014
-3.826658	守り	-0.115984
-3.525628	守る	-0.1160489
-3.826658	守れ	-0.08611806
-3.826658	定まっ	-0.1026808
-3.826658	定法	-0.1106328
-3.525628	宝	-0.1089881
-3.826658	宣誓	-0.1105014
-3.525628	宴席	-0.09492117
-3.048506	家	-0.123482
-3.826658	宿し	-0.1026808
-3.525628	寂しい	-0.0845869
-3.826658	寝	-0.1167616
-3.826658	寝転がっ	-0.1026808
-3.826658	察し	-0.1026808
-3.826658	対岸	-0.09695884
-3.826658	尋ね	-0.1026808
-3.525628	小さく	-0.07925548
-3.826658	小屋	-0.1032823
-3.826658	小川	-0.1023463
-3.826658	小歌	-0.1023463
-3.826658	小耳	-0.1032823
-3.525628	小降り	-0.3329336
-3.826658	小鳥	-0.1105014
-3.127688	少し	-0.07321413
-3.826658	少しく	-0.1167616
-3.826658	少女	-0.1105014
-3.826658	尽き	-0.1026808
-3.826658	尽くし	-0.1010728
-3.826658	山	-0.09695884
-3.224598	山賊	-0.07421497
-3.826658	山越え	-0.07939662
-3.826658	岩	-0.09695884
-3.224598	峠	-0.5100437
-3.826658	川	-0.1023463
-3.826658	川岸	-0.1032823
-3.826658	巡邏	-0.09695884
-3.826658	巣くっ	-0.1026808
-3.826658	差し出す	-0.1153999
-3.826658	巻き	-0.07939662
-3.826658	希代	-0.09695884
-3.349536	希望	-0.2431534
-3.826658	席	-0.1023463
-2.872415	帰っ	-0.9842465
-3.826658	帰り	-0.1023463
-3.349536	平和	-0.2348783
-3.826658	平気	-0.1106328
-3.525628	年	-0.1165674
-3.826658	幹	-0.1032823
-3.826658	幾分	-0.1166969
-3.525628	幾度	-0.1102386
-3.826658	床	-0.1032823
-3.224598	度	-0.1784393
-3.826658	引きずら	-0.1155947
-3.826658	引きずる	-0.1165026
-3.525628	引き出さ	-0.345246
-3.826658	引き立て	-0.07939662
-3.826658	弟	-0.1032823
-3.826658	弟子	-0.1106328
-3.826658	張り	-0.1167616
-3.826658	強い	-0.1167616
-3.826658	強く	-0.1128596
-3.826658	影	-0.1162434
-3.224598	彼	-0.1626765
-3.826658	待ち伏せ	-0.1128596
-3.048506	待っ	-0.4507782
-3.826658	待つ	-0.1153999
-3.525628	待て	-0.3157694
-3.826658	律儀	-0.114099
-3.826658	後	-0.1167616
-3.826658	徐々に	-0.1166969
-3.826658	徒	-0.1106328
-3.826658	御免	-0.1167616
-2.98156	心	-0.1992905
-3.826658	心構え	-0.114099
-3.525628	心臓	-0.3319976
-3.525628	必ず	-0.3090479
-3.525628	必死	-0.09047315
-3.826658	必要	-0.111944
-3.525628	忘れ	-0.3307241
-3.826658	忠誠	-0.1023463
-3.826658	思い	-0.1106328
-3.826658	思うつぼ	-0.1106328
-3.826658	思え	-0.1158543
-3.349536	思っ	-0.3351617
-3.349536	急い	-0.2432866
-3.525628	急ぎ	-0.3329336
-3.826658	急ぐ	-0.1167616
-3.826658	急げ	-0.07939662
-3.826658	怪しく	-0.1166321
-3.826658	恐ろしく	-0.1166969
-3.826658	恥	-0.1106328
-3.826658	恥ず	-0.1166969
-3.826658	恨み	-0.1167616
-3.826658	息	-0.1023463
-3.826658	悔しい	-0.09695884
-3.826658	悔しく	-0.07939662
-3.826658	悔し泣き	-0.1032823
-3.826658	悠々	-0.1117476
-3.349536	悪い	-0.3489834
-3.826658	悪びれ	-0.1164378
-3.525628	悪徳	-0.11037
-3.525628	悪心	-0.1022794
-3.826658	悪魔	-0.09695884
-3.826658	悲しい	-0.1165673
-3.826658	情	-0.1166321
-3.826658	情け	-0.1023463
-3.826658	情けない	-0.08611806
-3.224598	愛	-0.273258
-3.826658	愛する	-0.1156596
-3.525628	感じ	-0.06395501
-3.826658	態	-0.114099
-3.826658	憎ん	-0.1106328
-3.826658	憐愍	-0.1023463
-3.826658	憫笑	-0.1128596
-3.826658	懐中	-0.11488
-3.349536	手	-0.239271
-3.525628	打た	-0.345246
-3.826658	打ち	-0.1166969
-3.826658	打ち破る	-0.1162434
-3.826658	打っ	-0.1026808
-3.826658	払い	-0.07939662
-3.826658	承諾	-0.1128596
-3.826658	投げ出し	-0.1010728
-3.826658	投じ	-0.07939662
-3.826658	折っ	-0.1026808
-3.826658	折り曲げ	-0.07939662
-3.826658	抜け	-0.1010728
-3.826658	抱い	-0.1010728
-3.826658	抱き合い	-0.07939662
-3.826658	抱き締め	-0.1026808
-3.525628	抱擁	-0.1157245
-3.826658	押し	-0.1010728
-3.826658	押しのけ	-0.07939662
-3.826658	押し寄せ	-0.1167616
-3.826658	押し流さ	-0.1155947
-3.826658	拒め	-0.1158543
-3.826658	拳	-0.1106328
-3.826658	持ち物	-0.1166969
-3.826658	挙げ	-0.1167616
-3.826658	挙げる	-0.08611806
-3.525628	振っ	-0.3307241
-3.826658	振り上げ	-0.1026808
-3.826658	捕まえ	-0.1010728
-3.826658	捕縛	-0.1163082
-3.826658	揺すぶっ	-0.1010728
-3.826658	撃ち	-0.1166969
-3.525628	支度	-0.09184663
-3.826658	放さ	-0.1144897
-3.826658	放し	-0.1010728
-3.826658	放せ	-0.08611806
-3.525628	放っ	-0.3307241
-3.826658	放免	-0.1165026
-3.826658	政治	-0.1105014
-3.826658	故郷	-0.1164378
-3.826658	敏感	-0.1106328
-3.525628	救う	-0.09634855
-3.525628	教え	-0.3307241
-3.826658	斜陽	-0.09939148
-3.826658	断ち割っ	-0.1010728
-3.826658	新婦	-0.09695884
-3.826658	新郎	-0.1167616
-3.826658	旅人	-0.1117476
-2.650567	日	-0.2945389
-3.826658	日暮れ	-0.1160489
-3.349536	日没	-0.3485297
-3.525628	日間	-0.09648424
-3.826658	日限	-0.1023463
-3.826658	早い	-0.1166969
-3.826658	早かっ	-0.1026808
-3.826658	早く	-0.1154648
-3.525628	昇っ	-0.3307241
-3.525628	明くる日	-0.3266101
-3.127688	明日	-0.1127102
-3.826658	星	-0.1106328
-3.826658	昨日	-0.09695884
-3.349536	時	-0.2317426
-3.826658	暑く	-0.1157245
-3.525628	暗い	-0.09689108
-3.224598	暮らし	-0.1792162
-3.048506	暴君	-0.2616736
-3.826658	暴虐	-0.09695884
-3.525628	最も	-0.07932606
-3.349536	最後	-0.3294396
-3.525628	望み	-0.08465661
-3.826658	望ん	-0.1106328
-3.826658	期待	-0.1128596
-3.826658	木々	-0.09695884
-3.826658	未明	-0.1118786
-3.525628	未練	-0.07869045
-3.826658	本当に	-0.1162434
-2.872415	村	-0.1706625
-3.349536	村人	-0.3486594
-3.349536	来	-0.2407477
-3.826658	来れ	-0.1158543
-3.826658	枝	-0.111944
-3.826658	柱	-0.1105014
-3.826658	根	-0.111944
-3.826658	根性	-0.1105014
-3.525628	棍棒	-0.3319976
-3.826658	森	-0.1023463
-3.525628	楼	-0.09280549
-3.826658	楽しみ	-0.1106328
-2.98156	様	-0.3202671
-3.224598	様子	-0.2576481
-3.826658	横切り	-0.07939662
-3.826658	樹木	-0.09695884
-3.826658	橋	-0.1023463
-3.826658	橋桁	-0.1023463
-3.826658	欲しい	-0.09695884
-3.826658	欺い	-0.1026808
-3.826658	欺か	-0.1160489
-3.826658	欺く	-0.1165026
-3.525628	歌	-0.3319976
-3.525628	歌い	-0.0791143
-3.826658	歌っ	-0.1010728
-3.826658	歓喜	-0.1032823
-3.826658	歓声	-0.1105014
-3.826658	歔欷	-0.09695884
-3.826658	止まっ	-0.1026808
-3.826658	正当	-0.09695884
-3.349536	正直	-0.2527755
-3.349536	正義	-0.2356926
-3.826658	歩	-0.1164378
-3.048506	歩い	-0.831574
-3.826658	歩き	-0.1165673
-3.826658	歩ける	-0.08611806
-3.826658	歩こ	-0.1155947
-3.525628	歳	-0.04581479
-3.826658	死	-0.1166969
-3.349536	死な	-0.348789
-3.224598	死ぬ	-0.09471686
-3.525628	死ん	-0.1043495
-3.826658	死刑	-0.1032823
-3.826658	死力	-0.1023463
-3.826658	残	-0.1166969
-3.826658	残し	-0.1010728
-3.826658	残ら	-0.1164378
-3.826658	残る	-0.1165673
-3.826658	残虐	-0.114099
-3.127688	殴っ	-0.3177426
-3.826658	殴り	-0.1166969
-3.127688	殴れ	-1.888121
-2.98156	殺さ	-0.4388494
-2.923568	殺し	-0.3181583
-3.525628	殺す	-0.0964164
-3.826658	母	-0.111944
-3.826658	民	-0.09695884
-3.048506	気	-0.1989259
-3.826658	気がかり	-0.111944
-3.826658	気がつか	-0.114099
-3.826658	気の毒	-0.1106328
-3.826658	気味	-0.1105014
-3.525628	気持ち	-0.0959412
-3.349536	水	-0.07492845
-3.826658	水源	-0.1167616
-3.525628	永遠	-0.3329336
-3.826658	氾濫	-0.1128596
-3.826658	汗	-0.1023463
-3.349536	決して	-0.1126635
-3.826658	決まっ	-0.1010728
-3.525628	決意	-0.3425109
-3.224598	沈ま	-0.5221871
-3.525628	沈む	-0.3157694
-3.525628	沈ん	-0.340284
-3.826658	没し	-0.07939662
-3.826658	泉	-0.1032823
-3.224598	波	-0.1695125
-3.525628	泣い	-0.08639588
-3.525628	泣き	-0.1138384
-3.826658	泳い	-0.1106328
-3.525628	泳ぎ	-0.1166969
-3.826658	流す	-0.115984
-3.127688	流れ	-0.1300321
-3.826658	流れる	-0.1166321
-3.826658	浮かべ	-0.1010728
-3.826658	浴びせ	-0.1026808
-3.826658	海	-0.09695884
-3.826658	消え	-0.1010728
-3.826658	消えよ	-0.1155947
-3.826658	涙	-0.1023463
-3.826658	深い	-0.1166969
-3.826658	深かっ	-0.1026808
-3.826658	深く	-0.1167616
-3.826658	深夜	-0.07939662
-3.826658	清らか	-0.114099
-3.826658	清水	-0.1105014
-3.826658	渡し守	-0.09695884
-3.826658	渦巻き	-0.1167616
-3.826658	湧き出	-0.1010728
-3.826658	満天	-0.09695884
-3.826658	満身	-0.09695884
-3.826658	満面	-0.1032823
-3.826658	滾	-0.1165026
-3.826658	潜り込ん	-0.1106328
-3.826658	潺	-0.1165026
-3.826658	澄まし	-0.1026808
-3.826658	激しく	-0.1167616
-3.525628	激怒	-0.3425109
-3.826658	激流	-0.1105014
-3.048506	濁流	-0.1648947
-3.826658	灼熱	-0.09695884
-3.826658	災難	-0.07939662
-3.826658	無二	-0.09695884
-3.826658	無心	-0.1032823
-3.826658	無理	-0.1032823
-3.826658	無言	-0.1106328
-3.525628	無駄	-0.09689107
-3.826658	照っ	-0.1010728
-3.525628	照覧	-0.0791143
-3.826658	燃える	-0.1165026
-3.826658	父	-0.111944
-3.224598	牧人	-0.0722827
-3.826658	犬	-0.1023463
-3.826658	狂っ	-0.1026808
-3.826658	独りよがり	-0.1153349
-3.826658	独り合点	-0.1128596
-3.826658	狭い	-0.1164378
-3.826658	猛	-0.1167616
-3.826658	猛然	-0.1167616
-3.826658	獅子奮迅	-0.09695884
-2.547904	王	-0.2631037
-3.127688	王城	-0.3928566
-3.224598	王様	-0.0716367
-3.826658	生かし	-0.1010728
-3.826658	生きる	-0.08611806
-3.826658	生き延び	-0.1010728
-3.349536	生まれ	-0.225333
-3.826658	生意気	-0.114099
-3.826658	生涯	-0.1165673
-3.525628	用事	-0.09580534
-3.826658	申し	-0.115984
-2.747477	男	-0.119093
-3.826658	男泣き	-0.1032823
-2.68053	町	-0.2268002
-3.826658	番	-0.1023463
-3.826658	疑い	-0.1032823
-3.349536	疑う	-0.2344026
-3.349536	疑っ	-0.225333
-3.826658	疑わ	-0.1164378
-3.826658	疑惑	-0.09695884
-3.349536	疲れ	-0.2398757
-3.224598	疲労	-0.1125982
-3.826658	疾風	-0.09695884
-3.826658	発揮	-0.1128596
-3.525628	登り	-0.07925548
-3.826658	百	-0.1167616
-3.525628	皆	-0.0967555
-3.826658	皇后	-0.116373
-3.048506	目	-0.2591206
-3.826658	目撃	-0.1128596
-3.826658	相	-0.1167616
-3.826658	相手	-0.1032823
-3.826658	眉間	-0.09695884
-3.525628	真	-0.3266101
-3.826658	真っ裸	-0.1166969
-3.525628	真昼	-0.1032155
-3.826658	真紅	-0.09695884
-3.826658	眠っ	-0.1026808
-3.525628	眠り	-0.1026809
-3.826658	眺め	-0.1167616
-3.826658	着い	-0.1026808
-3.826658	着る	-0.1105014
-3.826658	瞬時	-0.1167616
-3.826658	瞬間	-0.07939662
-3.826658	矢	-0.09695884
-3.826658	知っ	-0.1010728
-3.826658	知ら	-0.1163082
-3.826658	知らせ	-0.1010728
-3.826658	短刀	-0.1106328
-3.826658	短剣	-0.1105014
-3.349536	石工	-0.09067943
-3.826658	破る	-0.116373
-3.826658	破壊	-0.1128596
-3.826658	磔刑	-0.1032823
-3.224598	祝宴	-0.1637015
-3.127688	神	-0.3429634
-3.826658	祭壇	-0.1023463
-1.945844	私	-1.191355
-3.826658	私欲	-0.09695884
-3.826658	秘密	-0.1106328
-3.826658	空	-0.1023463
-3.826658	空っぽ	-0.1106328
-3.826658	空虚	-0.114099
-3.826658	突入	-0.1128596
-3.826658	突然	-0.07939662
-3.525628	突破	-0.3425109
-3.826658	立ちすくん	-0.1106328
-3.826658	立ち上がる	-0.1153999
-3.826658	立ち去り	-0.07939662
-3.826658	立ち止まり	-0.116373
-3.826658	立っ	-0.1010728
-3.525628	立て	-0.07876112
-3.525628	竹馬	-0.3266101
-3.826658	笑い	-0.07939662
-3.826658	笑お	-0.1155947
-3.224598	笑っ	-0.2481028
-3.525628	笑わ	-0.3458947
-3.826658	笛	-0.1023463
-3.048506	答え	-0.246272
-3.826658	精	-0.111944
-3.525628	精いっぱい	-0.3329336
-3.826658	精神	-0.111944
-3.048506	約束	-0.2606826
-3.048506	結婚式	-0.2622389
-3.826658	絞め殺し	-0.1010728
-3.525628	続け	-0.3307241
-3.826658	緋	-0.09695884
-3.349536	縄	-0.08416835
-3.826658	繋	-0.1167616
-3.525628	罪	-0.07869045
-3.525628	置い	-0.3307241
-3.127688	羊	-0.1062109
-3.826658	群	-0.09695884
-2.98156	群衆	-0.1992905
-3.826658	義務	-0.1167616
-3.224598	老爺	-0.1637015
-3.349536	考え	-0.225333
-3.224598	者	-0.08235005
-3.525628	耳	-0.08833563
-3.826658	耳打ち	-0.1128596
-3.525628	聞い	-0.3307241
-3.826658	聞か	-0.1144897
-3.826658	聞き入れ	-0.1010728
-3.349536	聞こえ	-0.3351617
-3.826658	肉体	-0.09695884
-3.826658	肩	-0.1023463
-3.826658	背後	-0.11488
-3.826658	背負っ	-0.1026808
-3.826658	胴震い	-0.1023463
-3.349536	胸	-0.06708755
-3.349536	腕	-0.2272727
-3.826658	膝	-0.1023463
-3.826658	膨れ	-0.1167616
-3.826658	臣	-0.09695884
-3.826658	臣下	-0.09695884
-3.048506	自分	-0.3010868
-3.525628	自身	-0.08178905
-3.826658	舟	-0.09939148
-3.224598	花婿	-0.1781565
-3.349536	花嫁	-0.06388187
-3.349536	若い	-0.1112233
-3.525628	若い衆	-0.08430792
-3.826658	茫然	-0.1117476
-3.826658	草原	-0.1032823
-3.826658	荒い	-0.1166321
-3.525628	荒れ	-0.3462834
-3.826658	華やか	-0.1032823
-3.826658	萎え	-0.1010728
-3.525628	落ち	-0.3307241
-3.826658	落ち着い	-0.1010728
-3.826658	落とし	-0.1167616
-3.525628	葉	-0.09824444
-3.826658	蒸し暑い	-0.09695884
-3.826658	蒼白	-0.1106328
-3.826658	薄明	-0.09695884
-3.826658	虫	-0.1165673
-3.826658	血	-0.1105014
-3.826658	血液	-0.116373
-3.525628	行か	-0.3460243
-3.525628	行き	-0.07932606
-3.826658	行き着く	-0.1153999
-3.826658	行き着け	-0.1158543
-3.826658	行こ	-0.1155947
-3.826658	行っ	-0.1010728
-3.826658	行わ	-0.1155947
-3.525628	衣装	-0.1118131
-3.826658	裂けめ	-0.11488
-3.525628	裏切り者	-0.340284
-3.525628	裸体	-0.0959412
-3.826658	襲いかかり	-0.07939662
-3.826658	西	-0.1032823
-3.826658	覆い	-0.07939662
-3.525628	見	-0.102614
-3.826658	見え	-0.114099
-3.826658	見えすい	-0.1010728
-3.525628	見える	-0.3157694
-3.525628	見せ	-0.3307241
-3.826658	見せつけ	-0.1010728
-3.826658	見つけ	-0.1010728
-3.525628	見つめ	-0.3307241
-3.826658	見よ	-0.07939662
-3.525628	見る	-0.1110922
-3.826658	視線	-0.1023463
-3.224598	覚め	-0.2638524
-3.525628	覚悟	-0.1066087
-3.127688	言い	-0.07826619
-3.127688	言う	-0.177866
-3.826658	言え	-0.1164378
-3.826658	言える	-0.08611806
-3.349536	言っ	-0.225333
-3.826658	言わ	-0.1164378
-3.525628	訪ね	-0.3307241
-3.826658	訪れ	-0.1026808
-3.349536	許し	-0.3335537
-3.826658	許せ	-0.07939662
-3.826658	誇っ	-0.1010728
-3.826658	誇り	-0.1023463
-3.826658	誇る	-0.1166969
-3.826658	語っ	-0.1026808
-3.826658	語勢	-0.1023463
-3.525628	誠	-0.3266101
-3.826658	説き伏せ	-0.1026808
-3.525628	誰	-0.1056799
-3.826658	調え	-0.07939662
-3.826658	調べ	-0.1162434
-3.826658	警	-0.1166969
-3.826658	議論	-0.1023463
-3.525628	豪雨	-0.0959412
-3.525628	負け	-0.1002666
-3.525628	買い	-0.1032155
-3.826658	買い物	-0.1023463
-3.826658	買っ	-0.1010728
-3.826658	資格	-0.1166321
-3.826658	賢	-0.1167616
-3.224598	質問	-0.3278958
-3.826658	赤い	-0.1166969
-3.826658	赤く	-0.1166969
-3.525628	赤らめ	-0.08639588
-3.826658	赤面	-0.1128596
-2.826658	走っ	-0.4583777
-3.826658	走ら	-0.116373
-3.349536	走り	-0.2548563
-2.826658	走る	-0.3473228
-3.826658	走れ	-0.1163082
-3.826658	走れる	-0.115984
-3.525628	起き	-0.06219674
-3.826658	起き上がっ	-0.1010728
-3.826658	起こっ	-0.1026808
-3.826658	越え	-0.1167616
-3.826658	足	-0.09939148
-3.525628	足もと	-0.09689107
-3.826658	路傍	-0.09695884
-3.525628	跳ね	-0.1165674
-3.826658	踏ん	-0.1106328
-3.826658	蹴飛ばし	-0.07939662
-3.826658	躍り	-0.1166321
-3.826658	躍り出	-0.1026808
-3.525628	身	-0.1022794
-3.048506	身代わり	-0.3142698
-3.826658	身体	-0.1165673
-3.525628	身支度	-0.08430792
-3.826658	車軸	-0.1023463
-3.826658	輝い	-0.1010728
-3.826658	辺り	-0.1023463
-3.826658	迎える	-0.1153999
-3.826658	近	-0.09695884
-3.826658	近々	-0.07939662
-3.826658	近づき	-0.07939662
-3.826658	近寄り	-0.07939662
-3.826658	追い出す	-0.115984
-3.826658	逃がし	-0.1026808
-3.826658	逃げ	-0.1010728
-3.826658	途中	-0.1106328
-3.826658	速く	-0.1161785
-3.826658	遂行	-0.09695884
-3.826658	遅かっ	-0.1026808
-2.98156	遅れ	-0.846121
-3.826658	遊ん	-0.1106328
-3.826658	運命	-0.114099
-3.826658	過ぎ	-0.1010728
-3.525628	道	-0.0959412
-3.826658	道行く	-0.1146849
-3.826658	邪悪	-0.1167616
-3.525628	邪知	-0.1022794
-3.826658	都	-0.09695884
-3.525628	酒宴	-0.3266101
-3.826658	酔っ	-0.1010728
-3.826658	醜い	-0.1166969
-3.826658	里	-0.1167616
-3.826658	里程	-0.09695884
-3.826658	重ね	-0.1026808
-3.349536	野	-0.2272727
-3.826658	野原	-0.1106328
-3.826658	鎮め	-0.1167616
-3.826658	長い	-0.1166969
-3.826658	長く	-0.1157894
-3.826658	開始	-0.1128596
-3.048506	間	-0.07739609
-3.525628	間に合う	-0.04581479
-3.826658	間に合っ	-0.1026808
-3.525628	間に合わ	-0.344141
-3.826658	間近	-0.114099
-3.826658	闘争	-0.1023463
-3.826658	降っ	-0.1010728
-3.349536	降り	-0.08611805
-3.826658	限り	-0.1032823
-3.826658	除か	-0.116373
-3.826658	陽気	-0.1032823
-3.826658	隅	-0.1032823
-3.826658	隊	-0.09695884
-3.826658	隙	-0.1032823
-3.826658	隣村	-0.1032823
-3.826658	集まり	-0.07939662
-3.826658	集め	-0.07939662
-3.826658	離れ	-0.1026808
-3.224598	雨	-0.267254
-3.826658	雨中	-0.07939662
-3.826658	雲	-0.1023463
-3.349536	静か	-0.3357631
-3.826658	面前	-0.1106328
-3.826658	韋	-0.1167616
-3.349536	音	-0.2491757
-3.826658	響き	-0.1023463
-3.048506	頃	-0.1765175
-3.826658	頑強	-0.1106328
-3.127688	頬	-1.904349
-3.525628	頭	-0.08430792
-3.826658	頼む	-0.07939662
-3.525628	頼ん	-0.340284
-3.826658	額	-0.09695884
-3.224598	顔	-0.1798508
-3.525628	願い	-0.3319976
-3.826658	願っ	-0.1026808
-3.349536	風	-0.09675549
-3.525628	飛ばし	-0.06219674
-3.826658	飛び越え	-0.07939662
-3.826658	飛び込み	-0.07939662
-3.826658	飛鳥	-0.09695884
-3.826658	飲ん	-0.1106328
-3.826658	飾り	-0.07939662
-3.826658	首	-0.1023463
-3.826658	馬	-0.09695884
-3.826658	駄	-0.1166969
-3.525628	駆け	-0.3462834
-3.826658	駆け抜け	-0.07939662
-3.826658	騒ぎ	-0.1105014
-3.525628	驚い	-0.3323321
-3.826658	驚き	-0.07939662
-3.826658	高々	-0.1117476
-3.224598	高く	-0.2065608
-3.826658	鳴り響く	-0.1165673
-3.826658	黒い	-0.1166321
-3.826658	黒雲	-0.1105014
-3.826658	黙れ	-0.08611806

\2-grams:
-3.293866	<s> ―
-1.52039	<s> ああ
-3.293866	<s> あきれ
-3.293866	<s> あちこち
-3.293866	<s> あっぱれ
-3.293866	<s> あなた
-3.293866	<s> あの
-2.625379	<s> ありがたい
-2.625379	<s> ありがとう
-2.625379	<s> あれ
-3.293866	<s> いいえ
-2.446983	<s> いや
-3.293866	<s> うぬぼれ
-3.293866	<s> うめく
-3.293866	<s> うれしい
-3.293866	<s> えい
-3.293866	<s> お
-1.587337	<s> おまえ
-3.293866	<s> おめでとう
-2.069851	<s> きみ
-3.293866	<s> きれい
-2.446983	<s> けれども
-2.069851	<s> この
-3.293866	<s> これ
-3.293866	<s> ご
-3.293866	<s> さあ
-3.293866	<s> さて
-3.293866	<s> さては
-3.293866	<s> さらば
-3.293866	<s> しかた
-3.293866	<s> しばらく
-3.293866	<s> すぐ
-3.293866	<s> すでに
-3.293866	<s> ずんずん
-3.293866	<s> ぜ
-2.446983	<s> そう
-2.218657	<s> そうして
-3.293866	<s> そっと
-1.666518	<s> その
-2.218657	<s> それ
-1.972815	<s> それから
-3.293866	<s> それでは
-2.625379	<s> そんなに
-3.293866	<s> たくさん
-2.625379	<s> ただ
-3.293866	<s> たちまち
-3.293866	<s> たった
-3.293866	<s> だらし
-3.293866	<s> ちょうど
-2.625379	<s> ちょっと
-3.293866	<s> つい
-2.446983	<s> と
-3.293866	<s> とんでもない
-2.218657	<s> どう
-3.293866	<s> どうせ
-3.293866	<s> どっこい
-3.293866	<s> どっと
-3.293866	<s> なかなか
-3.293866	<s> なぜ
-2.625379	<s> なに
-2.625379	<s> なん
-3.293866	<s> のんき
-3.293866	<s> は
-3.293866	<s> はい
-3.293866	<s> はるか
-3.293866	<s> ばか
-3.293866	<s> ひっそり
-3.293866	<s> ひょっとしたら
-3.293866	<s> ふと
-3.293866	<s> ぶらぶら
-3.293866	<s> ほう
-3.293866	<s> ほんの
-3.293866	<s> まず
-3.293866	<s> また
-3.293866	<s> まだ
-3.293866	<s> まっすぐ
-3.293866	<s> まま
-1.972815	<s> もう
-3.293866	<s> もの
-3.293866	<s> や
-3.293866	<s> やはり
-3.293866	<s> やめ
-3.293866	<s> ゆっくり
-3.293866	<s> よき
-3.293866	<s> よくも
-3.293866	<s> よろめい
-3.293866	<s> よろよろ
-3.293866	<s> わが身
-2.625379	<s> わし
-1.712276	<s> セリヌンティウス
-3.293866	<s> フィロストラトス
-1.013305	<s> メロス
-2.625379	<s> 一
-3.293866	<s> 一刻
-3.293866	<s> 一団
-3.293866	<s> 一気に
-3.293866	<s> 万
-2.625379	<s> 三
-3.293866	<s> 世の中
-3.293866	<s> 中途
-3.293866	<s> 久しく
-3.293866	<s> 二
-3.293866	<s> 五臓
-3.293866	<s> 亭主
-2.069851	<s> 人
-3.293866	<s> 人間
-2.069851	<s> 今
-3.293866	<s> 今宵
-3.293866	<s> 今度
-2.446983	<s> 今日
-3.293866	<s> 今頃
-3.293866	<s> 他
-3.293866	<s> 何
-2.446983	<s> 信じ
-3.293866	<s> 信実
-3.293866	<s> 先刻
-3.293866	<s> 全部
-3.293866	<s> 再び
-3.293866	<s> 刑場
-3.293866	<s> 初夏
-3.293866	<s> 力いっぱい
-3.293866	<s> 勇者
-3.293866	<s> 動け
-3.293866	<s> 十
-2.625379	<s> 友
-3.293866	<s> 口
-3.293866	<s> 同じ
-3.293866	<s> 呼吸
-3.293866	<s> 命
-3.293866	<s> 命乞い
-3.293866	<s> 国王
-3.293866	<s> 地上
-3.293866	<s> 塔
-3.293866	<s> 夜明け
-3.293866	<s> 大切
-3.293866	<s> 天
-3.293866	<s> 太陽
-3.293866	<s> 女房
-2.218657	<s> 妹
-2.625379	<s> 婿
-2.625379	<s> 少し
-2.625379	<s> 山賊
-3.293866	<s> 帰っ
-3.293866	<s> 幾度
-2.625379	<s> 彼
-3.293866	<s> 待っ
-2.625379	<s> 待て
-3.293866	<s> 必ず
-3.293866	<s> 忘れ
-3.293866	<s> 急げ
-3.293866	<s> 悪い
-3.293866	<s> 悪心
-2.625379	<s> 愛
-3.293866	<s> 愛する
-3.293866	<s> 押し流さ
-3.293866	<s> 持ち物
-3.293866	<s> 支度
-3.293866	<s> 放せ
-3.293866	<s> 放っ
-3.293866	<s> 斜陽
-3.293866	<s> 新郎
-2.625379	<s> 日
-3.293866	<s> 日没
-3.293866	<s> 早い
-3.293866	<s> 早く
-2.625379	<s> 明日
-3.293866	<s> 昨日
-2.446983	<s> 暴君
-3.293866	<s> 最後
-2.625379	<s> 村
-3.293866	<s> 正直
-3.293866	<s> 正義
-3.293866	<s> 歩い
-3.293866	<s> 歩ける
-3.293866	<s> 死ん
-3.293866	<s> 殴っ
-3.293866	<s> 殴れ
-3.293866	<s> 殺さ
-3.293866	<s> 気の毒
-3.293866	<s> 水
-3.293866	<s> 波
-3.293866	<s> 泳ぎ
-3.293866	<s> 流れ
-3.293866	<s> 満身
-2.625379	<s> 濁流
-3.293866	<s> 無駄
-1.972815	<s> 王
-2.625379	<s> 王様
-3.293866	<s> 生かし
-3.293866	<s> 生まれ
-3.293866	<s> 生意気
-2.625379	<s> 町
-3.293866	<s> 疑う
-2.446983	<s> 目
-3.293866	<s> 真
-2.625379	<s> 祝宴
-3.293866	<s> 神
-1.086734	<s> 私
-3.293866	<s> 立ち上がる
-3.293866	<s> 竹馬
-3.293866	<s> 笑っ
-3.293866	<s> 笛
-2.625379	<s> 約束
-2.446983	<s> 結婚式
-3.293866	<s> 罪
-3.293866	<s> 羊
-2.625379	<s> 群衆
-3.293866	<s> 義務
-2.625379	<s> 老爺
-3.293866	<s> 聞い
-3.293866	<s> 肉体
-3.293866	<s> 自分
-3.293866	<s> 花婿
-3.293866	<s> 花嫁
-2.625379	<s> 若い
-3.293866	<s> 若い衆
-3.293866	<s> 行こ
-3.293866	<s> 見える
-3.293866	<s> 見よ
-2.625379	<s> 言う
-3.293866	<s> 言え
-3.293866	<s> 許せ
-3.293866	<s> 誰
-3.293866	<s> 調べ
-3.293866	<s> 買い物
-3.293866	<s> 走ら
-2.218657	<s> 走る
-3.293866	<s> 走れ
-3.293866	<s> 路傍
-3.293866	<s> 身代わり
-3.293866	<s> 身体
-3.293866	<s> 身支度
-3.293866	<s> 逃がし
-2.446983	<s> 遅れ
-3.293866	<s> 道
-3.293866	<s> 道行く
-3.293866	<s> 野原
-3.293866	<s> 間に合う
-3.293866	<s> 間に合っ
-3.293866	<s> 雨
-3.293866	<s> 頼む
-3.293866	<s> 願い
-3.293866	<s> 風
-3.293866	<s> 驚い
-3.293866	<s> 黙れ
-0.560921	― ―
-1.229408	― と
-1.229408	― 四肢
-1.530438	　 ああ
-1.530438	　 フィロストラトス
-1.530438	　 メロス
-1.530438	　 時
-1.530438	　 殺さ
-1.530438	　 濁流
-0.861951	　 私
-2.049807	、 </s>
-3.370858	、 ―
-3.370858	、 あ
-3.370858	、 あおり
-3.370858	、 あて
-2.523975	、 あなた
-2.096294	、 あの
-3.370858	、 あれ
-3.370858	、 いい
-3.370858	、 いきり立っ
-3.370858	、 いちばん
-3.370858	、 いつ
-3.370858	、 いや
-3.370858	、 うそ
-3.370858	、 うとうと
-3.370858	、 うるさく
-3.370858	、 うんと
-3.370858	、 えい
-3.370858	、 お
-2.096294	、 おまえ
-3.370858	、 おり
-3.370858	、 お互い
-3.370858	、 かき分け
-3.370858	、 かじりつい
-3.370858	、 かすれ
-3.370858	、 かっと
-3.370858	、 かの
-3.370858	、 が
-3.370858	、 きい
-2.523975	、 きっと
-2.702371	、 きみ
-3.370858	、 くだらない
-2.702371	、 けれども
-3.370858	、 こう
-2.096294	、 ここ
-3.370858	、 こちら
-3.370858	、 こっ
-2.523975	、 この
-3.370858	、 この世
-2.295649	、 これ
-2.523975	、 これから
-3.370858	、 ご
-3.370858	、 さすが
-3.370858	、 さっさと
-3.370858	、 さっと
-3.370858	、 さんざん
-3.370858	、 ざ
-3.370858	、 しばらく
-3.370858	、 しわがれ
-3.370858	、 じだんだ
-3.370858	、 すかし
-3.370858	、 すがりつく
-2.523975	、 すぐ
-3.370858	、 するりと
-2.523975	、 そう
-3.370858	、 そっと
-2.096294	、 その
-1.74351	、 それ
-2.702371	、 それから
-3.370858	、 それでも
-2.702371	、 そろそろ
-3.370858	、 ただ
-3.370858	、 たちまち
-2.702371	、 たった
-3.370858	、 たぶん
-3.370858	、 たまらない
-3.370858	、 たまらなく
-3.370858	、 だめ
-3.370858	、 だんだん
-3.370858	、 ちゃんと
-2.702371	、 ちょっと
-3.370858	、 ちら
-2.295649	、 ついに
-3.370858	、 つらかっ
-3.370858	、 つり上げ
-3.370858	、 てれ
-3.370858	、 でき
-3.370858	、 できる
-1.597382	、 と
-2.523975	、 どう
-3.370858	、 どうか
-3.370858	、 どうどう
-3.370858	、 どうにか
-3.370858	、 どよめい
-2.702371	、 どんな
-3.370858	、 など
-3.370858	、 なに
-2.702371	、 なにか
-3.370858	、 なにもかも
-3.370858	、 なら
-2.702371	、 なん
-2.702371	、 なんだか
-3.370858	、 のそのそ
-3.370858	、 はたと
-2.702371	、 はりつけ
-3.370858	、 はるばる
-3.370858	、 ばかばかしい
-3.370858	、 ひしと
-3.370858	、 ひと口
-3.370858	、 ひどく
-3.370858	、 ふい
-3.370858	、 ふるさと
-3.370858	、 ぶどう
-3.370858	、 ぶる
-2.702371	、 ほっと
-3.370858	、 ほとんど
-3.370858	、 ほどか
-3.370858	、 ぽつりぽつり
-3.370858	、 まごつい
-3.370858	、 まさか
-3.370858	、 まさしく
-3.370858	、 まさに
-3.370858	、 まじまじ
-3.370858	、 ますます
-2.702371	、 また
-2.295649	、 まだ
-3.370858	、 まだまだ
-3.370858	、 まどろん
-3.370858	、 まもなく
-3.370858	、 みごと
-2.702371	、 みじん
-3.370858	、 むんむん
-3.370858	、 めいめい
-2.295649	、 もう
-3.370858	、 もっと
-3.370858	、 もともと
-3.370858	、 もの
-2.702371	、 もはや
-2.523975	、 やがて
-3.370858	、 やけに
-3.370858	、 やっと
-3.370858	、 やはり
-2.702371	、 やめ
-3.370858	、 ゆらゆら
-3.370858	、 よき
-3.370858	、 よくよく
-3.370858	、 よろしい
-2.702371	、 よろよろ
-3.370858	、 わかっ
-3.370858	、 わが身
-3.370858	、 わけ
-2.146843	、 わし
-3.370858	、 シ
-2.702371	、 セリヌンティウス
-3.370858	、 ゼウス
-1.488237	、 メロス
-3.370858	、 一
-3.370858	、 一生
-3.370858	、 一睡
-2.146843	、 三
-3.370858	、 不吉
-3.370858	、 不名誉
-3.370858	、 乱心
-2.523975	、 二
-3.370858	、 亭主
-2.295649	、 人
-3.370858	、 人々
-3.370858	、 人一倍
-2.702371	、 人質
-1.789267	、 今
-3.370858	、 今宵
-3.370858	、 今度
-3.370858	、 今日
-3.370858	、 体
-2.523975	、 何
-3.370858	、 信じ
-3.370858	、 信ずる
-3.370858	、 信実
-3.370858	、 信頼
-2.702371	、 僅か
-3.370858	、 先刻
-3.370858	、 全て
-3.370858	、 全身
-3.370858	、 六
-3.370858	、 内気
-3.370858	、 処刑
-3.370858	、 刑
-3.370858	、 刑場
-2.702371	、 初め
-3.370858	、 初めて
-3.370858	、 刻
-3.370858	、 刻み込ま
-3.370858	、 前方
-3.370858	、 勇者
-3.370858	、 勝手
-2.702371	、 十
-3.370858	、 南無
-3.370858	、 単純
-2.702371	、 友
-3.370858	、 口
-3.370858	、 名誉
-3.370858	、 呼吸
-3.370858	、 命
-3.370858	、 問題
-3.370858	、 喉
-3.370858	、 声
-3.370858	、 夕日
-3.370858	、 外
-2.523975	、 夜
-3.370858	、 夢
-3.370858	、 夢見心地
-3.370858	、 好き
-2.523975	、 妹
-3.370858	、 宝
-3.370858	、 宴席
-3.370858	、 家
-3.370858	、 寝
-3.370858	、 対岸
-3.370858	、 小川
-2.702371	、 少し
-3.370858	、 少しく
-3.370858	、 山賊
-3.370858	、 岩
-3.370858	、 巡邏
-3.370858	、 巻き
-3.370858	、 希代
-3.370858	、 帰っ
-3.370858	、 平和
-3.370858	、 平気
-3.370858	、 幾分
-3.370858	、 強い
-2.702371	、 待っ
-3.370858	、 待つ
-3.370858	、 徐々に
-3.370858	、 心
-3.370858	、 必ず
-3.370858	、 必死
-3.370858	、 息
-3.370858	、 悔し泣き
-3.370858	、 悠々
-3.370858	、 悪い
-3.370858	、 悪徳
-3.370858	、 悪心
-3.370858	、 愛
-3.370858	、 憫笑
-3.370858	、 手
-3.370858	、 押し寄せ
-3.370858	、 放し
-2.523975	、 日
-3.370858	、 早かっ
-3.370858	、 明くる日
-3.370858	、 明日
-3.370858	、 暗い
-3.370858	、 最も
-3.370858	、 木々
-3.370858	、 本当に
-2.295649	、 村
-3.370858	、 村人
-3.370858	、 森
-3.370858	、 欺か
-3.370858	、 歓喜
-3.370858	、 歓声
-3.370858	、 歔欷
-3.370858	、 止まっ
-3.370858	、 正当
-3.370858	、 正直
-3.370858	、 正義
-3.370858	、 死ぬ
-3.370858	、 死ん
-3.370858	、 残る
-3.370858	、 残虐
-2.702371	、 殺さ
-3.370858	、 母
-3.370858	、 民
-3.370858	、 気
-2.702371	、 水
-2.702371	、 永遠
-2.702371	、 決して
-3.370858	、 泣い
-3.370858	、 海
-3.370858	、 消えよ
-3.370858	、 深夜
-3.370858	、 渡し守
-3.370858	、 満天
-3.370858	、 満面
-3.370858	、 潺
-2.523975	、 濁流
-3.370858	、 無駄
-3.370858	、 犬
-3.370858	、 独りよがり
-3.370858	、 独り合点
-3.370858	、 狭い
-3.370858	、 猛
-3.370858	、 獅子奮迅
-2.295649	、 王
-2.702371	、 王城
-3.370858	、 王様
-3.370858	、 男泣き
-2.295649	、 町
-3.370858	、 疲れ
-3.370858	、 疲労
-3.370858	、 登り
-3.370858	、 百
-3.370858	、 皆
-3.370858	、 皇后
-3.370858	、 目
-3.370858	、 眉間
-3.370858	、 真っ裸
-3.370858	、 真昼
-3.370858	、 真紅
-3.370858	、 矢
-3.370858	、 知っ
-3.370858	、 石工
-3.370858	、 祝宴
-2.523975	、 神
-1.513061	、 私
-3.370858	、 空っぽ
-3.370858	、 突然
-3.370858	、 立ちすくん
-3.370858	、 立ち止まり
-3.370858	、 精
-3.370858	、 精神
-3.370858	、 約束
-3.370858	、 結婚式
-3.370858	、 緋
-2.702371	、 縄
-3.370858	、 繋
-2.702371	、 羊
-2.702371	、 群衆
-3.370858	、 考え
-3.370858	、 背負っ
-3.370858	、 膨れ
-3.370858	、 臣下
-2.702371	、 自分
-2.702371	、 花婿
-3.370858	、 花嫁
-3.370858	、 荒れ
-3.370858	、 葉
-3.370858	、 見る
-3.370858	、 訪ね
-3.370858	、 許し
-3.370858	、 語勢
-3.370858	、 説き伏せ
-3.370858	、 誰
-3.370858	、 賢
-3.370858	、 赤く
-3.370858	、 走る
-3.370858	、 跳ね
-3.370858	、 身代わり
-3.370858	、 辺り
-3.370858	、 近々
-3.370858	、 途中
-2.702371	、 遅れ
-3.370858	、 酒宴
-3.370858	、 醜い
-2.702371	、 野
-3.370858	、 鎮め
-2.702371	、 間に合わ
-3.370858	、 降っ
-3.370858	、 陽気
-3.370858	、 隣村
-2.702371	、 雨
-3.370858	、 雨中
-3.370858	、 静か
-3.370858	、 顔
-3.370858	、 風
-3.370858	、 飛鳥
-3.370858	、 首
-3.370858	、 騒ぎ
-3.370858	、 黒雲
-0.0009472076	。 </s>
-1.326318	々 、
-1.326318	々 と
-1.326318	々 の
-1.326318	々 へ
-1.326318	々 も
-0.627348	あ 、
-0.02802872	ああ 、
-0.627348	あおり 立て
-0.627348	あがり 、
-0.627348	あきれ た
-0.627348	あげ て
-0.627348	あげよ う
-0.627348	あげる 激流
-0.627348	あたりまえ だ
-0.627348	あちこち と
-0.03778856	あっ た
-0.627348	あっぱれ 。
-0.627348	あて に
-1.229408	あなた の
-0.560921	あなた は
-1.229408	あなた を
-0.5521389	あの かた
-1.627348	あの よい
-1.627348	あの 友人
-1.627348	あの 悪魔
-1.627348	あの 王
-1.627348	あの 男
-1.627348	あの 約束
-0.928378	ありがたい 　
-0.928378	ありがたい 。
-0.259891	ありがとう 、
-0.1312789	ある 。
-1.989076	ある から
-0.9138667	ある の
-1.989076	ある 律儀
-1.229408	あれ 　
-1.229408	あれ が
-1.229408	あれ は
-1.229408	あれ を
-0.627348	あん な
-1.906102	い ぜ
-0.2787536	い た
-1.906102	い たい
-1.906102	い たかっ
-1.237615	い ない
-1.906102	い なく
-1.906102	い まし
-1.906102	い ます
-1.906102	い 荒い
-0.3941768	いい 。
-1.668741	いい こと
-1.668741	いい という
-1.668741	いい の
-1.668741	いい 声
-0.627348	いいえ 、
-0.2575866	いう の
-0.627348	いえ ども
-0.928378	いき たい
-0.928378	いき ます
-0.627348	いきり立っ て
-1.104469	いく 。
-1.104469	いく だろ
-1.104469	いく の
-0.928378	いけ 。
-0.928378	いけ ない
-0.627348	いこ う
-0.928378	いちばん 嫌い
-0.928378	いちばん 誇る
-0.928378	いっ た
-0.928378	いっ て
-0.627348	いっそ 、
-0.627348	いっぱい に
-0.627348	いつ でも
-0.627348	いも 虫
-0.1541989	いや 、
-0.627348	いよ う
-0.928378	いよいよ 、
-0.928378	いよいよ 乱れ
-2.19555	いる 、
-0.4890205	いる 。
-2.19555	いる うち
-2.19555	いる から
-2.19555	いる が
-2.19555	いる この
-2.19555	いる ぞ
-1.527063	いる だろ
-2.19555	いる と
-2.19555	いる とき
-2.19555	いる ね
-0.874499	いる の
-2.19555	いる のに
-2.19555	いる よ
-1.527063	いる らしい
-1.527063	いる 人
-1.527063	いる 様子
-2.19555	いる 者
-0.627348	いろ 。
-1.237615	う 、
-0.1995724	う 。
-1.906102	う か
-1.906102	う ぞ
-1.059219	う と
-0.627348	うえ 、
-0.627348	うずくまり 、
-1.104469	うそ つき
-0.4359823	うそ を
-0.627348	うた 。
-0.1541989	うち に
-0.627348	うと う
-0.627348	うとうと 、
-0.627348	うなずい た
-0.259891	うなずき 、
-0.627348	うなり を
-0.627348	うぬぼれ て
-0.627348	うめく よう
-0.627348	うるさく 兄
-0.627348	うれしい か
-0.627348	うれし泣き に
-0.928378	うんと 見せつけ
-0.928378	うんと 走る
-0.928378	えい 、
-0.928378	えい と
-1.472446	お 世継ぎ
-1.472446	お 助け
-1.472446	お 友達
-1.472446	お 命
-1.472446	お 恨み
-1.472446	お 疑い
-1.472446	お 目
-0.627348	おい て
-0.627348	おいおい 声
-0.627348	おけ ぬ
-0.627348	おっしゃる 。
-1.928378	おまえ が
-1.928378	おまえ たち
-1.928378	おまえ だって
-1.081495	おまえ に
-0.7043632	おまえ の
-1.259891	おまえ は
-1.259891	おまえ も
-1.081495	おまえ ら
-1.928378	おまえ を
-0.627348	おめでとう 。
-0.627348	おもしろい 。
-0.928378	おら れ
-0.928378	おら れる
-1.229408	おり から
-1.229408	おり まし
-1.229408	おり ます
-1.229408	おり ませ
-0.627348	おわび 、
-0.928378	お互い さま
-0.928378	お互い 胸
-0.627348	お子様 を
-1.989076	か 　
-0.765061	か 、
-0.2825466	か 。
-1.989076	か あっ
-1.989076	か な
-1.989076	か は
-1.989076	か 王
-0.627348	かかっ て
-0.627348	かがめ た
-0.3825253	かき分け 、
-1.229408	かき分け かき分け
-0.657831	かけ たい
-0.657831	かけ て
-1.326318	かけ られ
-0.627348	かじりつい た
-0.627348	かすか に
-0.627348	かすれ た
-1.229408	かた が
-1.229408	かた は
-0.560921	かた を
-0.627348	かたまり さ
-0.627348	かっと 照っ
-0.627348	かなっ た
-0.627348	かなわ ぬ
-0.627348	かの 邪知
-0.627348	かも しれ
-0.5740313	から 、
-2.104469	から うれし泣き
-2.104469	から な
-2.104469	から は
-1.435982	から も
-2.104469	から 二
-2.104469	から 何
-2.104469	から 信じ
-2.104469	から 優しく
-2.104469	から 午後
-2.104469	から 名誉
-2.104469	から 救う
-2.104469	から 正直
-2.104469	から 滾
-2.104469	から 立ち去り
-2.104469	から 花婿
-2.104469	から 血
-2.104469	から 行っ
-2.104469	から 覚め
-2.104469	から 走る
-2.104469	から 追い出す
-2.104469	から 都
-0.627348	からかっ て
-0.627348	かわいい 娘
-0.6645525	が 、
-2.61412	が 。
-2.61412	が あっ
-1.083682	が ある
-1.945633	が い
-1.293069	が いい
-2.61412	が か
-2.61412	が かすか
-2.61412	が くり
-2.61412	が し
-2.61412	が すん
-2.61412	が つぶれ
-1.538911	が でき
-2.61412	が できる
-2.61412	が ない
-2.61412	が まとも
-2.61412	が もし
-1.538911	が よい
-2.61412	が よかろ
-1.945633	が わから
-2.61412	が 人間
-1.945633	が 出
-2.61412	が 嘲笑
-2.61412	が 噴き
-2.61412	が 大きく
-1.945633	が 大事
-1.945633	が 帰っ
-2.61412	が 平和
-2.61412	が 楽しみ
-2.61412	が 欲しい
-2.61412	が 歌
-2.61412	が 正義
-2.61412	が 死刑
-2.61412	が 沈む
-2.61412	が 沈ん
-2.61412	が 流れ
-2.61412	が 湧き出
-2.61412	が 狂っ
-2.61412	が 生きる
-2.61412	が 生まれ
-2.61412	が 疲れ
-2.61412	が 私
-2.61412	が 空
-1.945633	が 聞こえ
-2.61412	が 見えすい
-2.61412	が 見える
-1.767237	が 覚め
-2.61412	が 起こっ
-2.61412	が 躍り出
-2.61412	が 逃げ
-2.61412	が 降り
-2.61412	が 高々
-0.627348	がら ゼウス
-0.06694679	き た
-1.773476	き て
-1.773476	き ます
-0.627348	きい た
-0.627348	きかせ て
-0.259891	きっ て
-1.104469	きっと よい
-1.104469	きっと 殺す
-1.104469	きっと 笑わ
-1.072804	きみ が
-1.741291	きみ だけ
-0.8944086	きみ と
-0.8944086	きみ は
-0.6660823	きみ を
-0.627348	きらきら 光っ
-0.627348	きり 、
-0.627348	きる より
-0.627348	きれい な
-0.627348	くぐり抜け 、
-0.05115252	ください 。
-0.627348	くだらない 。
-0.928378	くらい の
-0.928378	くらい 音
-0.627348	くり と
-1.229408	くる が
-1.229408	くる と
-1.229408	くる の
-1.229408	くる 兄
-1.104469	くるう 。
-1.104469	くるう 波
-1.104469	くるう 流れ
-1.906102	くれ 　
-1.059219	くれ 、
-0.5850509	くれ 。
-0.8308925	くれ た
-1.237615	くれ て
-1.906102	くれ ない
-1.906102	くれ なかっ
-1.906102	くれ なけれ
-1.906102	くれ まい
-0.928378	くれる と
-0.928378	くれる に
-0.627348	ぐずぐず とどまっ
-0.657831	けれども 、
-1.326318	けれども 威厳
-1.326318	けれども 私
-1.326318	けれども 邪悪
-0.928378	こ ない
-0.928378	こ なかっ
-1.326318	こい 　
-1.326318	こい 、
-0.4794353	こい 。
-0.928378	こう だ
-0.928378	こう 言っ
-0.627348	こうむっ て
-0.958861	ここ で
-0.5521389	ここ に
-1.627348	ここ へ
-0.7804653	ここ まで
-0.928378	こそ 発揮
-0.928378	こそ 知らせ
-0.627348	こちら に
-0.627348	こっ ぱ
-0.64872	こと が
-1.301284	こと だ
-1.301284	こと で
-1.969771	こと と
-1.969771	こと なら
-1.969771	こと に
-0.7457559	こと は
-1.969771	こと も
-1.122888	こと を
-1.831468	この うえ
-1.831468	この うそ
-1.831468	この かわいい
-1.831468	この まま
-1.831468	この よい
-1.162981	この シ
-1.831468	この 三
-1.831468	この 大事
-1.831468	この 妹
-1.831468	この 家
-1.831468	この 心臓
-1.162981	この 町
-1.831468	この 短刀
-1.831468	この 頃
-0.627348	この世 で
-0.627348	こめ て
-0.627348	こらえ 、
-1.326318	これ から
-1.326318	これ が
-1.326318	これ だ
-1.326318	これ で
-1.326318	これ ほど
-1.104469	これから すぐ
-1.104469	これから 王
-1.104469	これから 訪ね
-0.627348	これしき と
-0.627348	こんなに 走っ
-1.229408	ご とく
-1.229408	ご 命令
-1.229408	ご 自分
-1.229408	ご 自身
-1.405499	ござい まし
-0.3302901	ござい ます
-1.405499	ござい ませ
-0.627348	ごちそう や
-1.104469	ごとく 刑場
-1.104469	ごとく 走り
-1.104469	ごとく 身
-0.627348	ごろりと 寝転がっ
-0.6835553	さ 。
-1.530438	さ せ
-0.6835553	さ れ
-1.530438	さ を
-0.627348	さあ 、
-1.104469	さえ ない
-1.104469	さえ 忘れ
-1.104469	さえ 疑っ
-0.627348	さける 思い
-0.627348	ささげ た
-0.928378	ささやき ながら
-0.928378	ささやき は
-0.627348	さすが に
-0.627348	させ 、
-0.627348	さっさと 走っ
-0.928378	さっと すれ違っ
-0.928378	さっと 顔
-0.627348	さて 、
-0.627348	さては 、
-0.928378	さま さ
-0.928378	さま を
-0.627348	さらに 押し
-0.627348	さらば 、
-0.627348	さらわ れ
-0.627348	さん は
-0.627348	さんざん あの
-0.627348	ざ ん
-1.337469	し 、
-0.3873898	し た
-0.3539661	し て
-1.565795	し ない
-2.412678	し ながら
-2.412678	し なく
-0.627348	しかた の
-0.928378	しばらく は
-0.928378	しばらく 歩い
-0.627348	しまえ 。
-0.2511089	しまっ た
-1.326318	しまっ て
-0.627348	しまわ ぬ
-0.627348	しよ う
-0.627348	しれ ない
-0.627348	しわ は
-0.259891	しわがれ た
-0.627348	じだんだ 踏ん
-0.928378	じゃ 。
-0.928378	じゃ ない
-0.627348	すかし て
-0.627348	すがりつく こと
-0.627348	すくっ て
-1.530438	すぐ 、
-0.2093873	すぐ に
-1.530438	すぐ 町
-1.530438	すぐ 足もと
-0.627348	すごし た
-1.326318	すでに はりつけ
-1.326318	すでに 日
-1.326318	すでに 真昼
-1.326318	すでに 西
-1.326318	すでに 高く
-1.326318	する が
-1.326318	する だろ
-1.326318	する つもり
-1.326318	する の
-1.326318	する 資格
-0.627348	するりと 抜け
-0.259891	すれ ば
-0.627348	すれ違っ た
-0.627348	すん だ
-0.7370123	ず 、
-1.405499	ず に
-1.405499	ず 一斉
-1.405499	ず 十里
-1.405499	ず 波
-0.928378	ずつ 差し出す
-0.928378	ずつ 沈ん
-0.627348	ずんずん 沈む
-1.530438	せ 、
-1.530438	せ ず
-0.2093873	せ て
-1.530438	せ ぬ
-0.627348	せい ばかり
-0.627348	せせら笑う ご
-0.259891	ぜ い
-0.627348	ぜひとも 、
-0.3972369	そう し
-1.472446	そう です
-1.472446	そう なっ
-1.472446	そう に
-0.3825253	そうして 、
-1.229408	そうして 身代わり
-0.928378	そっと ほくそ笑ん
-0.928378	そっと 頭
-1.28108	その 、
-1.949567	その マント
-1.949567	その 一事
-1.949567	その 人
-1.949567	その 友
-1.949567	その 品々
-1.949567	その 夜
-1.949567	その 宴席
-1.949567	その 棍棒
-1.949567	その 泉
-1.949567	その 王
-1.102685	その 男
-1.949567	その 若い
-1.949567	その 誇り
-1.102685	その 身代わり
-1.949567	その 頃
-0.9565566	それ から
-1.803439	それ が
-1.803439	それ だ
-1.803439	それ だけ
-1.134952	それ で
-1.134952	それ は
-1.803439	それ も
-1.803439	それ ゆえ
-0.9565566	それ を
-0.2484312	それから 、
-1.472446	それから すぐ
-0.627348	それでは 、
-0.627348	それでも 、
-0.928378	そろそろ 全
-0.928378	そろそろ 暑く
-0.627348	そん な
-0.928378	そんなに 急ぐ
-0.928378	そんなに 私
-1.530438	ぞ 、
-0.255874	ぞ 。
-0.1832193	た 。
-1.638736	た か
-2.959786	た から
-1.735772	た が
-2.291299	た こと
-2.959786	た この
-2.959786	た ぞ
-2.959786	た って
-2.959786	た で
-1.884577	た とき
-2.959786	た なら
-0.9522272	た の
-2.959786	た はず
-2.291299	た ばかり
-2.959786	た ふり
-2.959786	た まえ
-2.959786	た まま
-2.959786	た もう
-2.291299	た よう
-2.959786	た セリヌンティウス
-2.959786	た メロス
-2.112904	た 声
-2.959786	た 小鳥
-2.959786	た 打ち
-2.959786	た 村人
-2.959786	た 根性
-2.959786	た 様子
-2.959786	た 災難
-2.959786	た 王
-2.959786	た 瞬間
-2.959786	た 私
-2.959786	た 若い衆
-2.959786	た 運命
-2.291299	た 頃
-1.581591	たい 、
-0.7347078	たい 。
-1.581591	たい つもり
-1.581591	たい と
-0.9131035	たい の
-1.581591	たい もの
-0.627348	たかっ た
-0.627348	たく なく
-0.627348	たくさん の
-0.627348	たたい て
-0.627348	たたえ 、
-0.3825253	ただ 、
-1.229408	ただ その
-1.627348	たち だ
-1.627348	たち と
-0.958861	たち に
-0.3062973	たち は
-1.627348	たち を
-0.928378	たちまち 、
-0.928378	たちまち 彼
-0.4359823	たった 一
-1.104469	たった 一つ
-0.627348	たて て
-0.627348	たぶん 偉い
-0.627348	たまえ 、
-0.627348	たまらない 。
-0.627348	たまらなく 悔しい
-1.581591	ため か
-1.581591	ため だ
-0.3575757	ため に
-1.581591	ため の
-0.627348	ためらい 、
-0.928378	ため息 が
-0.928378	ため息 を
-0.05115252	たら 、
-2.605072	だ 、
-0.1203911	だ 。
-1.330508	だ から
-1.284021	だ が
-2.605072	だ ぞ
-2.605072	だ つもり
-1.758189	だ と
-2.605072	だ な
-2.605072	だ よ
-1.936585	だ よう
-2.605072	だ 頃
-0.259891	だいじょうぶ 、
-1.472446	だけ 、
-0.803959	だけ だ
-1.472446	だけ で
-1.472446	だけ は
-1.472446	だけ 答え
-1.472446	だけ 許し
-0.560921	だし 、
-0.560921	だし た
-0.928378	だっ た
-0.928378	だっ たら
-0.1541989	だって 、
-0.2575866	だの 、
-0.627348	だまさ れ
-0.627348	だめ で
-0.627348	だらし が
-0.1814844	だろ う
-0.627348	だんだん 不安
-0.627348	ちがい ない
-0.627348	ちゃんと 死
-0.627348	ちょうど 今
-1.326318	ちょっと でも
-1.326318	ちょっと ひと眠り
-1.326318	ちょっと 御免
-0.657831	ちょっと 遅れ
-0.627348	ちら と
-0.627348	って 聞か
-0.928378	つい た
-0.928378	つい て
-1.229408	ついに 、
-1.229408	ついに はりつけ
-1.229408	ついに 出発
-1.229408	ついに 憐愍
-0.627348	つき に
-0.627348	つく こと
-0.627348	つくっ て
-0.627348	つけ て
-0.627348	つつ も
-0.627348	つぶやき 、
-0.627348	つぶれ て
-0.657831	つもり で
-1.326318	つもり な
-1.326318	つもり なら
-1.326318	つもり は
-0.627348	つらい 。
-0.627348	つらかっ た
-0.259891	つり上げ られ
-0.7763379	て 、
-1.264455	て い
-2.337259	て いき
-2.158863	て いく
-3.005746	て いけ
-3.005746	て いこ
-3.005746	て いっ
-3.005746	て いよ
-3.005746	て いよいよ
-0.859884	て いる
-3.005746	て いろ
-3.005746	て おい
-3.005746	て おけ
-2.337259	て おら
-2.337259	て おり
-2.337259	て から
-1.23227	て き
-3.005746	て きらきら
-1.475308	て ください
-1.930537	て くる
-1.123125	て くれ
-2.337259	て くれる
-2.337259	て こ
-1.684695	て こい
-3.005746	て こと
-3.005746	て しまえ
-1.930537	て しまっ
-3.005746	て しわがれ
-3.005746	て すぐ
-3.005746	て つぶやき
-3.005746	て なら
-1.731182	て は
-3.005746	て はりつけ
-3.005746	て ほしい
-3.005746	て み
-3.005746	て みせる
-2.158863	て みる
-3.005746	て みれ
-2.158863	て も
-3.005746	て やっ
-2.158863	て やり
-1.781731	て やる
-2.158863	て やろ
-2.337259	て ゆく
-3.005746	て わい
-3.005746	て わび
-3.005746	て セリヌンティウス
-3.005746	て 一気に
-3.005746	て 二里
-3.005746	て 仕事
-3.005746	て 動け
-3.005746	て 反駁
-3.005746	て 叫ん
-3.005746	て 哀願
-3.005746	て 問いつめ
-3.005746	て 報い
-3.005746	て 峠
-3.005746	て 影
-3.005746	て 教え
-3.005746	て 時
-3.005746	て 最後
-3.005746	て 村人
-3.005746	て 歩い
-3.005746	て 死な
-3.005746	て 泣い
-3.005746	て 王
-3.005746	て 眠り
-3.005746	て 神
-3.005746	て 私
-3.005746	て 笑っ
-3.005746	て 答え
-3.005746	て 老爺
-3.005746	て 自分
-3.005746	て 自身
-3.005746	て 言っ
-2.337259	て 質問
-3.005746	て 走っ
-3.005746	て 走れる
-3.005746	て 頼ん
-3.005746	て 驚い
-0.627348	てれ て
-0.7736036	で 、
-1.023481	で あっ
-0.8637803	で ある
-2.605072	で い
-2.605072	で いちばん
-1.936585	で いる
-2.605072	で うなずい
-1.936585	で うなずき
-2.605072	で おわび
-2.605072	で ここ
-1.284021	で ござい
-2.605072	で しまっ
-2.605072	で しまわ
-2.605072	で すくっ
-1.936585	で ない
-0.9363309	で は
-1.529863	で も
-2.605072	で ゆく
-2.605072	で よい
-2.605072	で よかっ
-2.605072	で 一度
-2.605072	で 会っ
-2.605072	で 低く
-2.605072	で 何
-2.605072	で 倒れる
-2.605072	で 刑場
-2.605072	で 動い
-2.605072	で 山
-2.605072	で 払い
-2.605072	で 暮らし
-2.605072	で 最も
-2.605072	で 歌い
-2.605072	で 相
-2.605072	で 私
-2.605072	で 精いっぱい
-2.605072	で 結婚式
-2.605072	で 老爺
-2.605072	で 耳
-2.605072	で 言い
-2.605072	で 酒宴
-1.706529	でき ず
-0.8596466	でき た
-1.706529	でき て
-1.038042	でき ない
-1.706529	でき なかっ
-0.8596466	でき ぬ
-1.706529	でき ませ
-0.928378	できる こと
-0.928378	できる ぞ
-0.05115252	です 。
-1.581591	です が
-0.861951	でも 、
-0.6835553	でも いい
-1.530438	でも 皆
-1.530438	でも 私
-1.530438	でも 長く
-0.9890046	と 、
-2.519443	と 。
-2.519443	と あん
-1.67256	と いう
-2.519443	と いえ
-2.519443	と いっ
-2.519443	と うと
-2.519443	と かき分け
-2.519443	と きみ
-2.519443	と さっと
-2.519443	と さらに
-2.519443	と し
-2.519443	と だけ
-2.519443	と なく
-2.519443	と なっ
-1.850956	と の
-1.850956	と は
-2.519443	と も
-2.519443	と もち
-2.519443	と よき
-1.850956	と メロス
-2.519443	と 一緒
-2.519443	と 下流
-2.519443	と 両
-2.519443	と 二
-2.519443	と 信実
-2.519443	と 努め
-1.67256	と 友
-2.519443	と 口々
-2.519443	と 同じ
-1.850956	と 大声
-1.850956	と 思っ
-1.850956	と 抱擁
-2.519443	と 暴君
-2.519443	と 歩き
-1.850956	と 気
-2.519443	と 決意
-2.519443	と 消え
-2.519443	と 猛然
-2.519443	と 生涯
-2.519443	と 眺め
-2.519443	と 立て
-2.519443	と 答え
-2.519443	と 約束
-2.519443	と 羊
-2.519443	と 考え
-2.519443	と 耳打ち
-2.519443	と 膝
-2.519443	と 自分
-2.519443	と 見つめ
-2.519443	と 言い
-1.850956	と 誠
-2.519443	と 質問
-2.519443	と 身支度
-2.519443	と 遊ん
-2.519443	と 長い
-2.519443	と 響き
-2.519443	と 頼ん
-2.519443	と 願っ
-1.104469	という 、
-1.104469	という もの
-1.104469	という 石工
-0.627348	とおり 、
-0.627348	とかいう やつ
-0.803959	とき 、
-0.803959	とき から
-1.472446	とき に
-0.803959	とき は
-0.627348	とく 、
-0.928378	ところ です
-0.928378	ところ を
-1.326318	として ここ
-1.326318	として 彼
-1.326318	として 死ぬ
-1.326318	として 生き延び
-1.326318	として 迎える
-0.928378	とともに 、
-0.928378	とともに 聞こえ
-0.627348	とどまっ て
-0.627348	ともに やら
-0.627348	とんでもない うそ
-0.803959	どう か
-0.3972369	どう でも
-1.472446	どう と
-0.627348	どうか 明日
-0.627348	どうせ 帰っ
-0.627348	どうどう と
-0.627348	どうにか 婿
-0.627348	どき です
-0.627348	どっこい 放さ
-0.627348	どっと 群衆
-0.627348	ども 、
-0.627348	どよめい た
-0.928378	どんな 清らか
-0.928378	どんな 秘密
-2.250597	な 、
-0.9295465	な 。
-2.250597	な がら
-1.403715	な こと
-2.250597	な と
-2.250597	な とき
-1.026582	な の
-2.250597	な ふてくされ
-1.58211	な もの
-2.250597	な ん
-2.250597	な メロス
-2.250597	な 一
-2.250597	な 会話
-1.58211	な 力
-2.250597	な 声
-2.250597	な 大雨
-2.250597	な 妄想
-2.250597	な 妹
-2.250597	な 小歌
-2.250597	な 悪い
-2.250597	な 暮らし
-2.250597	な 気
-2.250597	な 気持ち
-2.250597	な 用事
-1.175388	な 男
-2.250597	な 衣装
-1.58211	ない 、
-0.1918855	ない 。
-1.58211	ない か
-2.250597	ない だろ
-2.250597	ない なら
-2.250597	ない に
-0.9295465	ない の
-2.250597	ない はず
-2.250597	ない やつ
-2.250597	ない 人
-0.1249387	なかっ た
-0.8596466	なかっ たら
-0.627348	なかなか 承諾
-1.472446	ながら 、
-1.472446	ながら 叫ん
-1.472446	ながら 尋ね
-1.472446	ながら 峠
-1.472446	ながら 希望
-1.472446	ながら 清水
-1.472446	ながら 走っ
-0.9131035	なく 、
-1.581591	なく て
-0.9131035	なく なっ
-0.9131035	なく なる
-1.581591	なく めまい
-1.581591	なく 私
-0.1978821	なけれ ば
-0.627348	なぜ 殺す
-0.627348	なぞ は
-0.627348	なだめ 、
-0.6337821	なっ た
-1.857797	なっ たら
-0.2304489	なっ て
-0.928378	など と
-0.928378	など 決して
-1.104469	なに 、
-1.104469	なに が
-1.104469	なに ひとつ
-0.928378	なにか 不吉
-0.928378	なにか 小さく
-0.627348	なにもかも 、
-1.906102	なら </s>
-1.906102	なら 、
-1.237615	なら ない
-0.1648103	なら ぬ
-1.906102	なら ば
-1.906102	なら 私
-0.259891	なり 、
-1.326318	なる こと
-1.326318	なる だろ
-1.326318	なる と
-1.326318	なる ところ
-1.326318	なる まで
-1.326318	なん で
-0.2511089	なん の
-0.259891	なんだか 、
-1.058595	に 、
-2.941215	に い
-2.941215	に いる
-2.941215	に うずくまり
-2.941215	に うなり
-2.941215	に うんと
-2.941215	に おいおい
-2.941215	に かかっ
-2.272728	に かけ
-2.941215	に くれ
-2.941215	に ぐずぐず
-2.941215	に この
-2.941215	に こめ
-2.941215	に ごろりと
-2.941215	に ささげ
-2.941215	に さらわ
-1.7172	に し
-2.941215	に する
-2.941215	に だまさ
-2.941215	に ちがい
-2.941215	に ない
-1.272475	に なっ
-2.941215	に なら
-2.272728	に なり
-2.094332	に なる
-2.941215	に の
-0.9916479	に は
-2.941215	に はさん
-2.941215	に また
-2.941215	に むち打ち
-1.620165	に も
-2.941215	に や
-2.272728	に やってき
-2.941215	に わめい
-2.941215	に セリヌンティウス
-2.272728	に メロス
-2.941215	に 一
-2.941215	に 一切
-2.941215	に 三
-2.941215	に 上っ
-2.941215	に 上り
-2.941215	に 不
-2.941215	に 二
-2.941215	に 会い
-2.941215	に 倒れ
-2.941215	に 傾き
-2.272728	に 入っ
-2.941215	に 入れ
-2.941215	に 処し
-2.272728	に 出
-2.941215	に 出かける
-2.094332	に 出発
-2.941215	に 列席
-2.941215	に 到達
-2.941215	に 努め
-2.941215	に 勝っ
-2.941215	に 叫び
-2.941215	に 召さ
-2.941215	に 向かっ
-2.941215	に 吸い込ま
-2.941215	に 呼び
-2.941215	に 喜色
-2.941215	に 報い
-2.941215	に 大きな
-2.941215	に 宿し
-2.941215	に 小さく
-2.941215	に 巣くっ
-2.272728	に 帰っ
-2.941215	に 引きずら
-2.272728	に 引き出さ
-2.941215	に 待っ
-2.272728	に 急い
-2.941215	に 情け
-2.941215	に 手
-2.941215	に 投じ
-2.941215	に 捕縛
-2.941215	に 敏感
-2.941215	に 教え
-2.941215	に 望み
-2.941215	に 期待
-2.941215	に 来
-2.941215	に 棍棒
-2.941215	に 橋
-2.941215	に 橋桁
-2.941215	に 歌
-2.941215	に 死な
-2.941215	に 死ぬ
-2.941215	に 殺し
-2.941215	に 気がつか
-2.941215	に 決まっ
-2.941215	に 没し
-2.272728	に 泣き
-2.941215	に 涙
-2.941215	に 深かっ
-2.941215	に 深く
-2.941215	に 潜り込ん
-2.272728	に 王城
-2.941215	に 用事
-2.941215	に 町
-2.941215	に 疲労
-2.941215	に 着い
-2.941215	に 知ら
-2.941215	に 私
-2.941215	に 突入
-2.941215	に 笑お
-2.941215	に 答え
-2.941215	に 置い
-2.941215	に 羊
-2.941215	に 群衆
-2.941215	に 落ち
-2.941215	に 行か
-2.941215	に 行き着く
-2.941215	に 行き着け
-2.941215	に 行わ
-2.941215	に 裏切り者
-2.941215	に 襲いかかり
-2.941215	に 見
-2.941215	に 視線
-2.941215	に 言い
-2.941215	に 許し
-2.941215	に 質問
-2.272728	に 走っ
-2.094332	に 走る
-2.941215	に 輝い
-2.941215	に 近づき
-2.941215	に 近寄り
-2.941215	に 過ぎ
-2.941215	に 酔っ
-2.941215	に 集まり
-2.941215	に 頬
-2.941215	に 飛び込み
-2.941215	に 鳴り響く
-0.627348	にぎやか で
-0.627348	について 走り
-0.627348	に対して は
-1.336768	ぬ 、
-0.2340832	ぬ 。
-1.515164	ぬ うち
-2.18365	ぬ くらい
-2.18365	ぬ こと
-2.18365	ぬ ぞ
-1.515164	ぬ と
-2.18365	ぬ の
-2.18365	ぬ は
-2.18365	ぬ もの
-2.18365	ぬ 大き
-2.18365	ぬ 愛
-0.928378	ぬる か
-0.928378	ぬる 覚悟
-0.627348	ね 。
-1.522879	の 、
-3.104469	の あの
-3.104469	の ある
-3.104469	の いい
-3.104469	の うち
-2.257586	の お
-3.104469	の お子様
-2.257586	の か
-3.104469	の かたまり
-3.104469	の かも
-2.257586	の が
-3.104469	の これしき
-3.104469	の ごちそう
-2.257586	の ごとく
-3.104469	の ささやき
-3.104469	の さま
-3.104469	の しわ
-3.104469	の せい
-3.104469	の た
-1.783419	の ため
-0.8239087	の だ
-1.783419	の で
-1.783419	の です
-3.104469	の と
-3.104469	の とおり
-2.257586	の ない
-3.104469	の のんき
-1.39794	の は
-3.104469	の はらわ
-3.104469	の ひるむ
-3.104469	の ほか
-3.104469	の まっただ中
-3.104469	の まま
-2.257586	の も
-3.104469	の もの
-2.02926	の よう
-3.104469	の わから
-3.104469	の アレキス
-3.104469	の マント
-2.435982	の 一
-3.104469	の 一家
-3.104469	の 一片
-3.104469	の 不信
-3.104469	の 両足
-2.435982	の 中
-3.104469	の 事情
-2.02926	の 人
-3.104469	の 人種
-3.104469	の 人間
-3.104469	の 代わり
-3.104469	の 仲間
-2.435982	の 体
-2.435982	の 信実
-3.104469	の 偉大
-2.435982	の 兄
-3.104469	の 到着
-3.104469	の 刻限
-2.435982	の 前
-2.435982	の 力
-3.104469	の 勇
-2.435982	の 勇者
-3.104469	の 十
-3.104469	の 午前
-3.104469	の 半ば
-3.104469	の 卑劣
-2.257586	の 友
-3.104469	の 友人
-3.104469	の 叫び
-3.104469	の 台
-3.104469	の 右
-2.257586	の 命
-3.104469	の 命令
-3.104469	の 囲み
-3.104469	の 地位
-3.104469	の 塔
-3.104469	の 士
-3.104469	の 声
-3.104469	の 大蛇
-3.104469	の 大路
-3.104469	の 太陽
-3.104469	の 奥底
-3.104469	の 奸佞
-2.257586	の 妹
-2.257586	の 姿
-3.104469	の 子
-3.104469	の 存する
-3.104469	の 季節
-3.104469	の 孤独
-3.104469	の 定まっ
-3.104469	の 定法
-3.104469	の 宣誓
-2.257586	の 家
-3.104469	の 少女
-3.104469	の 山賊
-3.104469	の 川
-3.104469	の 希望
-3.104469	の 席
-3.104469	の 帰り
-3.104469	の 平和
-3.104469	の 幹
-3.104469	の 弟
-3.104469	の 弟子
-3.104469	の 張り
-3.104469	の 後
-3.104469	の 徒
-1.783419	の 心
-3.104469	の 心構え
-3.104469	の 心臓
-3.104469	の 忠誠
-3.104469	の 思うつぼ
-3.104469	の 恥
-3.104469	の 情
-3.104469	の 懐中
-3.104469	の 手
-3.104469	の 支度
-3.104469	の 旅人
-3.104469	の 日暮れ
-3.104469	の 日没
-3.104469	の 日限
-3.104469	の 星
-3.104469	の 時
-3.104469	の 暗い
-3.104469	の 望み
-3.104469	の 未練
-3.104469	の 柱
-3.104469	の 様子
-3.104469	の 樹木
-3.104469	の 死力
-3.104469	の 残
-3.104469	の 気がかり
-3.104469	の 水源
-3.104469	の 汗
-3.104469	の 沈ま
-3.104469	の 流れる
-3.104469	の 深い
-3.104469	の 灼熱
-3.104469	の 無二
-2.257586	の 牧人
-3.104469	の 王
-2.257586	の 男
-2.257586	の 町
-3.104469	の 番
-3.104469	の 疲労
-3.104469	の 祭壇
-3.104469	の 結婚式
-3.104469	の 縄
-3.104469	の 罪
-3.104469	の 群衆
-3.104469	の 肩
-3.104469	の 背後
-3.104469	の 胸
-3.104469	の 草原
-3.104469	の 葉
-3.104469	の 薄明
-3.104469	の 血液
-3.104469	の 衣装
-3.104469	の 裂けめ
-3.104469	の 裸体
-3.104469	の 言う
-3.104469	の 警
-2.435982	の 豪雨
-3.104469	の 足
-3.104469	の 道
-1.783419	の 間
-3.104469	の 闘争
-3.104469	の 隅
-3.104469	の 雲
-3.104469	の 面前
-3.104469	の 頃
-2.435982	の 頬
-3.104469	の 頭
-3.104469	の 顔
-3.104469	の 願い
-0.627348	のそのそ 王城
-0.627348	のに 。
-0.627348	のみ 、
-0.627348	のん で
-0.928378	のんき さ
-0.928378	のんき な
-0.3110142	は 、
-3.048952	は 。
-3.048952	は あたりまえ
-3.048952	は ある
-3.048952	は いけ
-3.048952	は いよいよ
-3.048952	は おり
-3.048952	は お互い
-3.048952	は かなっ
-2.380465	は きみ
-2.380465	は この
-3.048952	は ご
-3.048952	は ござい
-3.048952	は し
-2.380465	は すでに
-3.048952	は ぜひとも
-3.048952	は その
-3.048952	は それ
-3.048952	は ただ
-1.973743	は でき
-1.518514	は ない
-2.202069	は なかっ
-3.048952	は なく
-1.727901	は なら
-3.048952	は にぎやか
-3.048952	は は
-3.048952	は ひょいと
-3.048952	は まだ
-3.048952	は もっと
-3.048952	は もみ手
-2.380465	は メロス
-3.048952	は 不信
-3.048952	は 両手
-3.048952	は 乱心
-3.048952	は 何
-2.380465	は 信頼
-3.048952	は 優しい
-3.048952	は 兄
-3.048952	は 刻々
-3.048952	は 十
-3.048952	は 友
-3.048952	は 命
-3.048952	は 問題
-3.048952	は 夜
-3.048952	は 夢
-3.048952	は 川岸
-3.048952	は 幾度
-3.048952	は 必死
-3.048952	は 急ぎ
-3.048952	は 悔しく
-3.048952	は 悪びれ
-3.048952	は 悲しい
-3.048952	は 情けない
-3.048952	は 政治
-3.048952	は 日
-3.048952	は 日没
-3.048952	は 明くる日
-2.380465	は 村
-3.048952	は 来
-3.048952	は 残ら
-3.048952	は 殺さ
-3.048952	は 気
-3.048952	は 氾濫
-2.202069	は 沈ま
-3.048952	は 波
-2.380465	は 激怒
-3.048952	は 無理
-3.048952	は 無言
-3.048952	は 父
-2.380465	は 王
-3.048952	は 王様
-3.048952	は 生まれ
-3.048952	は 疲れ
-3.048952	は 疾風
-3.048952	は 目
-3.048952	は 真
-3.048952	は 短剣
-1.973743	は 私
-3.048952	は 竹馬
-3.048952	は 笑っ
-3.048952	は 答え
-3.048952	は 精いっぱい
-3.048952	は 約束
-3.048952	は 胸
-3.048952	は 腕
-3.048952	は 茫然
-3.048952	は 落ち着い
-3.048952	は 蒼白
-3.048952	は 言っ
-3.048952	は 負け
-3.048952	は 赤い
-2.380465	は 走っ
-3.048952	は 走り
-3.048952	は 起き
-3.048952	は 足もと
-3.048952	は 跳ね
-3.048952	は 身
-3.048952	は 遅かっ
-3.048952	は 野
-3.048952	は 静か
-3.048952	は 頬
-3.048952	は 額
-3.048952	は 馬
-3.048952	は 驚き
-3.048952	は 高く
-3.048952	は 黒い
-0.627348	はい 、
-0.627348	はさん だ
-0.259891	はず だ
-0.627348	はたと 、
-0.627348	はっ た
-0.627348	はで な
-0.627348	はね 飛ばし
-0.627348	はばかる 低
-0.627348	はらわ た
-0.627348	はり こう
-0.657831	はりつけ に
-0.657831	はりつけ の
-1.326318	はりつけ 台
-0.627348	はるか 向こう
-0.627348	はるばる 町
-0.5288753	ば 、
-1.803439	ば だいじょうぶ
-0.5794244	ば なら
-1.803439	ば 十字架
-0.627348	ばか な
-0.627348	ばかばかしい 。
-1.326318	ばかり 、
-1.326318	ばかり で
-0.657831	ばかり に
-1.326318	ばかり を
-0.627348	ばら に
-0.627348	ぱ みじん
-0.928378	ひしと 抱き合い
-0.928378	ひしと 抱き締め
-0.627348	ひっそり し
-0.627348	ひとつ 考え
-0.627348	ひと口 飲ん
-0.627348	ひと眠り し
-0.627348	ひどく 赤面
-0.627348	ひょいと 、
-0.627348	ひょっとしたら 、
-0.627348	ひるむ 隙
-0.627348	ふい と
-0.627348	ふてくされ た
-0.627348	ふと 耳
-0.627348	ふり し
-0.627348	ふるさと 。
-0.627348	ぶと 流れ
-0.627348	ぶどう の
-0.259891	ぶらぶら 歩い
-0.627348	ぶり で
-0.627348	ぶる ん
-0.7370123	へ の
-1.405499	へ 到着
-0.7370123	へ 帰っ
-1.405499	へ 行か
-0.928378	べき 宝
-0.928378	べき 悪徳
-0.928378	ほう が
-0.928378	ほう と
-0.4359823	ほか に
-1.104469	ほか は
-0.627348	ほくそ笑ん だ
-0.627348	ほしい 。
-0.928378	ほっと し
-0.928378	ほっと ため息
-0.627348	ほとんど 全
-1.229408	ほど に
-1.229408	ほど の
-1.229408	ほど 努力
-1.229408	ほど 音
-0.627348	ほどか れ
-0.627348	ほほえみ 、
-0.627348	ほんの 少し
-0.627348	ぽつりぽつり 雨
-0.627348	まい か
-0.928378	まえ 、
-0.928378	まえ の
-0.627348	まごつい た
-0.627348	まさか 私
-0.627348	まさしく 王
-0.627348	まさに 最後
-0.1541989	まし た
-0.627348	まじまじ と
-1.741291	ます 、
-0.03476211	ます 。
-0.627348	ますます 激しく
-0.627348	まず 、
-0.4359823	ませ ぬ
-1.104469	ませ ん
-0.560921	また 、
-1.229408	また すぐ
-1.229408	また 先
-1.405499	まだ なん
-1.405499	まだ 十分
-0.5586166	まだ 日
-1.405499	まだ 間
-0.627348	まだまだ だいじょうぶ
-0.627348	まっすぐ に
-0.627348	まっただ中 を
-1.706529	まで 、
-0.3854785	まで に
-1.706529	まで 待っ
-1.706529	まで 来
-1.706529	まで 来れ
-1.706529	まで 突破
-1.706529	まで 議論
-1.706529	まで 走っ
-0.627348	まとも に
-0.627348	まどろん で
-1.326318	まま ここ
-1.326318	まま で
-1.326318	まま なら
-0.657831	まま に
-0.627348	まもなく 床
-0.627348	み た
-0.627348	みごと 、
-1.104469	みじん に
-0.4359823	みじん も
-0.627348	みせる 。
-1.104469	みる つもり
-1.104469	みる と
-1.104469	みる の
-0.627348	みれ ば
-0.627348	むち打ち 、
-0.627348	むんむん 蒸し暑い
-0.4359823	め に
-1.104469	め の
-0.627348	めいめい 気持ち
-0.627348	めまい を
-0.5740313	も 、
-2.502409	も いる
-2.502409	も おもしろい
-2.502409	も きみ
-2.502409	も こらえ
-2.502409	も し
-2.502409	も すでに
-1.833922	も せ
-2.502409	も その
-2.502409	も そん
-2.502409	も つくっ
-1.833922	も でき
-2.502409	も ともに
-0.9719713	も ない
-1.833922	も なかっ
-2.502409	も なく
-2.502409	も やみ
-2.502409	も 仲間
-2.502409	も 会釈
-2.502409	も 前進
-2.502409	も 哀れ
-2.502409	も 問題
-2.502409	も 小降り
-2.502409	も 尽き
-2.502409	も 撃ち
-2.502409	も 枝
-2.502409	も 根
-2.502409	も 死ぬ
-2.502409	も 気味
-1.833922	も 照覧
-2.502409	も 燃える
-2.502409	も 疑わ
-2.502409	も 私
-2.502409	も 笑わ
-2.502409	も 落ち
-2.502409	も 見え
-2.502409	も 覚悟
-2.502409	も 言い
-2.502409	も 言える
-2.502409	も 言わ
-2.502409	も 負け
-2.502409	も 買っ
-2.502409	も 速く
-2.502409	も 間近
-2.502409	も 頑強
-0.5521389	もう 、
-1.627348	もう いっそ
-1.627348	もう おまえ
-1.627348	もう すでに
-1.627348	もう ちょっと
-1.627348	もう な
-1.627348	もう 一つ
-0.627348	もし 私
-0.627348	もた せ
-0.627348	もたげ 、
-0.928378	もち まえ
-0.928378	もち 続け
-0.259891	もっ て
-0.928378	もっと 、
-0.928378	もっと 恐ろしく
-0.627348	もともと 私欲
-1.627348	もの さ
-1.627348	もの だ
-0.958861	もの で
-1.627348	もの の
-0.958861	もの は
-0.958861	もの も
-1.627348	もの を
-0.928378	もはや いも
-0.928378	もはや 故郷
-0.627348	もみ手 し
-1.104469	や ら
-1.104469	や ん
-1.104469	や 及ぶ
-1.104469	やがて 殺さ
-1.104469	やがて 車軸
-1.104469	やがて 静か
-0.627348	やけに 寂しい
-0.627348	やっ た
-0.259891	やってき た
-0.627348	やっと 、
-0.928378	やつ じゃ
-0.928378	やつ ばら
-0.928378	やはり 、
-0.928378	やはり 未練
-0.627348	やみ 、
-0.2575866	やめ て
-0.928378	やら れる
-0.928378	やら 祝宴
-0.2575866	やり たい
-1.405499	やる 。
-1.405499	やる が
-0.3302901	やる の
-0.2575866	やろ う
-0.627348	ゆえ 、
-1.104469	ゆく 。
-1.104469	ゆく 友
-1.104469	ゆく 太陽
-0.627348	ゆっくり 歩こ
-0.627348	ゆらゆら 地平線
-0.861951	よ 、
-0.3064232	よ 。
-0.5063814	よい 。
-1.581591	よい の
-1.581591	よい 人
-1.581591	よい 友
-1.581591	よい 友達
-1.581591	よい 夫婦
-0.6660823	よう な
-0.1597008	よう に
-0.627348	よかっ た
-0.627348	よかろ う
-0.2575866	よき 友
-0.627348	よくも 私
-0.627348	よくよく 不幸
-1.104469	より つらい
-0.4359823	より ほか
-0.627348	よろしい 、
-0.627348	よろめい て
-1.104469	よろよろ と
-1.104469	よろよろ 二
-1.104469	よろよろ 起き上がっ
-0.560921	ら の
-1.229408	ら は
-1.229408	ら を
-0.928378	らしい 。
-0.928378	らしい 花嫁
-1.581591	られ 、
-0.3575757	られ て
-1.581591	られ ない
-1.581591	られ ぬ
-0.627348	られる の
-0.3245111	れ た
-1.906102	れ つつ
-0.5850509	れ て
-1.906102	れ なけれ
-1.906102	れ ぬ
-1.906102	れ まし
-1.906102	れ ます
-0.3575757	れる 。
-1.581591	れる ため
-1.581591	れる の
-1.581591	れる よう
-0.4359823	わい 。
-1.104469	わい た
-0.627348	わかっ て
-0.2575866	わから ぬ
-0.928378	わが身 に
-0.928378	わが身 を
-0.627348	わけ の
-1.530438	わし だって
-0.861951	わし に
-0.6835553	わし の
-1.530438	わし は
-1.530438	わし を
-0.627348	わび た
-0.627348	わめい た
-2.969771	を 　
-1.08715	を 、
-1.695207	を 。
-2.969771	を あげる
-2.969771	を いい
-2.301284	を お
-2.969771	を おっしゃる
-2.969771	を かがめ
-2.969771	を かき分け
-2.969771	を かけ
-2.969771	を からかっ
-2.969771	を きかせ
-2.969771	を くぐり抜け
-2.301284	を さえ
-1.894562	を し
-2.301284	を する
-2.969771	を せせら笑う
-2.969771	を たたい
-2.969771	を たたえ
-2.969771	を つい
-2.969771	を つく
-2.969771	を つけ
-2.969771	を なだめ
-2.969771	を のみ
-2.969771	を のん
-2.969771	を はね
-2.969771	を はばかる
-2.969771	を ひしと
-2.969771	を ぶらぶら
-2.301284	を も
-2.969771	を もた
-2.969771	を もたげ
-2.969771	を もち
-2.301284	を もっ
-2.969771	を メロス
-2.969771	を 一つ
-2.969771	を 三
-2.301284	を 上げ
-2.969771	を 下っ
-2.969771	を 与え
-2.969771	を 両手
-2.969771	を 人質
-2.969771	を 仰い
-2.969771	を 仰天
-1.745756	を 信じ
-2.969771	を 全く
-2.969771	を 出
-2.969771	を 出発
-2.969771	を 助け
-2.969771	を 取り直し
-2.969771	を 取り返し
-2.969771	を 受け
-2.969771	を 叱っ
-2.969771	を 叱り
-2.969771	を 吹き
-2.969771	を 呼ぶ
-2.969771	を 命じ
-2.969771	を 垂れ
-2.969771	を 大きく
-2.969771	を 奪い取っ
-2.301284	を 始め
-2.969771	を 守り
-2.301284	を 守る
-2.969771	を 守れ
-2.969771	を 察し
-2.969771	を 小耳
-2.969771	を 尽くし
-2.969771	を 引き立て
-2.969771	を 強く
-2.969771	を 待ち伏せ
-2.969771	を 待っ
-2.969771	を 思え
-2.969771	を 急い
-2.969771	を 急ぎ
-2.969771	を 怪しく
-2.301284	を 感じ
-2.969771	を 憎ん
-2.969771	を 打た
-2.969771	を 打ち破る
-2.969771	を 打っ
-2.969771	を 投げ出し
-2.969771	を 折っ
-2.969771	を 折り曲げ
-2.969771	を 抱い
-2.969771	を 押しのけ
-2.969771	を 拒め
-2.969771	を 拳
-2.969771	を 挙げ
-2.969771	を 挙げる
-2.969771	を 振っ
-2.969771	を 振り上げ
-2.969771	を 捕まえ
-2.969771	を 揺すぶっ
-2.969771	を 放っ
-2.969771	を 放免
-2.969771	を 救う
-2.969771	を 断ち割っ
-2.969771	を 明日
-2.969771	を 暴君
-2.969771	を 望ん
-2.969771	を 村
-2.969771	を 横切り
-2.969771	を 欺い
-2.969771	を 欺く
-2.969771	を 歌い
-2.969771	を 歌っ
-2.969771	を 死な
-2.969771	を 残し
-1.894562	を 殴っ
-2.969771	を 殴り
-1.894562	を 殴れ
-1.695207	を 殺し
-2.969771	を 決意
-2.969771	を 泳い
-2.969771	を 泳ぎ
-2.969771	を 流す
-2.969771	を 浮かべ
-2.969771	を 浴びせ
-2.969771	を 澄まし
-2.969771	を 無心
-2.301284	を 疑う
-2.301284	を 疑っ
-2.969771	を 登り
-2.969771	を 目撃
-2.969771	を 相手
-2.969771	を 着る
-2.969771	を 破る
-2.969771	を 破壊
-2.969771	を 磔刑
-2.969771	を 突破
-2.969771	を 笑い
-2.969771	を 絞め殺し
-2.969771	を 続け
-2.969771	を 置い
-2.969771	を 聞い
-2.969771	を 聞き入れ
-2.969771	を 腕
-2.969771	を 落とし
-2.969771	を 覆い
-2.969771	を 見
-2.301284	を 見せ
-2.969771	を 見つけ
-2.969771	を 見つめ
-2.969771	を 見る
-2.301284	を 言う
-2.969771	を 訪れ
-2.969771	を 誇っ
-2.969771	を 語っ
-2.969771	を 調え
-2.301284	を 買い
-2.301284	を 赤らめ
-2.969771	を 越え
-2.969771	を 蹴飛ばし
-2.969771	を 重ね
-2.969771	を 開始
-2.969771	を 限り
-2.969771	を 除か
-2.969771	を 飛び越え
-2.969771	を 飾り
-2.301284	を 駆け
-2.969771	を 駆け抜け
-0.627348	をもって は
-1.326318	ん 。
-1.326318	ん か
-1.326318	ん と
-1.326318	ん ぬる
-1.326318	ん ぶと
-0.627348	アレキス 様
-0.2575866	クス の
-0.2575866	シ ラ
-1.803439	セリヌンティウス 、
-1.134952	セリヌンティウス 。
-1.803439	セリヌンティウス で
-1.803439	セリヌンティウス という
-1.134952	セリヌンティウス の
-0.4823885	セリヌンティウス は
-1.134952	セリヌンティウス よ
-1.803439	セリヌンティウス 様
-0.928378	ゼウス に
-0.928378	ゼウス よ
-1.104469	ディオニス の
-0.4359823	ディオニス は
-0.928378	フィロストラトス 。
-0.928378	フィロストラトス で
-0.259891	マント を
-1.661279	メロス 、
-1.839675	メロス 。
-1.839675	メロス が
-2.508162	メロス だ
-1.432953	メロス に
-0.9265711	メロス の
-0.2087157	メロス は
-2.508162	メロス ほど
-1.661279	メロス も
-1.839675	メロス よ
-2.508162	メロス を
-2.508162	メロス 様
-0.2575866	ラ クス
-0.4033332	一 人
-0.958861	一 度
-1.627348	一 牧人
-1.627348	一 隊
-1.104469	一つ 、
-1.104469	一つ し
-1.104469	一つ の
-0.627348	一事 だ
-0.627348	一切 の
-0.259891	一刻 と
-0.627348	一団 の
-0.627348	一家 も
-0.627348	一度 、
-0.627348	一挙 に
-0.627348	一撃 、
-0.627348	一斉 に
-0.259891	一気に 峠
-0.627348	一片 の
-0.627348	一生 この
-0.627348	一睡 も
-0.627348	一緒 に
-0.259891	万 歳
-1.706529	三 、
-1.038042	三 人
-1.706529	三 度
-0.3854785	三 日
-1.038042	三 日間
-1.706529	三 歩
-0.627348	三里 行き
-0.259891	上げ て
-0.627348	上っ て
-0.627348	上り 、
-0.627348	下っ た
-0.627348	下流 に
-0.627348	不 似合い
-0.259891	不信 の
-0.259891	不吉 な
-0.627348	不名誉 の
-0.627348	不安 に
-0.627348	不幸 な
-0.627348	与え て
-0.627348	世の中 の
-0.627348	世界 の
-0.627348	世継ぎ を
-0.627348	両 腕
-0.259891	両手 で
-0.627348	両足 に
-0.928378	中 から
-0.928378	中 で
-0.627348	中途 で
-0.627348	久しく 会わ
-0.627348	乱れ 華やか
-0.928378	乱心 か
-0.928378	乱心 で
-0.928378	事情 が
-0.928378	事情 を
-1.530438	二 、
-0.4552289	二 人
-0.861951	二 年
-1.530438	二 度
-0.627348	二里 行き
-0.627348	五臓 が
-1.104469	亭主 が
-1.104469	亭主 と
-1.104469	亭主 を
-1.477375	人 が
-2.145862	人 ずつ
-1.298979	人 たち
-2.145862	人 として
-1.298979	人 に
-0.5642715	人 の
-2.145862	人 は
-2.145862	人 も
-0.5642715	人 を
-2.145862	人 同時に
-2.145862	人 暮らし
-2.145862	人 殺さ
-0.627348	人々 は
-0.627348	人一倍 に
-0.627348	人種 だ
-1.104469	人質 として
-1.104469	人質 に
-1.104469	人質 一
-1.104469	人間 、
-1.104469	人間 は
-1.104469	人間 世界
-0.7562588	今 、
-1.162981	今 こそ
-1.831468	今 こんなに
-1.831468	今 だって
-1.162981	今 に
-0.6074532	今 は
-0.928378	今宵 、
-0.928378	今宵 呆然
-0.259891	今度 は
-0.3825253	今日 は
-1.229408	今日 未明
-0.627348	今頃 は
-0.627348	仕事 を
-0.627348	他 に
-0.627348	代わり に
-0.627348	仰い で
-0.627348	仰天 さ
-0.928378	仲間 に
-0.928378	仲間 の
-0.627348	伏し 、
-0.627348	会 うた
-0.627348	会い 、
-0.627348	会っ た
-0.627348	会わ なかっ
-0.627348	会話 を
-0.627348	会釈 し
-0.627348	似合い な
-0.627348	低 声
-0.627348	低く 笑っ
-1.104469	体 で
-0.4359823	体 を
-1.472446	何 か
-0.6255634	何 も
-0.6255634	何 を
-1.000254	信じ た
-0.34769	信じ て
-0.5935315	信じ られ
-0.627348	信ずる こと
-1.326318	信実 だの
-1.326318	信実 と
-0.657831	信実 の
-1.326318	信実 は
-0.627348	信念 を
-0.4359823	信頼 さ
-1.104469	信頼 に
-0.627348	倍 も
-0.928378	倒し 、
-0.928378	倒し 韋
-0.627348	倒れ 伏し
-0.627348	倒れる の
-0.627348	偉い 男
-0.627348	偉大 な
-0.627348	傾き かけ
-0.928378	僅か ながら
-0.928378	僅か 答え
-0.627348	優しい 亭主
-0.627348	優しく ほほえみ
-1.326318	兄 に
-0.4794353	兄 の
-1.326318	兄 は
-0.627348	先 を
-0.928378	先刻 、
-0.928378	先刻 の
-0.928378	光 も
-0.928378	光 を
-0.627348	光っ て
-0.259891	入っ て
-0.627348	入れ て
-0.928378	全 裸体
-0.928378	全 里程
-0.627348	全く 気
-0.627348	全て を
-0.627348	全体 が
-0.627348	全身 萎え
-0.928378	全部 あげよ
-0.928378	全部 を
-0.4359823	六 の
-1.104469	六 人
-0.627348	内気 な
-0.627348	再び 立っ
-0.627348	処し て
-0.627348	処刑 まで
-0.6255634	出 た
-0.3972369	出 て
-0.627348	出かける 。
-0.657831	出発 し
-1.326318	出発 しよ
-1.326318	出発 すれ
-1.326318	出発 を
-0.627348	分 間に合う
-0.627348	刑 吏
-1.229408	刑場 いっぱい
-0.560921	刑場 に
-1.229408	刑場 の
-0.627348	列席 し
-0.928378	初め から
-0.928378	初め は
-0.627348	初めて きみ
-0.627348	初夏 、
-0.928378	到着 し
-0.928378	到着 に
-0.627348	到達 し
-0.627348	刻 一刻
-0.627348	刻々 に
-0.627348	刻み込ま れ
-0.627348	刻限 まで
-0.2575866	前 に
-0.627348	前方 の
-0.627348	前進 かなわ
-1.229408	力 に
-0.3825253	力 を
-0.627348	力いっぱい に
-0.928378	助け て
-0.928378	助け に
-0.928378	努め た
-0.928378	努め て
-0.627348	努力 し
-0.627348	勇 、
-1.229408	勇者 、
-1.229408	勇者 だ
-1.229408	勇者 に
-1.229408	勇者 は
-0.627348	動い て
-0.259891	動け なく
-0.627348	勝っ た
-0.627348	勝手 に
-0.627348	勢 一挙
-0.627348	匹 の
-1.326318	十 倍
-0.657831	十 六
-1.326318	十 分
-1.326318	十 里
-0.627348	十分 の
-0.627348	十字架 に
-0.627348	十里 の
-0.627348	午前 、
-0.627348	午後 の
-0.627348	半ば に
-0.627348	卑劣 を
-0.627348	南無 三
-0.627348	単純 な
-0.627348	及ぶ 。
-1.88262	友 、
-1.88262	友 が
-1.88262	友 で
-0.8074114	友 と
-1.88262	友 に
-1.035738	友 の
-1.035738	友 は
-1.88262	友 よ
-1.035738	友 を
-0.928378	友人 だ
-0.928378	友人 を
-0.928378	友達 が
-0.928378	友達 セリヌンティウス
-0.627348	反駁 し
-0.627348	取り直し て
-0.627348	取り返し 、
-0.627348	受け て
-0.928378	口 から
-0.928378	口 で
-0.627348	口々 に
-0.928378	叫び ながら
-0.928378	叫び を
-0.259891	叫ん だ
-0.627348	召さ れ
-0.259891	台 に
-0.627348	叱っ て
-0.627348	叱り ながら
-0.627348	右 頬
-0.928378	同じ くらい
-0.928378	同じ こと
-0.627348	同時に 言い
-0.259891	名誉 を
-0.928378	吏 　
-0.928378	吏 に
-0.627348	向かっ て
-0.627348	向こう に
-0.627348	吸い込ま れる
-0.627348	吹き 、
-0.627348	呆然 、
-0.627348	呼び たて
-0.627348	呼ぶ が
-0.4359823	呼吸 も
-1.104469	呼吸 を
-0.6255634	命 が
-1.472446	命 なぞ
-1.472446	命 の
-0.803959	命 も
-0.627348	命じ て
-0.627348	命乞い など
-0.928378	命令 で
-0.928378	命令 を
-0.627348	哀れ と
-0.627348	哀願 し
-0.627348	品々 を
-0.627348	問いつめ た
-0.2575866	問題 で
-0.627348	喉 が
-0.627348	喜色 を
-0.627348	嘲笑 し
-0.627348	噴き 出
-0.627348	四肢 を
-0.627348	回し 、
-0.627348	回復 とともに
-0.627348	困憊 の
-0.627348	囲み から
-0.627348	国王 は
-0.627348	地 は
-0.627348	地上 で
-0.627348	地位 を
-0.627348	地平線 に
-0.627348	垂れ て
-0.928378	報い た
-0.928378	報い なけれ
-0.259891	塔 楼
-0.627348	士 として
-0.7347078	声 が
-0.5063814	声 で
-0.9131035	声 を
-0.928378	夕日 ばかり
-0.928378	夕日 を
-0.627348	外 の
-1.326318	夜 、
-1.326318	夜 だっ
-1.326318	夜 でも
-1.326318	夜 に
-1.326318	夜 の
-0.627348	夜明け まで
-1.326318	夢 から
-0.657831	夢 だ
-0.657831	夢 を
-0.627348	夢見心地 で
-0.627348	大き な
-0.928378	大きい もの
-0.928378	大きい 夕日
-0.928378	大きく なっ
-0.928378	大きく 振っ
-0.627348	大きな 胴震い
-1.104469	大事 だっ
-1.104469	大事 です
-1.104469	大事 な
-0.627348	大切 な
-0.928378	大声 あげ
-0.928378	大声 で
-0.627348	大蛇 の
-0.627348	大路 を
-0.627348	大雨 と
-0.928378	天 、
-0.928378	天 を
-1.104469	太陽 が
-1.104469	太陽 の
-1.104469	太陽 も
-0.928378	夫婦 に
-0.928378	夫婦 は
-0.627348	奥底 が
-0.627348	奪い取っ て
-0.627348	女房 も
-0.627348	奸佞 邪知
-0.627348	好き な
-0.627348	妄想 で
-1.706529	妹 が
-1.706529	妹 たち
-1.038042	妹 と
-1.706529	妹 に
-1.038042	妹 は
-1.706529	妹 も
-1.706529	妹 夫婦
-1.706529	妹 婿
-1.038042	妹 様
-0.928378	始め た
-0.928378	始め て
-1.104469	姿 に
-1.104469	姿 も
-1.104469	姿 を
-0.627348	威厳 を
-0.627348	娘 さん
-0.560921	婿 の
-1.229408	婿 を
-1.229408	婿 様
-0.627348	嫌い な
-0.627348	子 の
-0.627348	存する ところ
-0.627348	季節 まで
-0.627348	孤独 が
-0.627348	守り ます
-0.928378	守る ため
-0.928378	守る 希望
-0.627348	守れ 。
-0.627348	定まっ た
-0.627348	定法 で
-0.928378	宝 と
-0.928378	宝 な
-0.627348	宣誓 が
-0.928378	宴席 から
-0.928378	宴席 の
-1.405499	家 が
-0.7370123	家 に
-1.405499	家 の
-1.405499	家 へ
-1.405499	家 を
-0.627348	宿し た
-0.928378	寂しい 。
-0.928378	寂しい こと
-0.627348	寝 すごし
-0.627348	寝転がっ た
-0.627348	察し た
-0.627348	対岸 の
-0.627348	尋ね た
-0.928378	小さく 、
-0.928378	小さく ささやき
-0.627348	小屋 に
-0.627348	小川 を
-0.627348	小歌 を
-0.627348	小耳 に
-0.259891	小降り に
-0.627348	小鳥 が
-1.326318	少し 、
-1.326318	少し ずつ
-1.326318	少し でも
-1.326318	少し も
-1.326318	少し 事情
-0.627348	少しく はで
-0.627348	少女 が
-0.627348	尽き た
-0.627348	尽くし て
-0.627348	山 の
-1.229408	山賊 が
-1.229408	山賊 たち
-1.229408	山賊 の
-1.229408	山賊 を
-0.627348	山越え 、
-0.627348	岩 の
-0.1541989	峠 を
-0.627348	川 を
-0.627348	川岸 に
-0.627348	巡邏 の
-0.627348	巣くっ た
-0.627348	差し出す こと
-0.627348	巻き 、
-0.627348	希代 の
-1.104469	希望 が
-0.4359823	希望 で
-0.627348	席 を
-0.04575749	帰っ て
-0.627348	帰り を
-0.4359823	平和 だ
-1.104469	平和 を
-0.627348	平気 で
-0.928378	年 ぶり
-0.928378	年 前
-0.627348	幹 に
-0.627348	幾分 小降り
-0.928378	幾度 か
-0.928378	幾度 と
-0.627348	床 に
-0.560921	度 、
-1.229408	度 だけ
-1.229408	度 だって
-0.627348	引きずら れ
-0.627348	引きずる 流れ
-0.259891	引き出さ れ
-0.627348	引き立て 、
-0.627348	弟 に
-0.627348	弟子 で
-0.627348	張り さける
-0.627348	強い 信念
-0.627348	強く し
-0.627348	影 なく
-1.229408	彼 の
-0.560921	彼 は
-1.229408	彼 を
-0.627348	待ち伏せ し
-0.1814844	待っ て
-0.627348	待つ こと
-0.259891	待て 。
-0.627348	律儀 な
-0.627348	後 について
-0.627348	徐々に つり上げ
-0.627348	徒 で
-0.627348	御免 こうむっ
-1.472446	心 に
-1.472446	心 の
-0.6255634	心 は
-0.803959	心 を
-0.627348	心構え な
-0.259891	心臓 を
-0.259891	必ず 、
-0.928378	必死 で
-0.928378	必死 の
-0.627348	必要 も
-0.259891	忘れ て
-0.627348	忠誠 を
-0.627348	思い で
-0.627348	思うつぼ だ
-0.627348	思え ば
-0.2575866	思っ た
-1.104469	急い だ
-0.4359823	急い で
-0.259891	急ぎ に
-0.627348	急ぐ 必要
-0.627348	急げ 、
-0.627348	怪しく 思っ
-0.627348	恐ろしく 大きい
-0.627348	恥 で
-0.627348	恥ず べき
-0.627348	恨み 申し
-0.627348	息 を
-0.627348	悔しい の
-0.627348	悔しく 、
-0.627348	悔し泣き に
-0.627348	悠々 と
-0.2575866	悪い 夢
-0.627348	悪びれ ず
-0.928378	悪徳 だ
-0.928378	悪徳 者
-0.928378	悪心 を
-0.928378	悪心 をもって
-0.627348	悪魔 の
-0.627348	悲しい 顔
-0.627348	情 という
-0.627348	情け を
-0.627348	情けない 。
-1.229408	愛 だの
-0.3825253	愛 と
-0.627348	愛する 友
-0.928378	感じ 、
-0.928378	感じ た
-0.627348	態 な
-0.627348	憎ん だ
-0.627348	憐愍 を
-0.627348	憫笑 し
-0.627348	懐中 から
-1.104469	手 から
-0.4359823	手 を
-0.259891	打た れ
-0.627348	打ち 荒れ
-0.627348	打ち破る ため
-0.627348	打っ た
-0.627348	払い 、
-0.627348	承諾 し
-0.627348	投げ出し て
-0.627348	投じ 、
-0.627348	折っ た
-0.627348	折り曲げ 、
-0.627348	抜け て
-0.627348	抱い て
-0.627348	抱き合い 、
-0.627348	抱き締め た
-0.928378	抱擁 する
-0.928378	抱擁 でき
-0.627348	押し て
-0.627348	押しのけ 、
-0.627348	押し寄せ 渦巻き
-0.627348	押し流さ れ
-0.627348	拒め ば
-0.627348	拳 で
-0.627348	持ち物 全部
-0.627348	挙げ させ
-0.627348	挙げる 。
-0.259891	振っ て
-0.627348	振り上げ た
-0.627348	捕まえ て
-0.627348	捕縛 さ
-0.627348	揺すぶっ て
-0.627348	撃ち 倒し
-0.928378	支度 の
-0.928378	支度 も
-0.627348	放さ ぬ
-0.627348	放し て
-0.627348	放せ 。
-0.259891	放っ て
-0.627348	放免 する
-0.627348	政治 が
-0.627348	故郷 へ
-0.627348	敏感 で
-0.928378	救う ため
-0.928378	救う の
-0.259891	教え て
-0.627348	斜陽 は
-0.627348	断ち割っ て
-0.627348	新婦 の
-0.627348	新郎 新婦
-0.627348	旅人 と
-1.803439	日 が
-0.9565566	日 の
-0.5288753	日 は
-0.9565566	日 め
-1.803439	日 も
-0.627348	日暮れ まで
-0.2575866	日没 まで
-0.928378	日間 だけ
-0.928378	日間 の
-0.627348	日限 を
-0.627348	早い ほう
-0.627348	早かっ た
-0.627348	早く その
-0.259891	昇っ て
-0.259891	明くる日 の
-1.326318	明日 、
-1.326318	明日 だ
-0.657831	明日 に
-1.326318	明日 の
-0.627348	星 で
-0.627348	昨日 の
-1.104469	時 が
-0.4359823	時 は
-0.627348	暑く なっ
-0.928378	暗い の
-0.928378	暗い 疑惑
-1.229408	暮らし だ
-0.560921	暮らし て
-1.229408	暮らし を
-1.405499	暴君 の
-0.7370123	暴君 は
-0.5586166	暴君 ディオニス
-0.627348	暴虐 の
-0.928378	最も 、
-0.928378	最も 恥ず
-0.2575866	最後 の
-0.928378	望み た
-0.928378	望み は
-0.627348	望ん で
-0.627348	期待 し
-0.627348	木々 の
-0.627348	未明 メロス
-0.928378	未練 の
-0.928378	未練 は
-0.627348	本当に よい
-1.581591	村 から
-1.581591	村 で
-1.581591	村 に
-0.7347078	村 の
-1.581591	村 へ
-0.9131035	村 を
-0.2575866	村人 たち
-0.4359823	来 た
-1.104469	来 ます
-0.627348	来れ ば
-0.627348	枝 も
-0.627348	柱 が
-0.627348	根 も
-0.627348	根性 が
-0.259891	棍棒 を
-0.627348	森 を
-0.928378	楼 が
-0.928378	楼 は
-0.627348	楽しみ で
-1.472446	様 。
-0.803959	様 の
-0.3972369	様 を
-0.3825253	様子 で
-1.229408	様子 を
-0.627348	横切り 、
-0.627348	樹木 の
-0.627348	橋 を
-0.627348	橋桁 を
-0.627348	欲しい の
-0.627348	欺い た
-0.627348	欺か なかっ
-0.627348	欺く つもり
-0.259891	歌 を
-0.928378	歌い 、
-0.928378	歌い だし
-0.627348	歌っ て
-0.627348	歓喜 に
-0.627348	歓声 が
-0.627348	歔欷 の
-0.627348	止まっ た
-0.627348	正当 の
-0.4359823	正直 な
-1.104469	正直 者
-1.104469	正義 だの
-0.4359823	正義 の
-0.627348	歩 歩い
-1.405499	歩い た
-0.08444852	歩い て
-0.627348	歩き だし
-0.627348	歩ける 。
-0.627348	歩こ う
-0.928378	歳 、
-0.928378	歳 。
-0.627348	死 ぬる
-0.2575866	死な せ
-1.229408	死ぬ こと
-1.229408	死ぬ ぞ
-1.229408	死ぬ の
-1.229408	死ぬ より
-0.928378	死ん だ
-0.928378	死ん で
-0.627348	死刑 に
-0.627348	死力 を
-0.627348	残 光
-0.627348	残し て
-0.627348	残ら ず
-0.627348	残る 者
-0.627348	残虐 な
-0.657831	殴っ た
-0.4794353	殴っ て
-0.627348	殴り 倒し
-0.005267273	殴れ 。
-0.6255634	殺さ れ
-0.3972369	殺さ れる
-1.530438	殺し た
-0.3064232	殺し て
-1.530438	殺し ます
-0.928378	殺す ぞ
-0.928378	殺す の
-0.627348	母 も
-0.627348	民 の
-0.7370123	気 が
-1.405499	気 に
-1.405499	気 の
-0.7370123	気 を
-0.627348	気がかり も
-0.627348	気がつか ない
-0.627348	気の毒 だ
-0.627348	気味 が
-0.928378	気持ち で
-0.928378	気持ち を
-1.104469	水 が
-1.104469	水 の
-1.104469	水 を
-0.627348	水源 地
-0.259891	永遠 に
-0.627348	氾濫 し
-0.627348	汗 を
-1.104469	決して し
-1.104469	決して 寂しい
-1.104469	決して 空虚
-0.627348	決まっ て
-0.259891	決意 し
-0.1541989	沈ま ぬ
-0.259891	沈む 。
-0.259891	沈ん で
-0.627348	没し 、
-0.627348	泉 に
-1.229408	波 に
-1.229408	波 は
-0.560921	波 を
-0.928378	泣い た
-0.928378	泣い て
-0.928378	泣き だし
-0.928378	泣き な
-0.627348	泳い だ
-0.928378	泳ぎ きり
-0.928378	泳ぎ きる
-0.627348	流す よう
-1.326318	流れ て
-1.326318	流れ に
-1.326318	流れ は
-0.657831	流れ を
-0.627348	流れる 音
-0.627348	浮かべ て
-0.627348	浴びせ た
-0.627348	海 の
-0.627348	消え て
-0.627348	消えよ う
-0.627348	涙 を
-0.627348	深い 眠り
-0.627348	深かっ た
-0.627348	深く 眠っ
-0.627348	深夜 、
-0.627348	清らか な
-0.627348	清水 が
-0.627348	渡し守 の
-0.627348	渦巻き 引きずる
-0.627348	湧き出 て
-0.627348	満天 の
-0.627348	満身 の
-0.627348	満面 に
-0.627348	滾 々
-0.627348	潜り込ん で
-0.627348	潺 々
-0.627348	澄まし た
-0.627348	激しく 躍り
-0.259891	激怒 し
-0.627348	激流 が
-1.405499	濁流 と
-1.405499	濁流 に
-1.405499	濁流 は
-0.5586166	濁流 を
-0.627348	灼熱 の
-0.627348	災難 、
-0.627348	無二 の
-0.627348	無心 に
-0.627348	無理 に
-0.627348	無言 で
-0.928378	無駄 で
-0.928378	無駄 に
-0.627348	照っ て
-0.928378	照覧 、
-0.928378	照覧 あれ
-0.627348	燃える ばかり
-0.627348	父 も
-1.229408	牧人 で
-1.229408	牧人 は
-1.229408	牧人 も
-1.229408	牧人 を
-0.627348	犬 を
-0.627348	狂っ た
-0.627348	独りよがり か
-0.627348	独り合点 し
-0.627348	狭い 家
-0.627348	猛 勢
-0.627348	猛然 一撃
-0.627348	獅子奮迅 の
-1.906102	王 だ
-1.906102	王 と
-1.237615	王 に
-0.6315377	王 の
-0.6820868	王 は
-1.906102	王 はり
-1.906102	王 を
-0.2511089	王城 に
-1.326318	王城 へ
-1.229408	王様 が
-1.229408	王様 の
-1.229408	王様 は
-1.229408	王様 万
-0.627348	生かし て
-0.627348	生きる 。
-0.627348	生き延び て
-0.4359823	生まれ た
-1.104469	生まれ て
-0.627348	生意気 な
-0.627348	生涯 暮らし
-0.928378	用事 が
-0.928378	用事 を
-0.627348	申し ます
-1.706529	男 、
-1.706529	男 だ
-1.038042	男 で
-1.706529	男 な
-1.706529	男 に
-1.038042	男 の
-1.706529	男 も
-0.8596466	男 を
-0.627348	男泣き に
-1.773476	町 で
-0.4989121	町 に
-0.9265934	町 の
-1.773476	町 は
-1.773476	町 を
-1.773476	町 全体
-0.627348	番 を
-0.627348	疑い に
-1.104469	疑う こと
-0.4359823	疑う の
-0.4359823	疑っ た
-1.104469	疑っ て
-0.627348	疑わ ず
-0.627348	疑惑 の
-1.104469	疲れ きっ
-0.4359823	疲れ て
-1.229408	疲労 し
-1.229408	疲労 すれ
-1.229408	疲労 回復
-1.229408	疲労 困憊
-0.627348	疾風 の
-0.627348	発揮 し
-0.928378	登り 、
-0.928378	登り きっ
-0.627348	百 匹
-0.928378	皆 が
-0.928378	皆 に
-0.627348	皇后 様
-0.5586166	目 が
-0.7370123	目 に
-1.405499	目 の
-0.627348	目撃 し
-0.627348	相 会
-0.627348	相手 に
-0.627348	眉間 の
-0.259891	真 の
-0.627348	真っ裸 じゃ
-0.928378	真昼 どき
-0.928378	真昼 に
-0.627348	真紅 の
-0.627348	眠っ た
-0.928378	眠り たい
-0.928378	眠り に
-0.627348	眺め 回し
-0.627348	着い た
-0.627348	着る が
-0.627348	瞬時 ためらい
-0.627348	瞬間 、
-0.627348	矢 の
-0.627348	知っ て
-0.627348	知ら せ
-0.627348	知らせ て
-0.627348	短刀 で
-0.627348	短剣 が
-1.104469	石工 が
-1.104469	石工 も
-1.104469	石工 を
-0.627348	破る 心
-0.627348	破壊 し
-0.627348	磔刑 に
-1.229408	祝宴 に
-0.560921	祝宴 の
-1.229408	祝宴 は
-0.4794353	神 々
-0.657831	神 も
-0.627348	祭壇 を
-1.839675	私 が
-2.508162	私 たち
-1.661279	私 だ
-1.187111	私 に
-0.8394209	私 の
-0.3245111	私 は
-1.839675	私 も
-0.6766936	私 を
-0.627348	私欲 の
-0.627348	秘密 で
-0.627348	空 を
-0.627348	空っぽ だ
-0.627348	空虚 な
-0.627348	突入 し
-0.627348	突然 、
-0.259891	突破 し
-0.627348	立ちすくん だ
-0.627348	立ち上がる こと
-0.627348	立ち去り 、
-0.627348	立ち止まり そう
-0.627348	立っ て
-0.928378	立て 、
-0.928378	立て られ
-0.259891	竹馬 の
-0.627348	笑い 、
-0.627348	笑お う
-1.229408	笑っ た
-0.3825253	笑っ て
-0.259891	笑わ れる
-0.627348	笛 を
-1.405499	答え 、
-0.5586166	答え た
-0.7370123	答え なかっ
-0.627348	精 も
-0.259891	精いっぱい に
-0.627348	精神 も
-1.405499	約束 し
-0.7370123	約束 の
-0.5586166	約束 を
-0.7370123	結婚式 は
-1.405499	結婚式 も
-0.5586166	結婚式 を
-0.627348	絞め殺し て
-0.259891	続け て
-0.627348	緋 の
-1.104469	縄 は
-1.104469	縄 を
-1.104469	縄 打た
-0.627348	繋 舟
-0.928378	罪 の
-0.928378	罪 は
-0.259891	置い て
-1.326318	羊 だけ
-1.326318	羊 と
-1.326318	羊 も
-1.326318	羊 小屋
-1.326318	羊 群
-0.627348	群 の
-1.472446	群衆 に
-0.6255634	群衆 の
-0.803959	群衆 は
-1.472446	群衆 を
-0.627348	義務 遂行
-1.229408	老爺 に
-1.229408	老爺 の
-0.560921	老爺 は
-1.104469	考え た
-0.4359823	考え て
-1.229408	者 とかいう
-1.229408	者 として
-1.229408	者 に
-1.229408	者 の
-0.928378	耳 に
-0.928378	耳 を
-0.627348	耳打ち し
-0.259891	聞い て
-0.627348	聞か ぬ
-0.627348	聞き入れ て
-0.2575866	聞こえ た
-0.627348	肉体 の
-0.627348	肩 を
-0.627348	背後 から
-0.627348	背負っ た
-0.627348	胴震い を
-1.104469	胸 に
-1.104469	胸 の
-1.104469	胸 を
-0.4359823	腕 に
-1.104469	腕 を
-0.627348	膝 を
-0.627348	膨れ あがり
-0.627348	臣 の
-0.627348	臣下 の
-1.405499	自分 が
-0.3302901	自分 の
-1.405499	自分 を
-0.928378	自身 の
-0.928378	自身 を
-0.627348	舟 は
-1.229408	花婿 として
-0.560921	花婿 の
-1.229408	花婿 は
-1.104469	花嫁 に
-1.104469	花嫁 の
-1.104469	花嫁 は
-1.104469	若い とき
-1.104469	若い メロス
-1.104469	若い 石工
-0.928378	若い衆 は
-0.928378	若い衆 を
-0.627348	茫然 と
-0.627348	草原 に
-0.627348	荒い 呼吸
-0.259891	荒れ くるう
-0.627348	華やか に
-0.627348	萎え て
-0.259891	落ち て
-0.627348	落ち着い て
-0.627348	落とし 瞬時
-0.928378	葉 に
-0.928378	葉 も
-0.627348	蒸し暑い の
-0.627348	蒼白 で
-0.627348	薄明 の
-0.627348	虫 ほど
-0.627348	血 が
-0.627348	血液 だけ
-0.259891	行か なけれ
-0.928378	行き 、
-0.928378	行き 三里
-0.627348	行き着く こと
-0.627348	行き着け ば
-0.627348	行こ う
-0.627348	行っ て
-0.627348	行わ れ
-0.928378	衣装 も
-0.928378	衣装 やら
-0.627348	裂けめ から
-0.259891	裏切り者 だ
-0.928378	裸体 で
-0.928378	裸体 を
-0.627348	襲いかかり 、
-0.627348	西 に
-0.627348	覆い 、
-0.928378	見 た
-0.928378	見 られる
-0.627348	見え ない
-0.627348	見えすい て
-0.259891	見える 。
-0.259891	見せ て
-0.627348	見せつけ て
-0.627348	見つけ て
-0.259891	見つめ て
-0.627348	見よ 、
-0.928378	見る と
-0.928378	見る もの
-0.627348	視線 を
-0.3825253	覚め た
-1.229408	覚め たら
-0.928378	覚悟 し
-0.928378	覚悟 で
-1.326318	言い 、
-1.326318	言い かけ
-1.326318	言い たい
-1.326318	言い たく
-1.326318	言い はっ
-1.326318	言う な
-1.326318	言う に
-1.326318	言う まま
-0.657831	言う わい
-0.627348	言え 暴君
-0.627348	言える 。
-0.4359823	言っ た
-1.104469	言っ て
-0.627348	言わ ず
-0.259891	訪ね て
-0.627348	訪れ た
-0.2575866	許し て
-0.627348	許せ 、
-0.627348	誇っ て
-0.627348	誇り を
-0.627348	誇る べき
-0.627348	語っ た
-0.627348	語勢 を
-0.259891	誠 の
-0.627348	説き伏せ た
-0.928378	誰 だ
-0.928378	誰 も
-0.627348	調え 、
-0.627348	調べ られ
-0.627348	警 吏
-0.627348	議論 を
-0.928378	豪雨 で
-0.928378	豪雨 を
-0.928378	負け た
-0.928378	負け ぬ
-0.928378	買い に
-0.928378	買い 集め
-0.627348	買い物 を
-0.627348	買っ て
-0.627348	資格 さえ
-0.627348	賢 臣
-0.560921	質問 し
-0.560921	質問 を
-0.627348	赤い 光
-0.627348	赤く 大きい
-0.928378	赤らめ た
-0.928378	赤らめ て
-0.627348	赤面 し
-0.4033332	走っ た
-0.5521389	走っ て
-0.627348	走ら なけれ
-0.4359823	走り ながら
-1.104469	走り 出
-0.958861	走る が
-0.3527841	走る の
-1.627348	走る より
-0.627348	走れ 　
-0.627348	走れる よう
-0.928378	起き 、
-0.928378	起き て
-0.627348	起き上がっ て
-0.627348	起こっ た
-0.627348	越え 山越え
-0.627348	足 は
-0.928378	足もと で
-0.928378	足もと に
-0.627348	路傍 の
-0.928378	跳ね 起き
-0.928378	跳ね 飛ばし
-0.627348	踏ん だ
-0.627348	蹴飛ばし 、
-0.627348	躍り くるう
-0.627348	躍り出 た
-0.928378	身 を
-0.928378	身 近
-0.5586166	身代わり の
-0.5586166	身代わり を
-0.627348	身体 疲労
-0.928378	身支度 は
-0.928378	身支度 を
-0.627348	車軸 を
-0.627348	輝い て
-0.627348	辺り を
-0.627348	迎える こと
-0.627348	近 の
-0.627348	近々 、
-0.627348	近づき 、
-0.627348	近寄り 、
-0.627348	追い出す よう
-0.627348	逃がし た
-0.627348	逃げ て
-0.627348	途中 で
-0.627348	速く 走っ
-0.627348	遂行 の
-0.627348	遅かっ た
-0.803959	遅れ たら
-0.1513953	遅れ て
-0.627348	遊ん で
-0.627348	運命 な
-0.627348	過ぎ て
-0.928378	道 で
-0.928378	道 を
-0.627348	道行く 人
-0.627348	邪悪 に対して
-0.928378	邪知 を
-0.928378	邪知 暴虐
-0.627348	都 の
-0.259891	酒宴 の
-0.627348	酔っ て
-0.627348	醜い 裏切り者
-0.627348	里 離れ
-0.627348	里程 の
-0.627348	重ね た
-1.104469	野 に
-0.4359823	野 を
-0.627348	野原 で
-0.627348	鎮め たまえ
-0.627348	長い ため息
-0.627348	長く この
-0.627348	開始 し
-1.405499	間 、
-1.405499	間 が
-0.7370123	間 に
-1.405499	間 の
-1.405499	間 は
-0.928378	間に合う 、
-0.928378	間に合う 。
-0.627348	間に合っ た
-0.259891	間に合わ ぬ
-0.627348	間近 な
-0.627348	闘争 を
-0.627348	降っ て
-1.104469	降り た
-1.104469	降り だし
-1.104469	降り て
-0.627348	限り に
-0.627348	除か なけれ
-0.627348	陽気 に
-0.627348	隅 に
-0.627348	隊 の
-0.627348	隙 に
-0.627348	隣村 に
-0.627348	集まり 、
-0.627348	集め 、
-0.627348	離れ た
-1.229408	雨 が
-0.3825253	雨 も
-0.627348	雨中 、
-0.627348	雲 を
-0.2575866	静か に
-0.627348	面前 で
-0.627348	韋 駄
-1.104469	音 が
-0.4359823	音 高く
-0.627348	響き を
-0.7370123	頃 、
-1.405499	頃 で
-0.7370123	頃 に
-1.405499	頃 は
-0.627348	頑強 で
-0.005267273	頬 を
-0.928378	頭 は
-0.928378	頭 を
-0.627348	頼む 、
-0.259891	頼ん だ
-0.627348	額 の
-1.229408	顔 し
-1.229408	顔 は
-0.560921	顔 を
-0.259891	願い を
-0.627348	願っ た
-1.104469	風 とともに
-1.104469	風 の
-1.104469	風 態
-0.928378	飛ばし 、
-0.928378	飛ばし て
-0.627348	飛び越え 、
-0.627348	飛び込み 、
-0.627348	飛鳥 の
-0.627348	飲ん だ
-0.627348	飾り 、
-0.627348	首 を
-0.627348	馬 の
-0.627348	駄 天
-0.259891	駆け 降り
-0.627348	駆け抜け 、
-0.627348	騒ぎ が
-0.259891	驚い た
-0.627348	驚き 、
-0.627348	高々 と
-1.229408	高く メロス
-0.560921	高く 昇っ
-1.229408	高く 私
-0.627348	鳴り響く ほど
-0.627348	黒い 風
-0.627348	黒雲 が
-0.627348	黙れ 。

\end\
